#include "model_data.h"

const float xmin_data[] PROGMEM = {
0.00000000f,0.00000000f,0.00000000f,0.00000000f,0.00000000f,0.00000000f,0.00000000f,0.00000000f,0.00000000f,0.00000000f,0.00000000f,0.00000000f,0.00000000f,0.00000000f,0.00000000f,0.00000000f,0.00000000f,0.00000000f,0.00000000f,0.00000000f,0.00000000f,0.00000000f,0.00000000f,0.00000000f,0.00000000f,0.00000000f,0.00000000f,0.00000000f,0.00000000f,0.00000000f,0.00000000f,0.00000000f,0.00000000f,0.00000000f,0.00000000f,0.00000000f,0.00000000f,0.00000000f,0.00000000f,0.00000000f,0.00000000f,0.00000000f,0.00000000f,0.00000000f,0.00000000f,0.00000000f,0.00000000f,0.00000000f,0.00000000f,0.00000000f,0.00000000f,0.00000000f,0.00000000f,0.00000000f,0.00000000f,0.00000000f,0.00000000f,0.00000000f,0.00000000f,0.00000000f,0.00000000f,0.00000000f,0.00000000f,0.00000000f,0.00000000f,0.00000000f,0.00000000f,0.00000000f,0.00000000f,0.00000000f,0.00000000f,0.00000000f,0.00000000f,0.00000000f,0.00000000f,0.00000000f,0.00000000f,0.00000000f,0.00000000f,0.00000000f,0.00000000f,0.00000000f,0.00000000f,0.00000000f,0.00000000f,0.00000000f,0.00000000f,0.00000000f,0.00000000f,0.00000000f,0.00000000f,0.00000000f,0.00000000f,0.00000000f,0.00000000f,0.00000000f,0.00000000f,0.00000000f,0.00000000f,0.00000000f,0.00000000f,0.00000000f,0.00000000f,0.00000000f,0.00000000f,0.00000000f,0.00000000f,0.00000000f,0.00000000f,0.00000000f,0.00000000f,0.00000000f,0.00000000f,0.00000000f,0.00000000f,0.00000000f,0.00000000f,0.00000000f,0.00000000f,0.00000000f,0.00000000f,0.00000000f,0.00000000f,0.00000000f,0.00000000f,0.00000000f,0.00000000f,0.00000000f,0.00000000f,0.00000000f,0.00000000f,0.00000000f,0.00000000f,0.00000000f,0.00000000f,0.00000000f,0.00000000f,0.00000000f,0.00000000f,0.00000000f,0.00000000f,0.00000000f,0.00000000f,0.00000000f,0.00000000f,0.00000000f,0.00000000f,0.00000000f,0.00000000f,0.00000000f,0.00000000f,0.00000000f,0.00000000f,0.00000000f,0.00000000f,0.00000000f,0.00000000f,0.00000000f,0.00000000f,0.00000000f,0.00000000f,0.00000000f,0.00000000f,0.00000000f,0.00000000f,0.00000000f,0.00000000f,0.00000000f,0.00000000f,0.00000000f,0.00000000f,0.00000000f,0.00000000f,0.00000000f,0.00000000f,0.00000000f,0.00000000f,0.00000000f,0.00000000f,0.00000000f,0.00000000f,0.00000000f,0.00000000f,0.00000000f,0.00000000f,0.00000000f,0.00000000f,0.00000000f,0.00000000f,0.00000000f,0.00000000f,0.00000000f,0.00000000f,0.00000000f,0.00000000f,0.00000000f,0.00000000f,0.00000000f,0.00000000f,0.00000000f,0.00000000f,0.00000000f,0.00000000f,0.00000000f,0.00000000f,0.00000000f,0.00000000f,0.00000000f,0.00000000f,0.00000000f,0.00000000f,0.00000000f,0.00000000f,0.00000000f,0.00000000f,0.00000000f,0.00000000f,0.00000000f,0.00000000f,0.00000000f,0.00000000f,0.00000000f,0.00000000f,0.00000000f,0.00000000f,0.00000000f,0.00000000f,0.00000000f,0.00000000f,0.00000000f,0.00000000f
};
const float xmax_data[] PROGMEM = {
3950.00000000f,1414.00000000f,513.00000000f,217.00000000f,306.00000000f,187.00000000f,187.00000000f,145.00000000f,84.00000000f,95.00000000f,99.00000000f,94.00000000f,96.00000000f,97.00000000f,61.00000000f,88.00000000f,74.00000000f,54.00000000f,42.00000000f,64.00000000f,50.00000000f,33.00000000f,44.00000000f,41.00000000f,52.00000000f,46.00000000f,98.00000000f,50.00000000f,79.00000000f,89.00000000f,79.00000000f,63.00000000f,45.00000000f,3500.00000000f,3802.00000000f,3834.00000000f,1563.00000000f,1045.00000000f,451.00000000f,842.00000000f,672.00000000f,957.00000000f,753.00000000f,1128.00000000f,772.00000000f,525.00000000f,395.00000000f,554.00000000f,622.00000000f,337.00000000f,248.00000000f,156.00000000f,126.00000000f,73.00000000f,71.00000000f,69.00000000f,67.00000000f,255.00000000f,63.00000000f,91.00000000f,62.00000000f,62.00000000f,61.00000000f,60.00000000f,60.00000000f,60.00000000f,2905.00000000f,3471.00000000f,5032.00000000f,3744.00000000f,1609.00000000f,1480.00000000f,1988.00000000f,2041.00000000f,731.00000000f,657.00000000f,684.00000000f,2177.00000000f,1423.00000000f,876.00000000f,1718.00000000f,692.00000000f,437.00000000f,441.00000000f,417.00000000f,482.00000000f,367.00000000f,373.00000000f,159.00000000f,325.00000000f,485.00000000f,322.00000000f,231.00000000f,95.00000000f,95.00000000f,127.00000000f,93.00000000f,93.00000000f,100.00000000f,4665.00000000f,4561.00000000f,8820.00000000f,3183.00000000f,2179.00000000f,1476.00000000f,1775.00000000f,1417.00000000f,1782.00000000f,1041.00000000f,1139.00000000f,1030.00000000f,1228.00000000f,1040.00000000f,835.00000000f,531.00000000f,596.00000000f,723.00000000f,289.00000000f,415.00000000f,956.00000000f,538.00000000f,907.00000000f,581.00000000f,541.00000000f,1311.00000000f,664.00000000f,381.00000000f,383.00000000f,234.00000000f,258.00000000f,141.00000000f,115.00000000f,2911.00000000f,4251.00000000f,4329.00000000f,5122.00000000f,2452.00000000f,4688.00000000f,1574.00000000f,2965.00000000f,1968.00000000f,1093.00000000f,1014.00000000f,1631.00000000f,1294.00000000f,688.00000000f,784.00000000f,1015.00000000f,1105.00000000f,867.00000000f,621.00000000f,944.00000000f,726.00000000f,445.00000000f,790.00000000f,672.00000000f,654.00000000f,485.00000000f,682.00000000f,601.00000000f,1473.00000000f,1195.00000000f,1031.00000000f,1068.00000000f,247.00000000f,3019.00000000f,5796.00000000f,3274.00000000f,3982.00000000f,2917.00000000f,2479.00000000f,3103.00000000f,1846.00000000f,747.00000000f,671.00000000f,579.00000000f,704.00000000f,697.00000000f,602.00000000f,647.00000000f,674.00000000f,450.00000000f,611.00000000f,878.00000000f,987.00000000f,690.00000000f,565.00000000f,2362.00000000f,1395.00000000f,956.00000000f,1015.00000000f,695.00000000f,240.00000000f,771.00000000f,775.00000000f,412.00000000f,216.00000000f,276.00000000f,2817.00000000f,2030.00000000f,1927.00000000f,7449.00000000f,1754.00000000f,2219.00000000f,1212.00000000f,983.00000000f,946.00000000f,936.00000000f,1075.00000000f,827.00000000f,953.00000000f,866.00000000f,342.00000000f,657.00000000f,600.00000000f,813.00000000f,573.00000000f,668.00000000f,731.00000000f,403.00000000f,997.00000000f,512.00000000f,1397.00000000f,1891.00000000f,990.00000000f,620.00000000f,1040.00000000f,800.00000000f,838.00000000f,213.00000000f,270.00000000f
};
const float W0_data[] PROGMEM = {
0.16654195f,0.09141923f,-0.16379422f,-0.13069712f,-0.24242292f,0.04118356f,0.17614585f,0.05859623f,-0.10415620f,-0.02100350f,-0.09986641f,0.13904686f,-0.17519690f,-0.12809440f,-0.00331448f,0.00830649f,-0.15438929f,0.13072036f,-0.02580789f,-0.26059660f,0.09842878f,-0.02683253f,-0.13374001f,-0.03729647f,0.10843474f,0.03472411f,0.04270842f,-0.11163838f,0.17730919f,-0.18072996f,0.17986797f,-0.31608328f,-0.23645361f,-0.00034241f,-0.10744671f,0.25894973f,-0.08385015f,0.50837713f,-0.58580881f,0.40437856f,-0.54028457f,0.32169637f,-0.09673132f,-0.39141548f,0.17482908f,-0.16025887f,-0.43685856f,0.05143737f,0.09043582f,0.01798166f,0.13215984f,-0.00009271f,0.13116586f,0.02353507f,0.02480210f,0.10263824f,0.00539792f,-0.09542611f,0.15073818f,-0.06815434f,-0.11025093f,-0.15287673f,0.02283647f,0.08072916f,-0.02542357f,-0.04948644f,-0.10083150f,0.08864091f,0.12034500f,-0.00352724f,0.01700536f,-0.12117179f,-0.01925998f,-0.10093363f,0.03803753f,0.11175128f,0.19218822f,-0.15350029f,0.03100483f,0.18767084f,-0.42015275f,-0.02937528f,0.37456810f,0.11947607f,-0.28038797f,-0.01406630f,-0.45743236f,0.24830829f,-0.10165755f,0.02280992f,-0.35584381f,0.02152998f,-0.14221314f,-0.13117665f,-0.40071601f,0.32005093f,0.20726132f,-0.25229713f,-0.35845283f,0.03234152f,-0.00088895f,-0.03473386f,0.09654070f,0.07910992f,0.00862456f,-0.08327567f,0.14729984f,-0.10345968f,0.13660417f,0.19405432f,0.05635187f,-0.07494626f,-0.18037397f,-0.13921526f,0.05276477f,0.10629120f,0.12954998f,0.02127673f,-0.03539055f,-0.11097069f,-0.01881023f,-0.12234852f,-0.06603569f,0.19159946f,0.03857571f,-0.14200844f,0.04982926f,-0.06603696f,0.20368643f,-0.21973445f,0.01688820f,-0.04479301f,-0.16408660f,0.21675088f,-0.07936198f,0.02874256f,0.00718187f,-0.32755437f,-0.00538007f,0.00083782f,-0.11226324f,-0.07647362f,-0.19969516f,-0.10417107f,0.21022135f,0.11695339f,-0.02450747f,0.12391928f,0.15809870f,0.02016460f,0.29517302f,-0.36547270f,0.37563130f,0.13264741f,-0.02594117f,-0.09065836f,0.12498888f,0.12983775f,0.00495749f,-0.04328768f,0.09966236f,-0.11119918f,0.05826831f,-0.04013415f,0.02708599f,-0.00633668f,0.00767276f,0.02680503f,0.01701904f,0.09242015f,-0.14396146f,0.21278898f,-0.12715082f,-0.16499791f,0.17254218f,-0.18268347f,0.06383950f,-0.27178195f,-0.06368428f,-0.09566220f,-0.05213925f,-0.18469159f,-0.07812721f,-0.11110584f,0.13098687f,-0.25114816f,-0.28019860f,-0.32239115f,-0.14074117f,-0.00466271f,0.16588663f,-0.06213158f,-0.26414466f,-0.15659013f,-0.16493683f,-0.11703019f,-0.12074163f,-0.02422719f,0.12736897f,-0.11243623f,0.16314852f,0.29647934f,0.16542028f,0.03652216f,0.17419088f,0.32427657f,-0.08256335f,-0.07394012f,0.13055384f,-0.19615363f,0.22784127f,-0.21859105f,0.01093539f,0.05302084f,-0.13464473f,0.05606365f,-0.19935304f,-0.10812771f,0.16940983f,0.22251865f,0.11073072f,0.07381722f,0.02905777f,-0.16377868f,0.20702124f,-0.21229440f,0.20105362f,-0.18096472f,-0.14588225f,-0.12967569f,0.12283217f,0.06439981f,0.17135902f,-0.04911461f,-0.19904001f,0.14374523f,-0.27228698f,-0.02486023f,0.09464914f,0.06354823f,-0.02711669f,0.06124483f,-0.25125057f,0.22199327f,0.01505063f,-0.02526704f,-0.05250358f,0.16053231f,0.13331337f,-0.23220442f,-0.02977201f,-0.06267641f,-0.16877246f,0.10720800f,0.05405782f,0.27141279f,0.01837900f,0.11902437f,0.02988281f,0.09030321f,-0.04127849f,-0.05755881f,-0.00684147f,-0.17340192f,0.11253780f,-0.19178142f,-0.05425445f,0.00555412f,-0.06790802f,0.19835393f,0.02990807f,-0.02095359f,0.12485436f,0.09858841f,0.23701327f,-0.12901586f,-0.07430947f,0.08357624f,-0.10863705f,-0.18436952f,-0.05740808f,-0.07696915f,0.09028722f,0.14343366f,0.06339018f,0.06625530f,0.22907881f,0.00555004f,0.32730988f,0.02471907f,0.16490243f,0.12396373f,0.22982600f,-0.05497686f,0.10855465f,0.00953581f,0.21268204f,-0.22614548f,0.12561037f,-0.16240098f,-0.07541076f,-0.12237715f,-0.04909822f,0.00688188f,-0.14872196f,0.01145971f,0.06113865f,-0.06763561f,-0.23655930f,-0.00594654f,0.01599276f,0.09519293f,-0.05387952f,-0.07662172f,0.23589985f,0.28847951f,0.08893972f,-0.26319993f,0.04637464f,-0.09393730f,-0.20045407f,0.09963942f,-0.12343813f,-0.18829995f,0.16878301f,0.03034087f,0.20581323f,-0.19791070f,-0.16360576f,-0.24100383f,-0.22197041f,0.06182840f,0.16894048f,-0.04908779f,-0.08072524f,-0.13655809f,0.15428616f,0.04239437f,-0.17193711f,0.13937806f,0.11608710f,0.09858607f,0.17874797f,-0.09886991f,0.10923661f,-0.06634201f,0.09632970f,-0.12417813f,0.23666210f,0.03252823f,-0.07858574f,-0.09569197f,0.05384137f,0.30672044f,-0.15645486f,-0.29194629f,0.09714676f,-0.24897280f,-0.04419073f,0.07641340f,0.03720526f,-0.07929681f,0.10360707f,0.31404480f,0.08359595f,-0.02916135f,0.04647487f,-0.41204551f,-0.16788061f,-0.07907675f,-0.25143263f,-0.05323671f,-0.23256028f,-0.13041264f,-0.12152866f,-0.28538373f,0.20147678f,-0.24986814f,0.22112606f,0.14722967f,0.00381607f,-0.12075166f,-0.01546968f,-0.20886575f,-0.28262353f,0.02679840f,-0.10941205f,-0.20774885f,0.25590417f,-0.25863507f,0.11944252f,-0.03430340f,-0.16152582f,-0.00510101f,0.27474082f,0.23655853f,0.25044554f,-0.02283028f,0.26406008f,0.12849876f,-0.10104767f,0.25368419f,0.01605258f,-0.29467127f,0.22975518f,-0.11413989f,-0.00226260f,-0.23598164f,-0.13949251f,0.15559489f,0.02353956f,0.08493074f,0.21293178f,-0.16957060f,-0.10941446f,-0.28418019f,0.05792727f,-0.07909500f,-0.24542153f,-0.07682502f,-0.07568236f,-0.09449169f,0.12007043f,-0.15313688f,0.10471395f,-0.18998818f,0.16378361f,-0.08717655f,0.19994134f,0.23584586f,-0.20227288f,-0.40677533f,0.17644981f,0.15199262f,-0.23962006f,0.02668247f,0.07723343f,0.14504711f,0.21831973f,-0.25680819f,-0.13901740f,-0.26725948f,0.21107627f,-0.00246869f,-0.15975808f,-0.21005082f,-0.06156010f,0.25494882f,0.14323622f,0.17763828f,-0.21984249f,0.16842325f,-0.01096888f,-0.05335175f,-0.12242360f,0.19671674f,0.16153188f,-0.07445136f,-0.22327062f,0.04246824f,0.20740007f,-0.21523462f,0.02861372f,0.16756892f,-0.02409749f,0.03396791f,-0.17967023f,-0.29949391f,0.16291036f,-0.34396690f,0.04451124f,-0.23081791f,-0.21323623f,-0.09451221f,0.02168727f,0.22868566f,0.08311898f,-0.21535359f,-0.06124594f,0.04202123f,0.21085478f,0.02114810f,0.07308230f,0.15783480f,-0.05263304f,-0.01011459f,0.01976701f,0.10050428f,0.07154129f,-0.22139224f,0.10421775f,0.07196043f,-0.10139622f,-0.04311813f,0.24854003f,0.11647031f,0.01773793f,-0.07643489f,-0.15146677f,0.03552496f,0.04865189f,0.02483387f,0.04483325f,-0.21064672f,0.17489554f,-0.09518982f,0.12541699f,-0.00973488f,-0.13825278f,-0.11992235f,0.34344134f,-0.00419367f,-0.30904591f,0.17963719f,-0.35317495f,-0.10861165f,0.27456525f,-0.15690193f,0.09386044f,-0.31875628f,-0.01881186f,0.04854460f,0.19168468f,0.02005602f,-0.04801266f,-0.10679469f,0.00835243f,-0.05756814f,0.16805077f,-0.17687070f,-0.12444634f,-0.04049309f,0.26347592f,-0.29395550f,0.35553426f,-0.08671787f,0.19587031f,0.11497523f,0.24100015f,-0.05570747f,0.00785816f,-0.19466941f,0.16278443f,-0.28595915f,0.01240369f,0.15682924f,-0.10453854f,0.01593627f,0.18796268f,-0.17687987f,0.17189497f,-0.11441974f,0.33425057f,-0.20110716f,0.37705284f,0.32762814f,0.13213092f,-0.24642967f,0.25024268f,-0.21773459f,-0.06249088f,0.02036189f,0.02845553f,-0.32680351f,0.15495820f,-0.24631128f,-0.14443421f,-0.14171956f,-0.16079204f,-0.29221261f,0.03046673f,0.42510867f,0.02732929f,0.13541903f,-0.05234158f,-0.37023348f,0.21171173f,-0.09345601f,0.06676298f,-0.32443163f,0.07496563f,-0.12948847f,0.22149861f,-0.36344191f,0.41281316f,-0.35242343f,0.25589383f,0.09544387f,-0.10409581f,-0.00912519f,0.33869067f,0.13307662f,0.26937741f,-0.08872660f,0.37716135f,-0.33577111f,0.31301871f,-0.14599971f,0.19268963f,-0.28111008f,-0.01033130f,-0.38517854f,0.39679924f,0.18752766f,0.13175417f,0.39476278f,0.25089502f,-0.18504699f,-0.08473258f,-0.28600466f,-0.06792799f,-0.17126559f,0.15104169f,-0.33911794f,0.11608391f,-0.17021677f,-0.34239110f,-0.13385166f,0.07912516f,0.48503700f,0.45952004f,0.04179022f,-0.06643599f,-0.14260170f,0.25151706f,0.09814721f,0.18139459f,-0.25477225f,0.16249198f,0.01514824f,0.28609326f,-0.40204206f,0.53165072f,-0.30084202f,0.06951158f,-0.04320031f,-0.02316364f,-0.11088193f,0.46586326f,-0.07970875f,0.08489417f,0.02940678f,0.06281610f,0.03647124f,-0.10492523f,-0.19912112f,0.42801264f,-0.26777905f,0.30366206f,-0.09616903f,0.00277371f,0.04148060f,-0.15860520f,0.18147498f,0.50225198f,0.04461995f,-0.05753926f,0.15996465f,-0.09241666f,-0.13144460f,0.02193258f,-0.02258258f,-0.13785774f,-0.24039194f,-0.24089935f,-0.34239447f,0.00197361f,0.05359020f,0.41004413f,-0.06875154f,-0.03708495f,0.12728304f,0.40067589f,0.20769051f,0.14071953f,0.09061956f,0.21553947f,-0.16620383f,0.45240954f,-0.22662230f,0.30757251f,-0.11950660f,0.36141220f,-0.02186305f,-0.20659611f,0.14091943f,0.19965045f,-0.16770388f,0.08249627f,0.19070095f,0.34877226f,-0.01537492f,0.04157025f,-0.15992308f,0.31609157f,-0.14783353f,0.39329046f,-0.08802783f,0.04794974f,0.27571124f,-0.21111065f,0.18821470f,0.51732868f,0.16917582f,-0.24542052f,-0.04615705f,0.19964926f,-0.15101512f,0.17707266f,-0.31887862f,0.08950281f,-0.42134026f,-0.30586296f,-0.37836933f,0.29727706f,0.56649661f,0.31581718f,-0.02264287f,0.21097127f,-0.03816316f,0.14565970f,0.12712999f,-0.01026923f,-0.38095111f,0.26736316f,-0.34001431f,0.16999741f,-0.30542469f,0.23606879f,-0.20122235f,0.11002977f,0.10977799f,-0.31978720f,-0.08539551f,0.33715212f,-0.19842269f,0.14211759f,0.11016680f,0.11138896f,-0.18227421f,0.02582872f,-0.21232854f,0.48157442f,-0.04777176f,0.30415401f,0.20722778f,0.18970607f,-0.01904709f,-0.36630610f,-0.00675562f,0.22977309f,0.08094471f,-0.06307615f,0.06259001f,0.01067604f,-0.15530151f,0.13621064f,-0.46951127f,0.11214478f,-0.10674731f,-0.01516266f,-0.05978450f,-0.00515035f,0.10422499f,0.06533916f,-0.22052786f,-0.15044923f,-0.34282926f,0.13941826f,-0.20371924f,-0.06418450f,-0.12675543f,0.09134061f,-0.21862417f,0.29264128f,-0.15205328f,0.11931729f,-0.29342234f,0.22298394f,0.01497594f,0.18743919f,-0.21402667f,0.40149960f,0.08833447f,0.26348275f,-0.04154433f,0.16403872f,-0.34641573f,-0.08661177f,-0.25258049f,0.15676785f,0.03744174f,0.08747138f,-0.18951437f,-0.04500992f,0.14643662f,0.14454646f,-0.24497347f,0.14805581f,-0.03124288f,-0.19294672f,-0.19485797f,0.03483371f,-0.52023107f,0.07714183f,-0.45654830f,0.17143406f,-0.39392811f,-0.12808427f,-0.40254197f,-0.00614741f,0.09957643f,0.32783309f,0.02610715f,-0.18409757f,-0.33093560f,0.09916336f,0.23200819f,0.10604625f,-0.08331648f,0.25183925f,-0.39407453f,0.18325250f,-0.30634803f,0.31468439f,-0.24161100f,0.27331993f,0.40101391f,-0.00781524f,0.08589759f,0.38782310f,-0.27652812f,0.36987135f,-0.10527746f,0.04721031f,-0.34322110f,0.05228221f,-0.65063429f,0.49594921f,-0.45002693f,0.19487934f,-0.03691499f,0.20377973f,0.06061780f,-0.30951130f,0.27603945f,0.24544798f,-0.32646865f,-0.14922048f,-0.01210153f,-0.14664972f,-0.23892553f,0.32915583f,-0.48088771f,0.09939761f,-0.19126429f,0.06217235f,-0.43921742f,0.32019192f,0.23642565f,0.20842606f,0.03597465f,0.11468649f,-0.36489144f,0.09003218f,-0.07043052f,-0.05162526f,-0.09242259f,0.20713772f,0.05832032f,0.23929845f,-0.12775394f,0.07864910f,-0.24774773f,-0.15652204f,-0.22539286f,-0.19621240f,-0.26383677f,0.19219662f,0.04381880f,0.15948492f,0.32264766f,-0.03647713f,0.14376833f,0.20369816f,-0.17646560f,0.33325866f,-0.07214244f,0.48508090f,-0.07029693f,-0.05879602f,0.24420835f,-0.07475190f,-0.07388947f,0.47411579f,-0.10063335f,0.02586375f,-0.19428785f,-0.04801501f,-0.50586826f,0.31666136f,-0.31467530f,-0.05853165f,-0.27857250f,0.07002706f,-0.31938866f,0.07940253f,0.48721606f,0.42510149f,-0.00186894f,0.22827041f,-0.46055025f,0.34745550f,0.06384988f,0.28153795f,-0.04891626f,-0.08102218f,-0.31883547f,0.39208376f,-0.02642982f,0.42057109f,-0.21674562f,-0.00523554f,-0.01093037f,0.01604243f,0.21455310f,0.40499005f,-0.31729567f,0.40324298f,0.11536621f,-0.04550206f,-0.47314402f,0.09552512f,-0.47690868f,0.10961567f,-0.34252256f,0.00971721f,0.05937922f,0.20258476f,0.05500153f,-0.21581405f,0.17683874f,0.33066383f,-0.11403812f,-0.15772547f,-0.03791458f,-0.25525340f,-0.24158657f,0.22647341f,-0.25847730f,0.03360949f,-0.31603259f,-0.00011078f,-0.12387939f,0.16901504f,0.30915359f,0.13956262f,0.05738942f,-0.09158645f,-0.12024715f,0.15910265f,0.13101228f,0.00165989f,-0.26717004f,-0.08004951f,-0.13884179f,0.18585272f,-0.16373524f,0.10652776f,-0.18861550f,0.08133636f,0.06350870f,0.08950642f,-0.22226156f,0.34744740f,-0.24156933f,0.22692631f,0.02601893f,0.28675628f,-0.47614098f,0.15365177f,-0.15485796f,0.13347040f,-0.30585173f,0.34915236f,0.08563744f,0.24815193f,0.25636002f,-0.05069008f,-0.13567118f,0.31752110f,-0.08097344f,-0.30002028f,-0.13448969f,-0.35639945f,0.08239093f,0.02744623f,-0.30946267f,-0.20547953f,-0.43471122f,-0.44010335f,0.05328522f,0.09676923f,0.24144523f,0.57316613f,-0.02052194f,-0.07443237f,-0.06671491f,0.07349415f,-0.08319051f,0.19285274f,-0.21848062f,-0.03628855f,-0.36994964f,0.32507467f,-0.13994636f,0.04670511f,-0.26312703f,0.31353953f,0.35095817f,-0.06149326f,0.14104551f,0.02972774f,-0.38935030f,0.27410623f,0.12588300f,0.09226897f,-0.27651364f,-0.10201129f,-0.26131272f,0.29907116f,-0.13048756f,0.24689670f,-0.21586308f,0.00701735f,0.25836501f,-0.05932647f,0.15652445f,0.23452158f,-0.37417209f,-0.35481751f,0.13040511f,-0.03106913f,-0.05307293f,0.08802287f,-0.00344391f,0.14158458f,-0.16222017f,-0.33722240f,0.07282507f,0.28318366f,0.18114297f,0.21127799f,0.30209890f,-0.14509532f,0.01226990f,0.42986321f,0.22431000f,0.10127729f,-0.23010845f,0.07332455f,-0.31172326f,0.36979198f,-0.11495633f,0.17736588f,-0.13789067f,0.25776562f,0.04002281f,-0.29528877f,-0.26010394f,0.14104119f,-0.14775467f,0.26893666f,0.07852951f,0.07797559f,-0.07595567f,-0.18723659f,-0.37682077f,0.20026402f,-0.23977277f,0.38767645f,-0.26756993f,-0.13919340f,0.01887698f,-0.40123045f,-0.01759455f,0.25886238f,-0.01212402f,-0.29560038f,-0.02344829f,-0.13416772f,0.04959342f,0.08898528f,-0.33287373f,0.07810929f,-0.29622126f,-0.08091068f,-0.03726892f,0.20690410f,0.21961385f,-0.03798137f,-0.02884886f,-0.00699147f,-0.15602952f,0.18652150f,-0.20191035f,0.18435363f,0.00330064f,-0.17771825f,-0.09902880f,0.09928887f,0.08797301f,0.18190591f,0.03215323f,0.00186655f,-0.20587277f,-0.29712430f,0.01642860f,-0.09352084f,0.10703840f,0.01461111f,-0.25545505f,0.03224347f,-0.36260980f,0.06270053f,0.03495074f,-0.06803507f,-0.23457588f,0.03767393f,-0.03595588f,0.09039181f,-0.00723028f,-0.15692854f,0.13135107f,0.17698468f,-0.14573276f,0.03893464f,-0.09669957f,-0.27167460f,0.10251528f,-0.03959291f,0.08206326f,0.06485855f,-0.02782474f,-0.34369424f,0.31418675f,0.13422839f,0.13649108f,0.24249105f,-0.08586959f,-0.23441017f,-0.16893868f,0.04927210f,0.19189863f,0.25341776f,-0.18531175f,0.15097828f,-0.14177589f,0.08194416f,-0.05391518f,0.03310174f,0.16273816f,-0.08915591f,-0.05963212f,0.02183247f,0.11153178f,0.20142867f,-0.05382976f,0.10722804f,-0.02765170f,0.19591361f,-0.30025387f,-0.10337436f,-0.13036898f,0.34725946f,-0.16529350f,0.08405214f,-0.12231819f,0.02407920f,0.04717837f,-0.16669303f,-0.08252632f,0.16397093f,0.24971822f,-0.11524794f,-0.09056701f,0.09010085f,0.26273993f,-0.00466636f,-0.07257582f,-0.23046404f,0.25066325f,-0.01586301f,-0.14643694f,-0.00770002f,-0.08478706f,0.07979511f,0.02162955f,-0.17413236f,0.21657521f,-0.01015060f,-0.21736424f,-0.01593598f,-0.16065648f,0.18813895f,-0.07061437f,0.24858576f,-0.21778418f,0.05741519f,-0.18841569f,-0.04324349f,0.00946572f,-0.15576757f,0.10514810f,0.06407446f,0.07607465f,0.29505900f,-0.18130784f,0.01147455f,0.11047542f,-0.00144083f,-0.06450187f,-0.04735566f,-0.00512227f,0.25522000f,-0.12913828f,-0.17653994f,-0.00668748f,0.01819890f,-0.22863643f,0.21042286f,-0.11428075f,-0.22007732f,-0.20970699f,-0.03803888f,-0.18889593f,0.15772374f,-0.17610998f,-0.07699711f,0.11385655f,-0.13897704f,-0.21487473f,0.00816013f,0.06030192f,0.07981187f,0.01588463f,0.17610538f,0.07060133f,0.32390088f,-0.14234048f,-0.05838906f,-0.21912670f,-0.18845290f,-0.25678244f,0.07656082f,-0.10717172f,0.03204378f,-0.07300994f,-0.09682277f,0.08015595f,-0.03998474f,-0.07743879f,0.19498487f,0.19276388f,0.12513641f,-0.13282105f,0.11511922f,0.08557624f,-0.22164810f,0.06977750f,0.22875455f,-0.30481574f,0.34925306f,-0.00089368f,-0.15593292f,-0.04916133f,-0.14131297f,0.18098158f,0.09521209f,0.24083233f,-0.26387447f,-0.05299344f,-0.04524051f,0.07721943f,-0.23487043f,-0.23791334f,-0.23069614f,-0.07376740f,-0.08056968f,0.27747089f,-0.23663126f,0.17229170f,0.05488593f,-0.40506911f,0.12756705f,0.13980095f,-0.11073290f,-0.20542575f,0.00779432f,-0.25564006f,0.20900966f,-0.08281769f,0.11194101f,-0.34363583f,0.10682231f,0.09756636f,0.15013161f,0.16484675f,0.16444416f,-0.05385600f,0.04905671f,0.00517508f,0.10002950f,-0.16891254f,-0.22078714f,-0.24204081f,0.23513140f,0.01432537f,0.19491580f,-0.12512603f,-0.05778938f,-0.09207315f,0.18830957f,0.01384755f,-0.10060986f,0.05400009f,0.18588029f,-0.41805860f,-0.08401790f,0.10660666f,-0.09874985f,0.33575577f,-0.32100505f,0.17762080f,-0.10394144f,0.21535397f,0.00436729f,0.00810627f,-0.13799264f,0.07534032f,0.03027091f,-0.28742954f,0.03341668f,0.02053627f};
const float b0_data[] PROGMEM = {
-0.07827251f,-0.03240043f,0.03550820f,0.17419638f,-0.04314443f,0.25806245f,-0.14584984f,0.26590383f,-0.10069053f,0.28062943f,-0.06657948f,-0.08752724f,-0.01072809f,0.00118104f,-0.16250163f,0.06156080f
};
const float W1_data[] PROGMEM = {
0.36574978f,0.25949851f,0.06282423f,0.07082602f,0.04736595f,0.32368478f,0.49753478f,0.39127469f,-0.05244259f,-0.23909576f,-0.27968812f,-0.01351612f,-0.41899744f,0.02367760f,-0.05246645f,0.59358317f,-0.08586051f,-0.01915162f,-0.14656006f,0.54627800f,-0.41955456f,-0.02588608f,0.37246397f,0.64835662f,0.62474954f,0.01296802f,-0.17428270f,0.09224447f,0.29184660f,0.07534524f,-0.48539421f,0.28404349f,0.11232203f,0.36856440f,0.33766440f,0.49386427f,-0.15337969f,0.71807384f,0.40632889f,0.27199063f,0.18135819f,0.30544248f,-0.55814523f,-0.18361995f,0.54766846f,-0.68709010f,0.08711040f,0.72558421f,-0.35887748f,-0.12577634f,0.28054416f,-0.59543616f,0.18224028f,0.52711195f,-0.20621510f,0.01461480f,0.14758931f,0.89651209f,-0.10800143f,0.75031215f,0.15852292f,0.00772146f,0.78829205f,-0.42146426f,0.51453429f,0.59136534f,-0.05944875f,0.27136597f,0.05006705f,0.18108554f,-0.22692430f,-0.21011385f,0.09014053f,-0.16776849f,0.13314927f,-0.08721804f,0.08399312f,-0.08076860f,-0.35876355f,-0.09552813f,-0.46793303f,-0.04509753f,0.81414765f,-0.24663852f,0.54085809f,0.53242761f,0.09568557f,-0.20159476f,0.14161035f,0.75722814f,-0.00747584f,0.22477284f,0.73122454f,-0.46973902f,0.32114968f,-0.02543046f,0.62245947f,0.51212400f,-0.73038650f,0.70880401f,-0.15910591f,-0.11838985f,0.01112063f,0.41813701f,0.14730392f,-0.43396518f,0.24335189f,-0.47980428f,0.00621923f,-0.11719562f,-0.62149316f,0.26578075f,-0.54513508f,-0.14781015f,0.42378002f,-0.09101351f,-0.04899917f,0.28100199f,-0.07895406f,-0.22676182f,-0.27297619f,0.69484854f,0.09305354f,0.53038102f,0.84044182f,-0.22961986f,0.83585286f,-0.38190511f,0.45300138f,0.71044183f,-0.03132078f,0.49979258f,-0.21751064f,0.43540424f,-0.00623466f,0.30175900f,0.65473914f,-0.20966332f,0.12277335f,-0.12548363f,-0.26641491f,-0.17101228f,-0.36073339f,0.67531389f,-0.18503016f,-0.38072696f,0.35361034f,-0.15942758f,0.62353712f,-0.06626935f,-0.20356044f,-0.24186575f,-0.12194558f,0.91573077f,0.72854275f,0.57126743f,0.32025269f,-0.03475796f,0.83566082f,-0.20087118f,0.21888773f,0.03680656f,-0.00220983f,0.43415558f,-0.27119321f,-0.07179995f,0.02016934f,0.34781146f,-0.15578777f,-0.11139948f,-0.09116274f,-0.01365512f,-0.33099049f,0.48130405f,0.13633721f,-0.02943699f,-0.01512276f,0.49389762f,-0.73367059f,0.56828099f,0.19600739f,-0.03613136f,0.00265151f,-0.28114250f,-0.33635482f,-0.49852225f,0.05605923f,-0.65611482f,-0.54869211f,0.26739469f,-0.70014864f,-0.00799947f,0.45237738f,-0.06106666f,-0.24344189f,0.20843285f,-0.26930827f,-0.43770877f,-0.38241243f,-0.47740149f,-0.03894625f,0.10232151f,0.59165496f,0.11464426f,-0.36776149f,0.46644387f,0.12093545f,-0.31404787f,0.27719167f,0.64274490f,-0.41266322f,0.48589781f,-0.12303096f,-0.42973715f,-0.05625920f,-0.01126294f,-0.15691966f,-0.44804376f,0.42461798f,0.23536457f,-0.21717440f,0.57959062f,0.13458477f,0.19624813f,0.64413214f,0.69554186f,-0.46932203f,0.51512486f,-0.04064144f,0.00058084f,0.33507556f,0.13553105f,0.19989541f,-0.64464742f,-0.20921069f,-0.07691283f,-0.43529034f,-0.21292154f,-0.25448802f,-0.05566216f,-0.57880253f,-0.33167416f,0.29266351f,-0.25779825f,0.42095116f,0.54948032f,-0.27349162f,0.11592555f,0.32431903f,0.54857188f,-0.12867139f,0.43496180f,0.47885323f,-0.41597202f,-0.08622448f,-0.18811700f};
const float b1_data[] PROGMEM = {
0.07951178f,0.01955339f,0.25473064f,0.00100155f,0.08637996f,0.02587076f,0.00126483f,0.01577434f,-0.02085346f,0.23529029f,0.17438570f,0.19524316f,0.24244209f,0.13265602f,0.24912906f,0.06684517f
};
const float W2_data[] PROGMEM = {
0.37022233f,0.26959047f,-0.95931101f,0.01429851f,0.06144312f,-0.59364259f,-0.82647932f,-0.73918051f,0.21148053f,0.19308631f,0.20230435f,-0.88021708f,0.13869065f,-0.45877066f,0.66528207f,-0.27611911f,0.59173381f,0.57050872f,-0.39652112f,0.59159762f,-0.40974149f,-0.18931587f,0.57010543f,-0.93778813f,-0.10736270f,0.61947995f,0.03396539f,-0.81865120f,-0.70056790f,0.26686645f,0.03697021f,-0.57317030f,-0.14527828f,0.23161514f,0.05799562f,0.95785499f,-0.93933642f,-0.32651365f,0.69481802f,0.34929222f,-0.54997343f,-0.50757664f,-0.52472800f,-0.73691589f,0.64735603f,-0.09675920f,0.46573985f,-0.73032427f};
const float b2_data[] PROGMEM = {
0.07610530f,-0.23077190f,0.13555454f
};
