#include "model_data.h"

const float x_mean_data[] PROGMEM = {
0.32935477f
};
const float x_std_data[] PROGMEM = {
0.57030215f
};
const float y0_mean_data[] PROGMEM = {
0.81558720f
};
const float W0_data[] PROGMEM = {
0.00138170f,0.00339865f,0.00134649f,-0.00569575f,-0.00989370f,-0.01408770f,-0.01817290f,-0.28951821f,-0.01055450f,0.00037508f,-0.00059219f,0.02535019f,-0.00165113f,-0.00427955f,-0.00322186f,-0.00398064f,-0.00221849f,0.00044106f,-0.01183771f,-0.00872234f,-0.00474872f,-0.00766082f,-0.22217469f,-0.00986219f,-0.39459187f,0.02555840f,-0.00199480f,-0.00376539f,-0.02268906f,-0.00628071f,-0.00192317f,0.00056498f,0.00149065f,0.00383613f,0.00133387f,0.00320617f,-0.00537194f,-0.00089863f,0.02643060f,-0.16751429f,-0.00996545f,-0.00096082f,0.00275251f,0.00628910f,0.00219202f,-0.00677475f,0.00112722f,0.00247359f,-0.00071865f,0.00038071f,-0.00714596f,0.00006688f,0.00566707f,0.01350360f,-0.24851598f,0.00573739f,-0.38630897f,-0.00631101f,0.00172856f,-0.00147603f,-0.01146792f,-0.00744242f,0.00099844f,0.00040328f,0.00098371f,-0.00000194f,0.00053191f,0.00750946f,0.00769458f,0.00209393f,0.02776076f,-0.16610152f,-0.00516593f,0.00041330f,-0.00047418f,0.00507261f,0.00070439f,-0.00385768f,-0.00011324f,0.00076330f,0.00131685f,0.00056738f,-0.00361807f,0.00076894f,-0.00571530f,0.00189685f,-0.22086501f,-0.00430142f,-0.24298638f,-0.01717023f,0.00156561f,-0.00169871f,-0.01868458f,-0.00478638f,0.00154257f,0.00101203f,0.00237431f,0.00109682f,0.00296934f,-0.00439923f,-0.01351345f,0.00079692f,0.04573831f,-0.16308859f,-0.00270685f,0.00063527f,0.00169142f,0.01282913f,0.00093612f,0.00120209f,0.00443871f,0.00790044f,0.00230480f,0.00046479f,0.00516234f,-0.00430128f,0.00889334f,-0.00600806f,-0.22840106f,-0.01108032f,-0.24635139f,-0.02254877f,0.00503893f,0.00092945f,-0.00202706f,-0.00027775f,-0.00058071f,0.00186187f,0.00122976f,0.00105250f,0.00196959f,0.00024786f,0.00705654f,-0.00515344f,0.05217553f,-0.16009401f,-0.00324675f,0.00120495f,0.00032425f,0.01138661f,-0.00003567f,0.00224448f,-0.00006531f,0.00256415f,0.00143615f,0.00105818f,0.00057925f,0.00319545f,0.00277681f,-0.00060053f,-0.21566552f,0.00646131f,-0.51613790f,-0.00853125f,0.00232765f,-0.00489931f,-0.00367923f,-0.00371605f,0.00004851f,0.00192891f,0.00081114f,0.00125078f,0.00146961f,0.00125007f,-0.00145524f,-0.00976959f,0.02122275f,-0.15854953f,-0.00066837f,0.00171840f,0.00253923f,-0.00181888f,-0.00103605f,-0.01632286f,0.00407186f,0.01198565f,0.00180205f,-0.00047675f,-0.00323730f,-0.00002224f,-0.00759176f,-0.00342117f,-0.43958631f,-0.00422422f,-0.36390057f,-0.01152099f,-0.00041934f,-0.00150083f,-0.00450140f,-0.00871066f,-0.00110207f,-0.00000704f,0.00205210f,0.00058289f,0.00238669f,0.00731945f,-0.00506265f,0.00148010f,-0.00331894f,-0.16744514f,-0.00457504f,-0.00044603f,-0.00093094f,-0.01126115f,0.00038481f,0.00166834f,-0.00004646f,0.00682925f,0.00034789f,0.00020175f,0.00210488f,0.00819123f,-0.01139179f,-0.00106509f,-0.20041975f,-0.00420644f,-0.22099361f,0.02592363f,0.00114102f,-0.00095268f,-0.00132297f,-0.00235203f,-0.00213631f,-0.00027952f,0.00239326f,0.00247129f,-0.00448240f,0.00417583f,0.00252983f,0.00074858f,-0.02893788f,-0.16465259f,-0.00213616f,0.00146633f,-0.00017881f,-0.02318481f,-0.00114389f,0.00792718f,-0.00041929f,0.00328473f,0.00223473f,0.00105156f,0.00000561f,-0.00070516f,-0.00041480f,-0.00549414f,-0.19584867f,-0.00213645f,-0.24613774f,0.07275461f,-0.00329346f,0.00648127f,-0.00938185f,0.00421038f,0.00039716f,0.00192046f,0.00111356f,0.00172416f,0.00215189f,0.00352561f,0.01504994f,0.00190744f,-0.02440052f,-0.15346016f,0.00230805f,-0.00111565f,-0.00113774f,-0.02710097f,0.00138156f,-0.00298249f,0.00102554f,0.00276505f,0.00174519f,0.00007770f,0.00396912f,0.00057742f,0.00491521f,0.00342745f,-0.36731550f,0.00721125f,-0.18797638f,0.06095097f,0.00075289f,0.00299387f,0.00524437f,0.00090787f,-0.00043411f,-0.00032260f,-0.00197958f,0.00021975f,0.00151995f,0.00704735f,-0.01016421f,-0.00014106f,-0.03035964f,-0.16654854f,0.00288948f,-0.00170708f,0.00135007f,0.00638238f,0.00050341f,0.00706811f,0.00246845f,0.00172415f,-0.00067025f,0.00045845f,0.00006634f,-0.00080213f,0.00117022f,-0.00688719f,-0.19423740f,-0.00081892f,-0.21014605f,0.03974843f,0.00279240f,-0.00153664f,-0.00701976f,-0.00716759f,0.00036250f,0.00213965f,-0.00197041f,0.00350846f,-0.00243703f,0.00705125f,0.00214858f,-0.00183814f,0.00035860f,-0.16821668f,-0.00320130f,0.00058914f,0.00377271f,0.00205479f,0.00036850f,-0.00783804f,-0.00113025f,-0.00058344f,-0.00510027f,-0.00046555f,-0.00434647f,0.00365236f,0.00438145f,0.00258478f,-0.36714265f,0.00266423f,-0.28195423f,0.02047986f,-0.00024104f,0.00260515f,0.00253337f,-0.00405434f,-0.00062201f,-0.00030218f,0.00130754f,0.00115392f,-0.00078079f,-0.00558433f,-0.01011852f,0.00381490f,0.00099910f,-0.16822991f,0.00430619f,-0.00062471f,0.00031086f,0.00795688f,-0.00097356f,-0.00128641f,0.00158151f,0.00419558f,0.00419457f,-0.00163057f,-0.00170856f,0.00025475f,-0.00034410f,-0.01307161f,-0.16800956f,-0.00668168f,-0.11450602f,0.02083009f,-0.00058443f,0.00422750f,0.00468175f,-0.00571623f,-0.00126857f,-0.00050208f,0.00119468f,0.00189446f,0.00072929f,0.00436814f,0.00402219f,-0.00809725f,-0.00998272f,-0.17427649f,-0.00236801f,0.00044602f,0.00058506f,0.04733647f,0.00080395f,-0.00402885f,0.00186755f,-0.00071834f,-0.00134895f,-0.00025289f,-0.00327458f,-0.00461387f,0.00093781f,0.00219393f,-0.26471660f,-0.00168812f,-0.11510500f,-0.01644285f,0.00131849f,0.00329119f,-0.01493893f,-0.01012818f,-0.00115247f,-0.00307137f,-0.00086644f,0.00041047f,0.00602886f,0.00205339f,-0.00157798f,0.00282346f,-0.03242633f,-0.17748213f,-0.00399426f,0.00196165f,-0.00210591f,0.06739572f,-0.00133553f,-0.00624462f,0.00173859f,0.00483774f,0.00049952f,-0.00046733f,-0.00158551f,0.00230401f,-0.00229556f,-0.01686448f,-0.16226032f,-0.00319850f,-0.07738289f,0.00044455f,-0.00187439f,0.00054502f,0.00177941f,0.00082515f,0.00041317f,-0.00252014f,-0.00010036f,0.00219869f,-0.00188696f,0.00341060f,-0.00260842f,0.00199467f,-0.01896630f,-0.18797101f,0.00387693f,-0.00144980f,0.00075957f,0.03454551f,-0.00302163f,0.00614535f,-0.00182343f,-0.00025325f,0.00049797f,-0.00024341f,-0.00138468f,0.00186297f,0.00710551f,-0.00082950f,-0.19195811f,0.00555833f,-0.00825655f,-0.00117781f,0.00525621f,-0.00006107f,-0.00629766f,0.00105969f,0.00070841f,0.00131996f,0.00109228f,0.00078392f,-0.00155798f,0.00835981f,0.00018552f,-0.00641089f,-0.01876464f,-0.18358316f,0.00394211f,-0.00043076f,0.00202315f,0.02434672f,-0.00229231f,0.00024429f,0.00187601f,0.00033665f,-0.00076312f,-0.00057622f,-0.00308115f,0.00657488f,0.00125046f,0.00413007f,-0.36373085f,0.00846050f,0.00056999f,0.00117004f,0.00251287f,0.00089912f,0.00311339f,-0.00166254f,0.00246051f,-0.00747311f,-0.00134336f,-0.00067002f,0.00469985f,-0.00007276f,-0.00355732f,-0.00899072f,0.00755475f,-0.18079819f,-0.00064867f,-0.00046311f,0.00177326f,0.00865312f,-0.00304941f,-0.00584415f,0.00232251f,0.00147573f,-0.00210350f,0.00217389f,0.00584334f,0.00411633f,0.00285443f,-0.00631724f,-0.12176223f,-0.00439356f,0.00047446f,0.01157922f,0.00390111f,-0.00081731f,0.00073051f,0.00107520f,-0.00126957f,0.00034302f,0.00052231f,-0.00114523f,-0.00218689f,-0.00351729f,0.00200537f,0.00056272f,0.02187719f,-0.18167245f,-0.00056469f,0.00099732f,-0.00083309f,0.01742969f,-0.00243816f,0.00230563f,-0.00094859f,0.00475535f,0.00078228f,0.00034774f,0.00185776f,-0.00262803f,0.00928337f,-0.00937958f,-0.25860238f,-0.01136673f,-0.00008609f,-0.01050233f,0.00234014f,0.00358720f,0.00075127f,-0.00276651f,-0.00081098f,0.00031882f,0.00118488f,0.00114132f,0.00318851f,-0.00151396f,0.00306724f,-0.00510409f,0.04362357f,-0.16816497f,-0.00560141f,0.00010465f,0.00127999f,-0.00982700f,-0.00108788f,-0.00494337f,0.00440607f,0.00200943f,-0.00326273f,0.00064312f,-0.00008104f,-0.00183021f,0.00450374f,-0.00273587f,-0.05964499f,0.01260131f,-0.00232003f,-0.00522002f,0.00597392f,-0.00807879f,-0.00723859f,-0.00137630f,0.00107547f,0.00473288f,0.00282563f,-0.00442080f,-0.00264785f,-0.00375864f,-0.00035900f,0.00412765f,0.01626670f,-0.21548149f,0.00004312f,0.00137817f,0.00084725f,-0.01004501f,-0.00127277f,-0.00133950f,0.00434780f,-0.00147260f,0.00410512f,0.00052079f,-0.00217440f,-0.00601092f,-0.00556518f,-0.00811132f,-0.04282411f,-0.01160603f,-0.00193061f,0.00225724f,-0.00268996f,0.00155637f,-0.00612607f,-0.00505927f,0.00101792f,0.00195016f,0.00275601f,-0.00360309f,-0.00571298f,-0.00822931f,-0.01260635f,0.00085006f,0.01841075f,-0.16673408f,0.00174970f,0.00097322f,0.00080000f,-0.00231398f,0.00261325f,-0.00079307f,0.00055474f,-0.00053320f,-0.00073665f,-0.00015307f,0.00412154f,-0.01499941f,0.00282230f,-0.00978627f,-0.05875662f,-0.00210227f,-0.00071356f,0.01140574f,0.00441521f,-0.00099178f,-0.01537128f,-0.00473902f,0.00248231f,0.00466308f,0.00013935f,-0.00086946f,-0.00067676f,-0.01084230f,-0.00514409f,0.00520420f,0.01750446f,-0.15668954f,-0.00224445f,0.00048884f,-0.00043435f,-0.00227103f,0.00117628f,-0.00236844f,-0.00004945f,0.00258101f,0.00519449f,0.00037834f,0.00314397f,0.00941077f,0.01145837f,0.00128244f,-0.01207779f,0.00161428f,-0.00003633f,0.01153826f,-0.00024986f,-0.00222192f,0.00982115f,-0.00298909f,0.00040981f,0.00117320f,0.00464803f,0.00145948f,-0.00741944f,-0.00236290f,0.00642076f,-0.00040816f,0.01775132f,-0.14426467f,-0.00359169f,0.00162878f,0.00240648f,0.00348021f,-0.00219155f,0.00735233f,0.00588848f,-0.00166658f,-0.00145950f,-0.00097127f,0.00724506f,0.00002024f,0.00064636f,0.00308153f,-0.00391156f,0.00259378f,0.00065090f,-0.00069775f,-0.00291559f,-0.00076751f,0.00935268f,0.00036271f,-0.00045087f,0.00112065f,0.00305856f,0.00224877f,0.00324936f,-0.00506512f,-0.00661267f,-0.00643286f,0.04239854f,-0.16347434f,-0.00308851f,0.00249214f,-0.00072454f,-0.00209794f,0.00078140f,-0.00292945f,0.00197551f,0.00640427f,0.00208137f,-0.00031257f,0.00176735f,0.00808774f,0.00146951f,-0.00116248f,-0.00438282f,0.00381235f,0.00217720f,-0.02270224f,-0.00278922f,-0.00301551f,0.01807404f,0.00843277f,0.00251986f,0.00129778f,-0.00028324f,-0.00082748f,-0.00572597f,-0.00269655f,-0.00674307f,0.00105958f,0.04755994f,-0.26653683f,-0.00064994f,0.00298582f,0.00085043f,-0.03713791f,-0.00168418f,0.00281661f,-0.00027664f,0.00153693f,0.00123307f,-0.00097898f,0.00197132f,-0.00615415f,-0.00129888f,-0.00535932f,-0.00261655f,-0.00731503f,0.00129943f,-0.00527437f,0.00464664f,-0.00198084f,0.00010596f,0.00120605f,-0.00008108f,-0.00267128f,0.00145486f,0.00030127f,-0.00021390f,0.00176306f,0.00104058f,-0.01226237f,-0.02212309f,-0.10028477f,-0.00665676f,-0.00255747f,0.00036558f,-0.02462357f,-0.00161032f,-0.00286774f,0.00235058f,-0.00366199f,0.00012702f,0.00069635f,-0.00537408f,-0.00317043f,-0.00048187f,-0.00790763f,-0.00120236f,0.00266966f,0.00191612f,0.04226297f,0.00555863f,-0.00225448f,0.00061432f,-0.00411627f,-0.00072283f,-0.00141677f,-0.00050250f,-0.00518728f,0.00286696f,-0.00803168f,-0.00231611f,-0.00948042f,-0.00897961f,-0.09717860f,-0.01286554f,-0.00223621f,0.00194657f,-0.01851445f,-0.00217991f,0.00550274f,0.00370888f,-0.00041366f,-0.00265669f,-0.00067899f,-0.00058824f,-0.00684242f,-0.00140887f,-0.00057769f,-0.00146544f,-0.00550117f,0.00156405f,0.03435447f,-0.00037353f,0.00044742f,-0.00398191f,-0.00699034f,-0.00275794f,-0.00339894f,0.00111698f,0.00220192f,-0.00067089f,0.00081217f,-0.01800846f,-0.00056520f,-0.01824486f,-0.27635261f,-0.00243932f,-0.00029197f,-0.00051797f,-0.00898304f,-0.00363548f,0.00814993f,-0.00113181f,0.00487146f,0.00601559f,-0.00035063f,-0.00141951f,-0.00275751f,0.00994350f,-0.00920407f,0.00042559f,-0.01022131f,-0.00033471f,0.03464838f,0.00472121f,0.00568781f,-0.00737517f,-0.00221011f,0.00006261f,0.00027445f,0.00226418f,-0.00169332f,-0.00410341f,0.00766635f,0.00091403f,-0.00077114f,0.00909635f,-0.05303162f,-0.01243692f,-0.00159746f,-0.00189542f,-0.02635568f,-0.00159323f,-0.01772875f,0.00505054f,0.00045629f,-0.00372338f,0.00011385f,-0.00146073f,-0.00430749f,-0.00604454f,0.01267977f,-0.00086080f,0.01446258f,-0.00028920f,0.02654942f,-0.00014464f,-0.00302838f,0.01226182f,-0.00705899f,0.00023396f,-0.00135316f,0.00468276f,-0.00190514f,0.00238724f,-0.00518954f,-0.00754403f,-0.00338323f,0.01418134f,-0.02925839f,-0.00414439f,0.00130635f,-0.00334649f,-0.01795640f,-0.00257869f,-0.00743853f,0.00395204f,0.00003978f,0.00222533f,0.00000999f,0.00737020f,0.00054960f,0.00907516f,0.00890418f,-0.00426493f,0.01348539f,0.00443448f,-0.00241572f,-0.00350279f,-0.00117831f,0.00469898f,-0.00929392f,-0.00462369f,-0.00149094f,0.00256022f,-0.00005189f,-0.00172085f,0.00283501f,-0.01950291f,0.00270943f,0.03812164f,-0.01881052f,-0.00405879f,-0.00113960f,-0.00320171f,-0.00335011f,-0.00186074f,-0.00842043f,0.00277184f,0.00240688f,0.00269783f,0.00025033f,-0.00555461f,-0.00086758f,0.00123514f,-0.01909997f,-0.00021924f,-0.01195868f,0.00081823f,-0.01553087f,-0.00441382f,0.00033651f,0.00149693f,-0.01572002f,-0.00290911f,0.00342681f,0.00332526f,0.00125739f,-0.00227220f,0.00272889f,-0.01073306f,0.00199327f,0.03707891f,-0.00964172f,-0.01319028f,0.00019202f,-0.00294408f,-0.00786551f,-0.00049477f,0.00599866f,0.00016136f,0.00040236f,-0.00148374f,-0.00014787f,0.00256865f,0.00445414f,0.00052570f,-0.00601807f,-0.00135616f,-0.00142790f,0.00038837f,-0.01009820f,0.00207707f,-0.00052359f,0.00083257f,-0.00422088f,-0.00072924f,-0.00370606f,-0.00012219f,0.00006556f,-0.00598412f,-0.00339319f,-0.00100392f,-0.00217790f,0.01044383f,-0.00711566f,-0.00810079f,-0.00019308f,-0.00185380f,-0.02422541f,0.00059481f,-0.01495051f,-0.00371471f,-0.00624690f,0.00675733f,0.00057871f,-0.00054443f,-0.00205573f,-0.00426215f,0.00132735f,-0.00081551f,-0.00631366f,0.00263212f,0.00685114f,0.00268006f,-0.00072089f,0.01413396f,0.00058815f,-0.00160770f,-0.00600926f,-0.00025902f,-0.00483242f,-0.00874338f,0.00061818f,0.00322199f,-0.00066759f,-0.00739587f,-0.00508049f,-0.00604241f,0.00085669f,0.00056677f,0.00447871f,0.00138610f,0.00007815f,0.00141055f,0.00295529f,-0.00478988f,0.00007723f,-0.00101656f,-0.00116920f,0.00309978f,0.00376149f,-0.00000903f,0.00305081f,-0.00049760f,-0.00546376f,-0.00112916f,-0.00114042f,0.00375583f,-0.00668352f,0.00157302f,0.00084225f,0.00143903f,0.00139443f,-0.00931989f,-0.00329806f,-0.00553421f,-0.00063387f,-0.02275679f,-0.00335918f,-0.00349544f,0.00207370f,-0.00376362f,0.03887493f,-0.00076727f,0.01500627f,-0.00580233f,0.00557085f,-0.00205831f,0.00156271f,0.00531171f,0.00083355f,-0.00426262f,-0.00458552f,0.00059122f,-0.00810491f,0.00053500f,-0.00168770f,0.00073455f,-0.00126577f,-0.01223342f,-0.00589135f,0.00027405f,-0.00305249f,0.00364306f,-0.00379808f,-0.00643298f,-0.00140041f,0.00486181f,-0.00358513f,-0.03161145f,0.00068488f,0.00006735f,0.00153245f,0.00030891f,0.05088146f,0.00112363f,-0.00064336f,0.00122398f,-0.00751486f,0.00065035f,-0.00091691f,-0.00997233f,-0.00473079f,0.00790253f,0.00612931f,-0.00224224f,0.00332356f,0.00259087f,-0.00970971f,0.00475644f,-0.00155351f,0.00912856f,-0.00091363f,0.00037604f,0.00146300f,0.00052146f,-0.00045560f,-0.00107643f,-0.00273392f,0.00518915f,0.00535590f,0.00299451f,-0.00155215f,-0.00261318f,0.00185088f,-0.00134185f,0.06000353f,0.00182419f,-0.00338516f,0.00032349f,-0.00186744f,0.00729577f,-0.00064166f,-0.00149417f,0.00256406f,0.00952236f,-0.00623957f,0.00077318f,0.00654809f,-0.00037135f,-0.03430093f,0.00057222f,0.00100239f,0.00655008f,-0.00099204f,-0.00095698f,-0.00377440f,0.00386632f,0.00070412f,-0.00428025f,0.00659283f,0.00268097f,-0.00257730f,-0.00046529f,-0.00424832f,-0.01242716f,0.00074579f,-0.00049743f,0.04281152f,0.00022854f,-0.00592896f,0.00345762f,0.00148630f,-0.00465534f,-0.00187113f,-0.00034144f,-0.00682774f,0.00339584f,0.00926052f,-0.00181046f,-0.00094402f,-0.00018233f,-0.01833600f,0.00102662f,-0.00483790f,-0.00207939f,-0.00937121f,0.00348333f,-0.00256047f,0.00711138f,-0.00199485f,0.00086813f,0.00285710f,-0.01664329f,-0.00949699f,0.00195237f,0.00075596f,-0.00918855f,0.00086177f,-0.00150295f,0.03266374f,0.00039264f,-0.01143129f,0.00080659f,-0.00069610f,0.00149689f,0.00019801f,-0.00354043f,-0.00741565f,-0.00865747f,-0.01315133f,-0.00023574f,-0.00415573f,0.00120495f,-0.02612422f,0.00271879f,0.00326661f,-0.01216706f,-0.00576312f,-0.00083428f,0.00214134f,0.00559084f,0.00379159f,-0.00613923f,0.00578914f,-0.00293005f,-0.00299924f,-0.01249890f,0.00014613f,-0.00481538f,0.00106743f,0.00019139f,0.02971717f,-0.00016840f,0.00408998f,0.00326900f,-0.00201728f,-0.00447175f,0.00199110f,-0.00871843f,-0.01512295f,-0.00612497f,0.00221102f,-0.00198394f,0.00622561f,-0.00052303f,0.02653416f,0.00004214f,-0.00163464f,-0.01518760f,-0.00852990f,0.00126232f,-0.00154389f,0.00167205f,0.00023691f,-0.00361033f,0.00082839f,-0.00847099f,-0.00035334f,-0.03204389f,-0.00095613f,-0.00353204f,0.00526914f,-0.00126508f,0.00016396f,-0.00008590f,-0.00294964f,-0.00002311f,0.00353895f,0.00393115f,-0.00113951f,-0.00395576f,0.00151526f,-0.00082419f,-0.02138737f,-0.00048365f,-0.01802915f,0.00166511f,0.06875079f,0.00317687f,0.00021764f,-0.00530232f,-0.00113540f,-0.00032541f,-0.00022225f,0.00122198f,0.00069632f,-0.00051786f,0.00690124f,0.00494352f,-0.00031343f,-0.03545836f,0.00238437f,-0.00534767f,0.00164717f,-0.00137318f,-0.02578877f,0.00250949f,0.01280344f,0.00365480f,0.00318196f,-0.00142156f,-0.00182935f,-0.00051276f,0.01351473f,0.00257053f,0.00664684f,-0.00222375f,0.00198117f,-0.00009302f,0.10211516f,0.00360548f,0.00072704f,0.00762052f,-0.00632251f,0.00083983f,0.00066788f,0.00174402f,-0.00182379f,-0.00287320f,-0.00135032f,0.00161387f,-0.01149677f,-0.01654398f,-0.00031225f,-0.00162260f,0.00409232f,-0.00158105f,-0.05820144f,-0.00163609f,-0.00087098f,-0.00146524f,-0.00119777f,0.00133347f,0.00064537f,0.00286401f,-0.00221886f,-0.00261314f,0.00328163f,0.00265303f,0.00201276f,0.00218007f,0.08402169f,0.00546314f,0.00438275f,-0.00594633f,-0.00230795f,0.00175849f,-0.00512123f,0.00045276f,0.00323020f,0.00384778f,0.00113994f,-0.00379720f,-0.00059955f,0.01503010f,0.00193474f,-0.01138224f,0.00190510f,0.00219972f,-0.01908535f,0.00328172f,0.01739877f,0.00722878f,-0.00084653f,0.00234473f,0.00172230f,0.00416642f,0.00698859f,0.00029452f,-0.00632892f,-0.00145836f,-0.00325277f,0.00399049f,0.03449675f,0.00136001f,-0.00718434f,-0.00160482f,-0.00140395f,0.00192886f,0.00099347f,0.00669916f,0.00228083f,-0.00565802f,0.00997591f,-0.00366497f,0.00256392f,0.03263390f,0.00284148f,-0.00446313f,0.00410158f,0.00155184f,0.00728131f,-0.00082046f,-0.00533018f,-0.00440005f,0.00717116f,0.00247640f,-0.00183843f,-0.00140783f,-0.00776716f,-0.00983702f,-0.00020372f,-0.00192161f,0.00402297f,0.00079403f,-0.01068191f,-0.00258971f,-0.00180092f,-0.00875428f,-0.00496401f,0.00132010f,-0.00510515f,0.00644837f,-0.00176111f,0.00255763f,-0.00044917f,-0.01408366f,-0.00563903f,0.07335776f,0.00398090f,-0.00684409f,0.00889718f,-0.00442670f,0.02686543f,-0.00215492f,-0.00282257f,-0.00111615f,0.00487168f,0.00351266f,0.00102464f,-0.00109127f,0.00676339f,-0.00182695f,-0.00420386f,-0.00053156f,-0.00801604f,0.00117226f,-0.06159054f,-0.00043415f,0.00112690f,0.00656017f,-0.00617424f,-0.00119010f,0.00253612f,-0.00086234f,0.00022526f,-0.00160786f,-0.01406775f,-0.00217938f,-0.01062840f,0.07745929f,0.00243660f,-0.00165429f,0.00365541f,0.00642785f,-0.01492024f,0.00268648f,-0.00834084f,-0.00372225f,0.00081354f,-0.00237941f,-0.00142883f,-0.00489157f,-0.00025275f,-0.00800314f,-0.00921073f,0.00402564f,-0.00432138f,0.00494017f,-0.04209065f,0.00306610f,0.00258875f,0.00551124f,-0.01006878f,0.00265981f,-0.00483694f,0.00556300f,0.00220979f,-0.00237736f,-0.01368689f,0.00178717f,-0.00798553f,0.03585059f,0.00638297f,-0.00104333f,0.00669584f,0.00165663f,-0.02672204f,0.01056060f,-0.02452886f,0.01815770f,0.00414772f,-0.00008295f,-0.00066237f,-0.01022610f,0.00262286f,-0.00484738f,-0.00251245f,0.00404935f,-0.00358495f,0.00187885f,0.01543461f,0.00513230f,0.00026263f,-0.00151469f,0.00204128f,0.00204434f,0.00381080f,0.00304248f,-0.00276084f,-0.00506977f,0.00940593f,-0.02479097f,-0.00437741f,-0.00878443f,-0.00287925f,-0.00479867f,0.00675130f,-0.00890796f,-0.01679191f,-0.01359460f,-0.01226235f,0.31710303f,-0.00350762f,-0.00189307f,-0.00087183f,-0.00208253f,-0.01457873f,-0.00128221f,-0.00541903f,0.00143178f,-0.01815515f,-0.00157493f,-0.00297969f,0.00273359f,0.00657021f,-0.00779237f,-0.00889020f,-0.00217901f,0.00213369f,0.00194526f,0.00111772f,0.00397060f,0.00153499f,-0.00654065f,0.00323482f,0.03352160f,0.01410032f,-0.00900244f,0.00806249f,0.00027469f,0.00849859f,-0.00632797f,0.01206781f,0.13040084f,0.00195409f,-0.00013340f,0.00024429f,-0.00038144f,0.00067201f,0.00452924f,0.00242096f,0.01588671f,0.00331956f,0.00299737f,0.00376518f,0.00804665f,0.00376653f,-0.01135722f,-0.00603697f,0.01147712f,0.00056238f,0.00497482f,-0.00369555f,-0.00920537f,0.02389323f,0.00234079f,-0.00169320f,0.01564329f,0.03956827f,-0.00969587f,0.00536489f,0.03650898f,0.02650640f,0.04800893f,-0.06002205f,0.20022249f,0.00544299f,-0.00319656f,-0.00026591f,-0.00676066f,-0.00570117f,0.00346668f,0.00242909f,0.15809382f,0.00197395f,-0.00051134f,0.00363514f,0.00274238f,0.00807199f,-0.01449882f,-0.01421691f,-0.02505913f,0.00979111f,0.00116749f,0.00441525f,0.01415930f,-0.04209154f,-0.03108120f,-0.00799293f,-0.01488309f,-0.04289142f,-0.01228539f,0.00703352f,0.14172515f,0.02486933f,0.19390485f,-0.04041519f,0.22403061f,0.00616048f,-0.00017564f,-0.00228055f,-0.00452748f,-0.02334965f,-0.01680586f,-0.04623536f,0.28013724f,-0.03236870f,-0.00450590f,-0.01398493f,-0.00388446f,-0.00426626f,-0.01403551f,-0.01614964f,0.00663136f,-0.04491262f,0.00457744f,-0.04894609f,-0.10306326f,0.02148880f,0.00554716f,-0.00324802f,-0.04207591f,0.36243159f,-0.01175753f,0.00370488f,0.30380973f,-0.03817920f,0.17709552f,-0.02265539f,-0.04403437f,-0.00505374f,-0.01561932f,-0.00250410f,-0.01452312f,-0.01128109f,-0.01269236f,0.00866937f,0.38712800f,0.01279551f,-0.00362796f,-0.01111490f,-0.00027939f,0.00570892f,-0.01079323f,-0.02347591f,0.02121780f,0.05572193f,0.03268643f,0.05065830f,0.03651417f,0.07092390f,0.01076942f,-0.00162667f,-0.09047401f,0.19592275f,-0.00478696f,0.01284597f,0.33496490f,-0.05102653f,0.32341331f,-0.04537993f,-0.13471960f,0.00645147f,0.00193166f,0.00929255f,-0.01170967f,0.00701004f,0.05025195f,0.01190558f,0.55930859f,0.01783016f,-0.02057493f,-0.04063620f,0.00808384f,0.01370933f,0.00203467f,-0.00693863f,-0.26846498f,-0.02912217f,-0.04400501f,-0.03228487f,0.14093630f,-0.17350854f,-0.01978771f,-0.01229843f,-0.05098817f,0.40934038f,0.01826888f,0.00492313f,0.24209706f,-0.04344100f,0.07999273f,0.24772446f,0.18117312f,0.01242139f,0.03317233f,-0.04116878f,0.00039767f,-0.02127340f,-0.09140535f,-0.02596569f,0.56300408f,-0.02234764f,0.14374894f,-0.04059318f,0.02977726f,-0.02421345f,0.02072055f,-0.01883879f,0.34597132f,-0.13813575f,-0.00500150f,-0.24941881f,0.37243983f,-0.14839795f,-0.02832855f,0.00830802f,0.01557624f,0.40669048f,-0.02122455f,0.00962448f,-0.34675094f,-0.00134338f,0.47876707f,0.20106648f,-0.24362314f,-0.03760796f,-0.14363533f,0.02948597f,-0.03535115f,-0.02691303f,0.05702246f,-0.02478347f,0.35218391f,-0.03174796f,0.47053233f,0.00009363f,-0.04152104f,0.04010554f,-0.08086181f,0.00751407f,0.36708561f,0.57079619f,0.08945788f,0.62338400f,0.47108096f,0.26985618f,-0.00934949f,-0.13590810f,-0.04230500f,0.43541604f,-0.10071681f,0.02440638f,0.34553513f,-0.02221771f,-0.37175959f,-0.30322409f,-0.30862048f,0.06801000f,0.01271712f,-0.28531504f,-0.09312157f,-0.00208650f,-0.19718316f,-0.00775146f,0.45494977f,-0.00385035f,0.54329067f,-0.05050778f,0.02624368f,-0.08934947f,-0.02219078f,-0.01945708f,0.30763334f,0.63364506f,0.63718694f,0.79759943f,0.46017271f,0.48673210f,0.09034036f,0.17339511f,-0.20365126f,0.47928149f,0.21057510f,-0.17335367f,-0.11494690f,-0.18467620f,-0.27015734f,-0.09544004f,-0.11060718f,-0.04717655f,0.09213194f,0.22589417f,0.16028354f,-0.01592881f,0.16347429f,0.06528860f,0.74639481f,0.08077001f,0.72516555f,-0.23778035f,0.04368351f,0.17714994f,0.08640835f,0.03115846f,0.48615068f,-0.12414213f,0.72395784f,0.16149522f,0.52357644f,0.06984204f,0.46314695f,0.44175333f,0.15839970f,0.49060544f,0.41285372f,0.79256451f,0.18067682f,0.17580171f,0.03462363f,0.37921053f,0.50990784f,0.52503234f,0.31200215f,0.67689204f,0.59523231f,0.59339118f,0.54866028f,0.46487302f,0.36106318f,0.45806667f,0.50124556f,0.15182945f,0.52245688f,0.60896629f,0.59472698f,0.77270103f,-0.04119618f,0.38246962f,0.71449763f,0.68202621f,0.28830293f,1.15854752f,1.02223635f,1.16982913f,1.20704901f,0.57067180f,1.14778376f,0.99941421f,0.73538417f,1.20839393f,0.90664548f,1.13877881f,0.93997085f,1.10249543f,1.18519902f,1.04214907f,1.19519436f,1.13243759f,1.15212739f,1.04581714f,0.52776039f,1.02265346f,0.51249844f,1.20644939f,1.05006969f,1.03122091f,1.15732455f,1.09424222f,0.72015882f,0.59725928f
};
const float b0_data[] PROGMEM = {
1.06873131f,1.01937973f,1.11072087f,0.76452577f,0.42150170f,0.66191041f,0.50427455f,-0.92632443f,0.69672889f,0.82348770f,0.96156323f,0.52107000f,0.82844001f,0.62761408f,0.86125839f,0.71364981f,0.75190645f,0.87844855f,0.71417755f,0.63193983f,0.69613647f,0.43761596f,-0.11905794f,0.41431081f,-0.41547179f,0.49527228f,0.76703727f,0.83520234f,0.63014382f,0.76019573f,1.01035976f,0.97486550f
};
const float W1_data[] PROGMEM = {
0.02138970f,0.01768142f,0.01881857f,0.02635513f,-4.11884546f,0.02066491f,0.01803731f,0.01467684f,0.01272724f,-0.01509328f,-6.08343410f,-3.72446156f,0.01929432f,0.03065613f,-0.00502173f,-1.77260864f,-0.02859101f,0.01691965f,0.01337647f,-0.01917245f,0.01734177f,-0.02564641f,0.01550471f,-2.63769889f,-0.08522207f,-3.24659967f,-0.07271477f,0.01581440f,0.01444103f,-2.43103051f,0.01581132f,-0.02024305f,0.01939107f,0.01315873f,0.01999342f,0.02549665f,-3.92892528f,0.01597645f,0.02436381f,0.02141428f,0.02985542f,-0.02092237f,-2.57370877f,-3.90451980f,0.03102542f,0.01450767f,0.00972895f,-0.21375427f,-0.00835536f,0.02120223f,0.02250864f,-0.01606854f,0.01482910f,-0.02798036f,0.02653746f,-2.93232417f,0.04026297f,-3.54438138f,-0.11714140f,0.01408748f,0.02772859f,-2.74864817f,0.01836816f,-0.01570901f,0.01829415f,0.02356427f,0.02289001f,0.01722019f,-1.17634153f,0.00967224f,0.02147054f,0.02236882f,0.02691201f,-0.01745331f,-0.03882783f,-4.06876135f,0.01814360f,0.01268939f,0.03940443f,-0.01726462f,0.00031317f,0.01938018f,0.01915899f,-0.00405337f,0.01253287f,-0.01891848f,0.01679658f,-3.36416674f,0.07946398f,-3.90068364f,-0.16157810f,0.01457593f,0.02169625f,-3.21715212f,0.02480461f,0.00936960f,0.02684284f,0.03533354f,0.02590616f,0.03400054f,-2.47557712f,0.03030634f,0.03275910f,0.02497580f,0.02503283f,-0.03754798f,-3.96553206f,-2.20712686f,0.02067549f,0.02780132f,-0.10916132f,-3.26925635f,-0.02642621f,0.02896886f,0.02715939f,-0.03321550f,0.03346167f,-0.03130145f,0.02489982f,-1.67165911f,-0.03447403f,-1.46494293f,-0.07441492f,0.03241659f,0.02959938f,-1.44501722f,0.01399611f,-0.04983962f,0.03670281f,0.03031672f,0.04193248f,0.03169835f,-1.95367014f,0.02191093f,0.03140940f,0.02509174f,0.04399500f,-0.07362257f,-2.02306628f,-1.42529261f,0.03594414f,0.03113530f,-1.13952541f,-1.59603918f,-2.08398056f,0.02678587f,0.03062900f,-0.07206519f,0.03074707f,-0.07685063f,0.03704822f,-0.81033385f,-4.11655617f,-1.76724529f,-0.16141990f,0.03744152f,0.03067433f,-0.58423853f,0.03037207f,-0.14641215f,0.03707100f,0.02216289f,0.02441012f,0.02933202f,-2.26455498f,0.02737656f,0.02692018f,0.03257487f,0.02739837f,-0.02711000f,-3.46684909f,-1.95862639f,0.03827645f,0.02713921f,-0.29061228f,-3.44723034f,-4.41354990f,0.02717458f,0.03775275f,-0.03669614f,0.03074009f,-0.04565081f,0.01896448f,-0.99855852f,-3.87485027f,-1.50056040f,-0.04602823f,0.03322503f,0.01813124f,-0.96950811f,0.03810475f,-0.06435614f,0.04000425f,0.04707817f,0.03794291f,0.04164047f,0.02334652f,0.03575546f,0.03838816f,0.03942914f,0.04306469f,0.00859977f,0.02080294f,-0.00077412f,0.05101066f,0.03774988f,0.11068998f,0.13581350f,0.02561013f,0.04191950f,0.03732229f,0.00394037f,0.04304090f,0.01495242f,0.03744796f,-0.02365726f,0.41459545f,0.00433730f,0.08155043f,0.03027268f,0.02858570f,-0.02501433f,0.03976064f,0.01264874f,0.00721781f,0.00515103f,-0.00398833f,0.00601817f,-0.01493708f,0.00131062f,0.00926677f,-0.00220376f,-0.00445967f,-0.02350357f,-0.00259054f,-0.80446529f,0.00596790f,0.01215938f,-0.00316563f,0.00538467f,-0.00599076f,0.01819985f,0.00597524f,-0.01675267f,-0.00243679f,-0.03662594f,0.01596406f,-0.92835957f,-0.01081185f,-0.89403284f,-0.31565011f,0.01398212f,0.00902102f,-0.90428483f,0.01002463f,-0.00596392f,0.03963192f,0.04232763f,0.03300614f,0.04144231f,-2.68302703f,0.03755391f,0.03089986f,0.03766387f,0.03557401f,-0.03584867f,-3.81253123f,-2.34148002f,0.03014718f,0.03165196f,-0.22070606f,-2.77068830f,-5.19991779f,0.03117189f,0.03434585f,-0.03656706f,0.03143075f,-0.03147128f,0.02780927f,-1.36850059f,-2.76871538f,-1.97449911f,-0.05934683f,0.02544487f,0.03020265f,-1.24011862f,0.03370349f,-0.06037024f,0.03192976f,0.02067531f,0.03026637f,0.02683695f,-3.46209669f,0.02400215f,0.03091031f,0.02541725f,0.02144292f,-0.01511407f,-4.92040348f,-3.12206507f,0.02579886f,0.02899727f,-0.14981778f,-3.05613303f,-6.46615076f,0.03920138f,0.03254322f,-0.00960168f,0.02283847f,-0.01459945f,0.04079397f,-1.81431794f,-1.47912395f,-2.56050849f,-0.01941026f,0.03480020f,0.02501085f,-1.22048783f,0.02429604f,-0.02991469f,0.02685396f,0.02276932f,0.02718150f,0.02664050f,-0.00048068f,0.01603497f,0.02653453f,0.01814013f,0.02347569f,-0.00640267f,0.00378348f,-0.01757181f,0.02355474f,0.02445231f,0.03950365f,0.00401800f,0.00110949f,0.01425526f,0.03020600f,0.00326860f,0.02784182f,0.00338432f,0.01824784f,-3.90039706f,0.04630532f,-2.97671914f,0.00146482f,0.03134871f,0.02803523f,-3.66557455f,0.01757582f,0.02087372f,0.04380362f,0.03480541f,0.03502456f,0.04456846f,0.02434473f,0.03988522f,0.03049785f,0.04356451f,0.03242508f,-0.00170400f,0.02698273f,0.01139252f,0.03828660f,0.04403585f,0.08605286f,0.14044641f,0.03223881f,0.03104221f,0.03754963f,-0.00077337f,0.04145360f,0.00610380f,0.03435440f,-0.01748383f,0.37137634f,0.00040418f,0.08390822f,0.03561123f,0.03063159f,-0.00449774f,0.03875580f,-0.01348114f,0.02150636f,0.02416420f,0.02365839f,0.02559706f,-0.00253110f,0.01941570f,0.02998602f,0.02899919f,0.03035451f,0.01538163f,0.00429138f,-0.02346206f,0.02296853f,0.02970498f,0.02704205f,0.00640143f,0.00452358f,0.02107340f,0.02659194f,0.00768866f,0.03243489f,0.00736445f,0.02528899f,-3.86961889f,0.05214443f,-2.53721142f,0.01559542f,0.02368278f,0.03247470f,-3.62548208f,0.03142110f,0.03527741f,0.02592611f,0.04207467f,0.03565091f,0.02968848f,-2.41527629f,0.04213224f,0.01597157f,0.03205858f,0.03257970f,-0.02045867f,0.13541253f,-0.09776621f,0.02574401f,0.03245157f,-0.10248813f,0.22213781f,-0.00896036f,0.03635308f,0.04072470f,-0.02056159f,0.03535854f,-0.01722690f,0.02992739f,-1.50703216f,-0.04319923f,-2.19144177f,-0.01902418f,0.02470812f,0.03456151f,-1.28039682f,0.02570968f,-0.02092159f,0.02576486f,0.02922645f,0.02160466f,0.02855465f,0.00102941f,0.03554895f,0.02561172f,0.03064777f,0.03187907f,0.01476901f,0.00324361f,0.00799797f,0.03342794f,0.02707818f,0.03422386f,0.01495685f,0.00212971f,0.03240705f,0.03445884f,0.00892076f,0.03686432f,0.00711314f,0.01908818f,-3.57352281f,0.05883767f,-0.02010050f,0.03502426f,0.02452583f,0.02229334f,-3.57460880f,0.02910614f,0.01393020f,0.02755911f,0.03151975f,0.02694263f,0.03677128f,-2.59923983f,0.03489877f,0.03214632f,0.03040464f,0.01964484f,-0.03618544f,-3.89319754f,-2.28572798f,0.02012666f,0.02772297f,-0.22432144f,-3.25882936f,-5.48968744f,0.02622223f,0.02145613f,-0.04373727f,0.02620158f,-0.03941705f,0.03086218f,-1.09524000f,-3.15690303f,-1.75143003f,-0.04838755f,0.01965449f,0.03161967f,-1.00980997f,0.02904542f,-0.05599977f,0.03859203f,0.03721593f,0.03025341f,0.02873535f,-2.36474299f,0.02953860f,0.03399136f,0.02720513f,0.02918521f,-0.01926389f,-3.34593153f,-1.78198230f,0.03583520f,0.03375177f,-0.26281831f,-3.47840333f,-4.06575012f,0.02634685f,0.02745759f,-0.01579504f,0.02033005f,-0.02997214f,0.03674290f,-0.85746557f,-3.49598336f,-1.38214827f,-0.00502664f,0.02774208f,0.03307112f,-0.78247184f,0.02481010f,-0.04392138f,0.02517405f,0.03161923f,0.02119466f,0.02802633f,-3.29381132f,0.02379798f,0.02014264f,0.02674596f,0.03446749f,-0.02183110f,-4.60275173f,-2.96295381f,0.03000892f,0.01993144f,-0.18206248f,-2.69318676f,-5.30241632f,0.02542107f,0.02221175f,-0.01720393f,0.02468805f,-0.01807563f,0.02725681f,-1.88998950f,-1.79298890f,-2.39922190f,-0.03607247f,0.02682587f,0.02519488f,-1.68451118f,0.02582043f,-0.03578388f,0.02989690f,0.02991270f,0.03069281f,0.03118680f,-2.65303898f,0.02225273f,0.02023562f,0.03230668f,0.01838796f,-0.02999674f,-3.62432337f,-2.16708469f,0.03411980f,0.02976686f,-0.31538522f,-3.17988634f,-5.57674026f,0.02308772f,0.03179262f,-0.02478875f,0.03370825f,-0.02762507f,0.02790189f,-1.23808300f,-2.74997425f,-1.55575573f,-0.04842657f,0.02765498f,0.03095868f,-1.10934246f,0.02036286f,-0.05684844f,0.02496186f,0.02252595f,0.03580750f,0.03528135f,-2.40670633f,0.02718655f,0.03086243f,0.02786905f,0.02867700f,-0.02843838f,-3.69601369f,-1.94488025f,0.02099983f,0.03063102f,-0.32208845f,-3.48045039f,-5.47848463f,0.02612853f,0.02712958f,-0.03074494f,0.03108204f,-0.02991258f,0.03219632f,-0.95329034f,-3.74441624f,-1.56279445f,-0.04450909f,0.03388942f,0.04199174f,-0.75664359f,0.03480336f,-0.05752365f,0.03092709f,0.02240826f,0.02684877f,0.03547642f,-1.23351192f,0.03155649f,0.02795707f,0.02312727f,0.02634352f,-0.02960608f,-2.86294556f,-1.76449430f,0.02590219f,0.03047874f,-0.29224691f,-3.58494067f,-2.73099852f,0.02953296f,0.02160285f,-0.02855999f,0.03161705f,-0.03248711f,0.03410182f,-1.19096470f,-4.44374752f,-1.28398812f,-0.04225551f,0.02570498f,0.02825971f,-1.10523760f,0.03124576f,-0.05865837f,0.03280427f,0.03814372f,0.02750017f,0.03336158f,-2.32989836f,0.03452590f,0.02656924f,0.02850937f,0.03576775f,-0.06171331f,-3.38460898f,-1.88737082f,0.03178810f,0.02624553f,-0.96147197f,-3.64181900f,-4.52280045f,0.03823305f,0.03367116f,-0.06838642f,0.03925402f,-0.07269642f,0.04213722f,-0.90630203f,-2.84509850f,-1.40598571f,-0.12906337f,0.03676631f,0.02576677f,-0.75757772f,0.03074224f,-0.13091588f,0.00719872f,0.01062442f,0.01417714f,0.00381318f,0.00751934f,0.01154080f,0.00602749f,0.00574202f,0.00876814f,-0.00974425f,0.00106764f,-0.10104541f,0.00862796f,-0.00120954f,0.00312045f,0.00418827f,0.00242069f,0.00659200f,0.00945491f,-0.01202161f,0.00890777f,-0.02452479f,0.00832702f,-1.38254356f,0.00073914f,-1.27706981f,-0.11091466f,0.00545124f,0.00856703f,-1.28657985f,0.00835090f,-0.00730473f,0.03371651f,0.03508188f,0.03167605f,0.02202577f,-1.17883635f,0.02981230f,0.03591686f,0.04023219f,0.03039594f,-0.07848395f,-2.29174590f,-1.04839110f,0.02522265f,0.03555819f,-0.98746514f,-2.38403869f,-3.42341733f,0.03736630f,0.03361388f,-0.07410658f,0.04124853f,-0.07545211f,0.03294387f,-0.18379751f,-3.41832161f,-0.55669802f,-0.15157452f,0.04084839f,0.02934577f,-0.13291353f,0.03741062f,-0.15536034f,0.01164871f,0.00803528f,0.00629870f,0.01966478f,-2.39645481f,0.01330834f,0.00393111f,0.01173224f,0.00728743f,-0.02528181f,-0.04687149f,-2.14858699f,0.01500333f,0.00061198f,-0.00233026f,-0.04091671f,-0.00679448f,0.01372507f,-0.00194712f,-0.02252586f,0.00767642f,-0.03855587f,0.01846464f,-1.76671195f,0.00790272f,-1.94659579f,-0.59356296f,-0.00988296f,0.01389579f,-1.62185025f,0.01160930f,-0.01462237f,0.03375885f,0.02769220f,0.03592015f,0.03084290f,0.01315748f,0.04441977f,0.04542939f,0.04438404f,0.03627392f,0.00609450f,0.01656571f,0.00837676f,0.03437679f,0.04296896f,0.12370329f,0.12660737f,0.02322364f,0.03262931f,0.03379073f,0.00866683f,0.04056923f,0.02295565f,0.03114745f,-0.00997087f,0.40297282f,-0.01063140f,0.09195916f,0.03162463f,0.04143140f,-0.00833737f,0.03860129f,0.02095900f,0.03075963f,0.02843318f,0.03068367f,0.02250242f,-3.10654092f,0.03451722f,0.03235655f,0.03596060f,0.03747034f,-0.01078886f,-4.24907398f,-2.82586694f,0.03166078f,0.03494536f,-0.17448904f,-3.19185829f,-5.45978498f,0.01984633f,0.03036694f,-0.01741868f,0.02095388f,-0.02719049f,0.03062226f,-1.44032681f,-2.40065742f,-2.41208029f,-0.03838833f,0.03191420f,0.02240461f,-1.40321004f,0.03007833f,-0.03468421f,0.02091349f,0.02879607f,0.02874425f,0.02418809f,-3.26589608f,0.02525476f,0.02656098f,0.02459691f,0.02562334f,-0.02523138f,-4.83529091f,-3.49579024f,0.02915960f,0.02690604f,-0.12276580f,-2.33335447f,-3.44781089f,0.02749988f,0.03214156f,-0.03027495f,0.02514571f,-0.02887059f,0.02843630f,-2.56377721f,-1.21218133f,-2.46919537f,-0.05662175f,0.02533875f,0.03022785f,-2.38574600f,0.02309781f,-0.03798077f,0.02712328f,0.03006043f,0.02609607f,0.03870498f,-2.18698049f,0.02277380f,0.03422161f,0.02812469f,0.03293625f,-0.03717645f,-2.40662241f,-2.00606346f,0.02850407f,0.02767904f,-0.56426287f,-2.86746454f,-4.42952347f,0.02776876f,0.02841825f,-0.04056544f,0.03440716f,-0.04479875f,0.02582556f,-1.30825222f,-3.63581038f,-1.81285346f,-0.05772081f,0.03532178f,0.02896736f,-1.11751890f,0.03266538f,-0.07912108f,0.03245480f,0.03348573f,0.02873306f,0.03089109f,-2.60938191f,0.03776940f,0.02038975f,0.03093776f,0.02207227f,-0.03356915f,-3.90544081f,-2.04360890f,0.03440424f,0.03034235f,-0.21686739f,-3.59074235f,-6.33100367f,0.03761115f,0.02180579f,-0.03601534f,0.02635409f,-0.04106311f,0.02860055f,-0.96368366f,-2.14760566f,-1.43207264f,-0.06393500f,0.02384464f,0.02387316f,-0.98671103f,0.02057158f,-0.05181025f,0.02886194f,0.02253784f,0.02569306f,0.02382082f,-0.74770141f,0.03645803f,0.02080386f,0.01553901f,0.02163470f,-0.00746292f,-0.03258511f,-3.99441051f,0.01274993f,0.02144286f,0.01877068f,-0.00917665f,0.00185929f,0.01720596f,0.03154558f,0.00126815f,0.01450647f,-0.01338943f,0.01862884f,-3.52877831f,0.03311904f,-3.90037847f,-0.07042828f,0.02063774f,0.02366669f,-3.28209829f,0.02117965f,0.00427404f,0.02585745f,0.02255279f,0.01990129f,0.02617735f,-3.71579957f,0.02225710f,0.01783851f,0.02494453f,0.02085073f,-0.01613929f,-0.03918445f,-3.57788324f,0.01189729f,0.02605653f,0.02886294f,0.00827528f,0.00382778f,0.02000502f,0.02168306f,-0.00677738f,0.03257561f,-0.01384292f,0.02606597f,-2.72920609f,0.07605647f,-2.62206984f,-0.09730577f,0.02985037f,0.02709528f,-2.55802608f,0.02385182f,0.00927931f
};
const float b1_data[] PROGMEM = {
-0.00065268f,-0.00110785f,0.00009708f,-0.00226820f,0.05382202f,-0.00019737f,-0.00045202f,0.00020589f,-0.00103730f,0.63374293f,0.05722180f,0.04643440f,0.00037600f,0.00043304f,0.37115467f,0.19455317f,0.07523380f,-0.00136090f,-0.00060358f,0.59146369f,0.00037019f,0.61971551f,0.00016288f,0.04460129f,0.67563730f,0.04773854f,0.28072849f,-0.00004711f,-0.00058354f,0.04288957f,-0.00080954f,0.55223703f
};
const float W2_data[] PROGMEM = {
0.01857598f,0.01864235f,0.01733552f,0.01936011f,-0.89874971f,0.01815274f,0.01640383f,0.01754609f,0.01767726f,-0.06256386f,-0.79778522f,-1.11409247f,0.01739773f,0.01748433f,-0.10887328f,-0.22591658f,-0.60407007f,0.01680422f,0.01798209f,-0.06849527f,0.01871781f,-0.06431552f,0.01774796f,-1.27022350f,-0.06097098f,-1.14750445f,-0.15950550f,0.01668390f,0.01724095f,-1.33004451f,0.01592641f,-0.07176182f
};
const float b2_data[] PROGMEM = {
1.99921381f
};
