#define pgm_read_float_near(addr) (*(const float *)(addr))


const int INPUT_SIZE = 60;

const float x_mean_data[]  = {
0.33040920f
};
const float x_std_data[]  = {
0.60754837f
};
const float y0_mean_data[]  = {
0.80375870f
};
inline float x_mean(int i) {
return pgm_read_float_near(x_mean_data + i);
}

inline float x_std(int i) {
return pgm_read_float_near(x_std_data + i);
}

inline float y0_mean(int i) {
return pgm_read_float_near(y0_mean_data + i);
}

float score(float * input) {
    float var0;
    if (input[28] > 0.19263842040330378) {
        if (input[43] > 1.285283160134857) {
            if (input[15] > 2.2270943768882314) {
                if (input[35] > 3.9901064568363434) {
                    if (input[48] > 4.7566446911994085) {
                        if (input[21] > 5.913169746730685) {
                            var0 = 2.1559001367288926;
                        } else {
                            var0 = 2.0984366045554266;
                        }
                    } else {
                        if (input[9] > 4.018850203979869) {
                            var0 = 2.0870900870486895;
                        } else {
                            var0 = 2.045365680466331;
                        }
                    }
                } else {
                    if (input[51] > 2.505156496333644) {
                        if (input[22] > 3.5626007380370956) {
                            var0 = 2.063874759683827;
                        } else {
                            var0 = 2.0262124536907966;
                        }
                    } else {
                        if (input[7] > 2.637536854446698) {
                            var0 = 2.0165506714890595;
                        } else {
                            if (input[32] > 1.6029147815226363) {
                                var0 = 1.9960874854849948;
                            } else {
                                var0 = 1.9708456119211863;
                            }
                        }
                    }
                }
            } else {
                if (input[7] > 0.920526654822082) {
                    if (input[33] > 2.240573450398065) {
                        if (input[54] > 2.6328807389811124) {
                            var0 = 2.029276058903652;
                        } else {
                            var0 = 1.9916981647671723;
                        }
                    } else {
                        if (input[53] > 1.42512679394768) {
                            var0 = 1.9804014720400138;
                        } else {
                            var0 = 1.9549014983995436;
                        }
                    }
                } else {
                    if (input[51] > 1.610702070476968) {
                        if (input[35] > 2.215431139558422) {
                            var0 = 1.9796235963993472;
                        } else {
                            if (input[18] > 0.3746812847101016) {
                                var0 = 1.957683779300552;
                            } else {
                                var0 = 1.931523294611315;
                            }
                        }
                    } else {
                        if (input[20] > 0.42185845192248644) {
                            if (input[33] > 1.4521840725494881) {
                                var0 = 1.9504253962604947;
                            } else {
                                var0 = 1.9288593519298485;
                            }
                        } else {
                            var0 = 1.9112609617205636;
                        }
                    }
                }
            }
        } else {
            if (input[12] > 0.6695998592814983) {
                if (input[21] > 1.4143070557663346) {
                    if (input[52] > 0.847927582985155) {
                        if (input[7] > 2.4931443506463418) {
                            var0 = 1.9993960675290607;
                        } else {
                            if (input[33] > 1.4521840725494881) {
                                var0 = 1.9772406094988866;
                            } else {
                                var0 = 1.9540834900104154;
                            }
                        }
                    } else {
                        if (input[35] > 0.9119133705340331) {
                            if (input[6] > 1.786780998313086) {
                                var0 = 1.9708111143369735;
                            } else {
                                var0 = 1.9452358613379654;
                            }
                        } else {
                            var0 = 1.929895708957288;
                        }
                    }
                } else {
                    if (input[50] > 0.20788568849069275) {
                        if (input[5] > 0.9894061706342954) {
                            if (input[35] > 0.9464626185937274) {
                                var0 = 1.955366113481881;
                            } else {
                                var0 = 1.9349027183170362;
                            }
                        } else {
                            if (input[34] > 0.7265992985480973) {
                                var0 = 1.9314177961061194;
                            } else {
                                var0 = 1.9126262441199873;
                            }
                        }
                    } else {
                        if (input[39] > 0.09205581129693326) {
                            if (input[3] > 0.9232835086803141) {
                                var0 = 1.9236008707604388;
                            } else {
                                var0 = 1.9041375425242113;
                            }
                        } else {
                            var0 = 1.8918273370634047;
                        }
                    }
                }
            } else {
                if (input[47] > 0.1138136059862288) {
                    if (input[17] > 0.1203099239481788) {
                        if (input[35] > 0.8773641224743388) {
                            if (input[55] > 0.9510552634809714) {
                                var0 = 1.940300291919218;
                            } else {
                                var0 = 1.9189946663717707;
                            }
                        } else {
                            if (input[5] > 0.08865143250814146) {
                                var0 = 1.9112743463279922;
                            } else {
                                var0 = 1.8933103603398405;
                            }
                        }
                    } else {
                        if (input[6] <= -0.22833797038147133) {
                            var0 = 1.8765151585616378;
                        } else {
                            if (input[53] > 0.8415159602431111) {
                                var0 = 1.9111800805357904;
                            } else {
                                var0 = 1.8910826481343703;
                            }
                        }
                    }
                } else {
                    if (input[9] <= -0.22515966479849644) {
                        if (input[41] <= -0.2660308645455432) {
                            var0 = 1.8455299612379492;
                        } else {
                            if (input[19] <= -0.13086674003930412) {
                                var0 = 1.8562451143159389;
                            } else {
                                var0 = 1.8733893588853179;
                            }
                        }
                    } else {
                        if (input[37] <= -0.002153599748866943) {
                            var0 = 1.8701994900188423;
                        } else {
                            if (input[19] > 0.27422191788130196) {
                                var0 = 1.897188004786217;
                            } else {
                                var0 = 1.880735941391341;
                            }
                        }
                    }
                }
            }
        }
    } else {
        if (input[15] <= -0.3820964053768558) {
            if (input[39] <= -0.5109923191928828) {
                if (input[25] <= -0.5423043021066665) {
                    if (input[9] <= -0.5422051093983667) {
                        if (input[46] <= -0.5423525436432298) {
                            if (input[32] <= -0.5423441351186337) {
                                if (input[19] <= -0.5422362889575411) {
                                    var0 = 1.7968948400488032;
                                } else {
                                    var0 = 1.8075387492201127;
                                }
                            } else {
                                var0 = 1.8088440946518995;
                            }
                        } else {
                            if (input[2] <= -0.5421906118329619) {
                                var0 = 1.8080451659773653;
                            } else {
                                var0 = 1.8213121554857343;
                            }
                        }
                    } else {
                        if (input[48] <= -0.5423052511395822) {
                            if (input[31] <= -0.5423340796427633) {
                                var0 = 1.8092876639102302;
                            } else {
                                var0 = 1.8233835602600201;
                            }
                        } else {
                            var0 = 1.8282473544812068;
                        }
                    }
                } else {
                    if (input[49] <= -0.5422902555623993) {
                        if (input[6] <= -0.5422139699355538) {
                            var0 = 1.8126958718717596;
                        } else {
                            var0 = 1.8260230658257004;
                        }
                    } else {
                        if (input[7] <= -0.5139686014767169) {
                            var0 = 1.8273862879348128;
                        } else {
                            var0 = 1.841911676787782;
                        }
                    }
                }
            } else {
                if (input[50] <= -0.12168943196409121) {
                    if (input[24] <= -0.5422939176328232) {
                        if (input[6] <= -0.5422139699355538) {
                            if (input[31] <= -0.5423340796427633) {
                                var0 = 1.8116359171560545;
                            } else {
                                var0 = 1.8232725129715577;
                            }
                        } else {
                            var0 = 1.8322842950067904;
                        }
                    } else {
                        if (input[6] <= -0.5422139699355538) {
                            var0 = 1.8317159464747628;
                        } else {
                            var0 = 1.845423183164936;
                        }
                    }
                } else {
                    if (input[44] > 0.4499057217700729) {
                        if (input[53] > 1.0517356192872998) {
                            var0 = 1.88430264673136;
                        } else {
                            if (input[8] <= -0.5233788342831941) {
                                var0 = 1.8526431036185649;
                            } else {
                                var0 = 1.8709923084139697;
                            }
                        }
                    } else {
                        if (input[6] <= -0.5422139699355538) {
                            if (input[28] <= -0.542325312629449) {
                                var0 = 1.829703052781685;
                            } else {
                                var0 = 1.844989922743604;
                            }
                        } else {
                            var0 = 1.8554645413981912;
                        }
                    }
                }
            }
        } else {
            if (input[45] <= -0.15301166913535563) {
                if (input[34] <= -0.49524733049248953) {
                    if (input[5] <= -0.11535388782995776) {
                        if (input[49] <= -0.5422902555623993) {
                            if (input[27] <= -0.5423142683424883) {
                                var0 = 1.8169359574544877;
                            } else {
                                var0 = 1.8297591973691276;
                            }
                        } else {
                            var0 = 1.837530711649337;
                        }
                    } else {
                        if (input[22] <= -0.2502020218330408) {
                            var0 = 1.8382436597809515;
                        } else {
                            var0 = 1.8546859926959922;
                        }
                    }
                } else {
                    if (input[6] <= -0.011758840692044617) {
                        if (input[52] <= -0.5391036239864907) {
                            var0 = 1.8398503946482436;
                        } else {
                            var0 = 1.853663144579928;
                        }
                    } else {
                        if (input[17] > 0.2773146150964627) {
                            if (input[5] > 0.9140847999416315) {
                                var0 = 1.892754897370826;
                            } else {
                                var0 = 1.8737616170287534;
                            }
                        } else {
                            if (input[50] <= -0.5077488045139942) {
                                var0 = 1.853841323338855;
                            } else {
                                var0 = 1.8677184431138507;
                            }
                        }
                    }
                }
            } else {
                if (input[7] > 0.459109168891561) {
                    if (input[51] > 0.9076913812460113) {
                        if (input[40] > 1.3860398437149504) {
                            var0 = 1.9509238530615596;
                        } else {
                            var0 = 1.9186583703339941;
                        }
                    } else {
                        if (input[21] > 0.3622200770649049) {
                            var0 = 1.9071233831455994;
                        } else {
                            var0 = 1.8869335974228034;
                        }
                    }
                } else {
                    if (input[51] > 0.28628492164936997) {
                        if (input[42] > 0.8237060856619846) {
                            var0 = 1.9030124839843638;
                        } else {
                            if (input[26] <= -0.34758903138240954) {
                                var0 = 1.8686307352418428;
                            } else {
                                var0 = 1.8853373072008992;
                            }
                        }
                    } else {
                        if (input[33] <= -0.32563191604114644) {
                            var0 = 1.853507728945134;
                        } else {
                            if (input[5] <= -0.26287023698555206) {
                                var0 = 1.861992927522551;
                            } else {
                                var0 = 1.8762825622779484;
                            }
                        }
                    }
                }
            }
        }
    }
    float var1;
    if (input[25] > 0.18319699300988726) {
        if (input[40] > 1.2855441185977898) {
            if (input[12] > 2.342908931294456) {
                if (input[45] > 3.574122106482197) {
                    if (input[27] > 6.040780844387299) {
                        if (input[8] > 6.007362706984867) {
                            var1 = 0.2847798221821954;
                        } else {
                            var1 = 0.2359393134200529;
                        }
                    } else {
                        if (input[18] > 4.0078066141438695) {
                            var1 = 0.21510390704953034;
                        } else {
                            var1 = 0.1781842330013073;
                        }
                    }
                } else {
                    if (input[27] > 2.84973685998477) {
                        if (input[5] > 3.9929805498273327) {
                            var1 = 0.1906391671086829;
                        } else {
                            if (input[54] > 2.014809012392633) {
                                var1 = 0.17008767903690292;
                            } else {
                                var1 = 0.14377021477663013;
                            }
                        }
                    } else {
                        if (input[49] > 1.5576873228813748) {
                            var1 = 0.14295626136511372;
                        } else {
                            var1 = 0.11680233359496724;
                        }
                    }
                }
            } else {
                if (input[52] > 1.6983491791748022) {
                    if (input[25] > 2.240346896047675) {
                        if (input[41] > 3.9864072517589237) {
                            var1 = 0.17166391378664497;
                        } else {
                            if (input[5] > 1.0647275413269597) {
                                var1 = 0.1458089546043555;
                            } else {
                                var1 = 0.11989101356133208;
                            }
                        }
                    } else {
                        if (input[6] > 0.9549894407352598) {
                            if (input[43] > 3.0375776019498866) {
                                var1 = 0.1383126478884806;
                            } else {
                                var1 = 0.11474715135501024;
                            }
                        } else {
                            var1 = 0.09399878014810985;
                        }
                    }
                } else {
                    if (input[10] > 0.7040294968346567) {
                        if (input[28] > 1.6782754120681658) {
                            var1 = 0.11143662905440746;
                        } else {
                            var1 = 0.0878172551349344;
                        }
                    } else {
                        if (input[30] > 1.442706071838564) {
                            var1 = 0.08082425655626803;
                        } else {
                            if (input[10] <= -0.22200956745504066) {
                                var1 = 0.043657100623137;
                            } else {
                                var1 = 0.0654032869901676;
                            }
                        }
                    }
                }
            }
        } else {
            if (input[10] > 0.7605373411006837) {
                if (input[50] > 0.5970798753229325) {
                    if (input[18] > 1.9321853795627346) {
                        if (input[4] > 2.825223844796191) {
                            var1 = 0.13630550399115207;
                        } else {
                            var1 = 0.10491187678482272;
                        }
                    } else {
                        if (input[31] > 0.9056060394390996) {
                            var1 = 0.09215659217471617;
                        } else {
                            var1 = 0.0714705839658663;
                        }
                    }
                } else {
                    if (input[31] > 0.8082368830177297) {
                        if (input[17] > 1.454833336016849) {
                            var1 = 0.08654696550948773;
                        } else {
                            var1 = 0.06348297490002641;
                        }
                    } else {
                        if (input[43] <= -0.08075623733520428) {
                            if (input[17] > 0.9555610521959852) {
                                var1 = 0.04755286181060036;
                            } else {
                                var1 = 0.02953264379677928;
                            }
                        } else {
                            if (input[4] > 1.0583547801350832) {
                                var1 = 0.06636779710778086;
                            } else {
                                var1 = 0.04837795819498361;
                            }
                        }
                    }
                }
            } else {
                if (input[49] > 0.10433204730095107) {
                    if (input[14] > 0.12025431590422722) {
                        if (input[32] > 0.8365244567022799) {
                            if (input[53] > 0.9764339142028038) {
                                var1 = 0.08039071602896204;
                            } else {
                                var1 = 0.06145943173440841;
                            }
                        } else {
                            if (input[56] > 0.8567723760592052) {
                                var1 = 0.059691747154781455;
                            } else {
                                if (input[3] > 0.19525639157923666) {
                                    var1 = 0.04860144209806452;
                                } else {
                                    var1 = 0.0344330257531443;
                                }
                            }
                        }
                    } else {
                        if (input[36] > 0.3433719349560976) {
                            if (input[55] > 0.8192954586867347) {
                                var1 = 0.0541228827144437;
                            } else {
                                var1 = 0.03582195039888445;
                            }
                        } else {
                            if (input[8] <= -0.404096334642641) {
                                var1 = 0.01254604765240203;
                            } else {
                                var1 = 0.02952900798542691;
                            }
                        }
                    }
                } else {
                    if (input[13] <= -0.11209430243421338) {
                        if (input[39] <= -0.3193981737250836) {
                            var1 = -0.008716754607640447;
                        } else {
                            if (input[5] <= -0.5076749759216765) {
                                var1 = 0.002710954264037533;
                            } else {
                                var1 = 0.01682076679863775;
                            }
                        }
                    } else {
                        if (input[38] <= -0.0461308665621297) {
                            if (input[43] <= -0.5109785498936905) {
                                var1 = 0.006270591939798705;
                            } else {
                                var1 = 0.020593185478215606;
                            }
                        } else {
                            if (input[21] > 0.8615649884547708) {
                                var1 = 0.04498875848538522;
                            } else {
                                var1 = 0.029156327808574158;
                            }
                        }
                    }
                }
            }
        }
    } else {
        if (input[37] <= -0.4010531175603667) {
            if (input[13] <= -0.5108199032103287) {
                if (input[28] <= -0.542325312629449) {
                    if (input[44] <= -0.5423751856669071) {
                        if (input[20] <= -0.5422467686583) {
                            if (input[7] <= -0.5422168044369757) {
                                if (input[34] <= -0.5423611384050078) {
                                    var1 = -0.051187296212707636;
                                } else {
                                    var1 = -0.04188291556112729;
                                }
                            } else {
                                var1 = -0.04156166518835924;
                            }
                        } else {
                            var1 = -0.03707425795457269;
                        }
                    } else {
                        if (input[4] <= -0.5421931415346682) {
                            if (input[52] <= -0.504586608919633) {
                                var1 = -0.04241622865189267;
                            } else {
                                var1 = -0.033141666099586964;
                            }
                        } else {
                            var1 = -0.02317890956218401;
                        }
                    }
                } else {
                    if (input[47] <= -0.5391921914066243) {
                        if (input[7] <= -0.5422168044369757) {
                            var1 = -0.03663924496549386;
                        } else {
                            var1 = -0.024955553169705783;
                        }
                    } else {
                        if (input[4] <= -0.5296472770116522) {
                            var1 = -0.02306249196762236;
                        } else {
                            var1 = -0.011147995192343739;
                        }
                    }
                }
            } else {
                if (input[47] <= -0.5423277253122122) {
                    if (input[24] <= -0.5265936875677558) {
                        if (input[5] <= -0.4417656913101056) {
                            var1 = -0.03725967670355503;
                        } else {
                            var1 = -0.02645393694957934;
                        }
                    } else {
                        if (input[7] > 0.041623275039345244) {
                            var1 = -0.004904531796464285;
                        } else {
                            var1 = -0.020687754860261105;
                        }
                    }
                } else {
                    if (input[5] > 0.07609649950136857) {
                        if (input[14] > 0.3117766178521651) {
                            var1 = 0.021140868782084373;
                        } else {
                            var1 = 0.0038093162224456427;
                        }
                    } else {
                        if (input[24] <= -0.4700662729758563) {
                            var1 = -0.01656795300203752;
                        } else {
                            if (input[54] > 0.013111967009302753) {
                                var1 = 0.006588034587745946;
                            } else {
                                var1 = -0.007121716884655381;
                            }
                        }
                    }
                }
            }
        } else {
            if (input[10] <= -0.17491558278422772) {
                if (input[48] <= -0.11851664167596636) {
                    if (input[19] <= -0.5422362889575411) {
                        if (input[4] <= -0.5421931415346682) {
                            if (input[29] <= -0.54233483737421) {
                                var1 = -0.03489657263626555;
                            } else {
                                var1 = -0.023398981826310908;
                            }
                        } else {
                            var1 = -0.016077644824279813;
                        }
                    } else {
                        if (input[53] <= -0.4951530503059181) {
                            var1 = -0.0135638686105986;
                        } else {
                            if (input[4] <= -0.47315386607424087) {
                                var1 = -0.00802838672283925;
                            } else {
                                var1 = 0.002984661009401707;
                            }
                        }
                    }
                } else {
                    if (input[52] > 0.847927582985155) {
                        if (input[37] > 0.9307197766939495) {
                            var1 = 0.04261960201438876;
                        } else {
                            var1 = 0.01878901533156257;
                        }
                    } else {
                        if (input[19] <= -0.5422362889575411) {
                            if (input[33] <= -0.027237858043941073) {
                                var1 = -0.013306227741535859;
                            } else {
                                var1 = 0.0005602808587417717;
                            }
                        } else {
                            if (input[39] > 0.2428199023008384) {
                                var1 = 0.017075316975686722;
                            } else {
                                var1 = 0.004303237591189133;
                            }
                        }
                    }
                }
            } else {
                if (input[49] > 0.40567714707395064) {
                    if (input[42] > 1.1942805349703756) {
                        if (input[53] > 2.099733014145944) {
                            var1 = 0.09105439953447461;
                        } else {
                            var1 = 0.06007908634036512;
                        }
                    } else {
                        if (input[4] > 0.8480778639329231) {
                            var1 = 0.05588515714893799;
                        } else {
                            if (input[21] <= -0.27217370045809913) {
                                var1 = 0.02317688910515081;
                            } else {
                                var1 = 0.038577742264143115;
                            }
                        }
                    }
                } else {
                    if (input[17] <= -0.008428325478221487) {
                        if (input[53] <= -0.3633688975081251) {
                            var1 = -0.001872920117622945;
                        } else {
                            if (input[29] <= -0.3004874461049097) {
                                var1 = 0.005845524737300285;
                            } else {
                                var1 = 0.017827405193976992;
                            }
                        }
                    } else {
                        if (input[3] > 0.8542500002091806) {
                            var1 = 0.03985238890953067;
                        } else {
                            if (input[48] <= -0.2472192155513999) {
                                var1 = 0.011615566775970762;
                            } else {
                                var1 = 0.02616430986911943;
                            }
                        }
                    }
                }
            }
        }
    }
    float var2;
    if (input[31] > 0.1926276781750605) {
        if (input[18] > 1.3952180380647228) {
            if (input[46] > 2.233159085943404) {
                if (input[30] > 4.015074192296473) {
                    if (input[11] > 5.963913033668443) {
                        if (input[52] > 6.119916290336876) {
                            var2 = 0.26870319714142415;
                        } else {
                            var2 = 0.21628897329375044;
                        }
                    } else {
                        if (input[55] > 4.037994562271524) {
                            var2 = 0.20053775795731196;
                        } else {
                            if (input[5] > 2.3483912814637398) {
                                var2 = 0.17551244948961367;
                            } else {
                                var2 = 0.14589714133640158;
                            }
                        }
                    }
                } else {
                    if (input[8] > 2.6564510129917456) {
                        if (input[54] > 3.530190938771615) {
                            var2 = 0.1759869721277796;
                        } else {
                            var2 = 0.14502262828509993;
                        }
                    } else {
                        if (input[36] > 2.108603940382341) {
                            var2 = 0.13090435490063126;
                        } else {
                            var2 = 0.1078984074568895;
                        }
                    }
                }
            } else {
                if (input[37] > 1.3641680256288844) {
                    if (input[8] > 2.2515191830171584) {
                        if (input[25] > 3.022384288048801) {
                            var2 = 0.14601352425166386;
                        } else {
                            var2 = 0.11712372167877082;
                        }
                    } else {
                        if (input[54] > 0.9543410359945156) {
                            if (input[24] > 2.212071456876115) {
                                var2 = 0.11616053943675152;
                            } else {
                                var2 = 0.09738413665587844;
                            }
                        } else {
                            var2 = 0.0836243588210293;
                        }
                    }
                } else {
                    if (input[5] > 1.2373537564961) {
                        if (input[53] > 0.8728868726617093) {
                            var2 = 0.10021873014001659;
                        } else {
                            var2 = 0.07755624302535552;
                        }
                    } else {
                        if (input[51] > 0.27059591409693146) {
                            var2 = 0.07011259754508341;
                        } else {
                            var2 = 0.04822609235810564;
                        }
                    }
                }
            }
        } else {
            if (input[46] > 0.7543495941931772) {
                if (input[6] > 0.6850595369060928) {
                    if (input[38] > 2.111688912912008) {
                        if (input[49] > 2.8352483569798923) {
                            var2 = 0.128754182137215;
                        } else {
                            var2 = 0.09859150201611272;
                        }
                    } else {
                        if (input[56] > 0.9947892499757577) {
                            if (input[12] > 1.0212196806078624) {
                                var2 = 0.09386332475596013;
                            } else {
                                var2 = 0.0772236107302273;
                            }
                        } else {
                            var2 = 0.067107407214795;
                        }
                    }
                } else {
                    if (input[53] > 1.2682393310550883) {
                        if (input[36] > 1.6845724693299726) {
                            var2 = 0.0831127239253291;
                        } else {
                            if (input[12] <= -0.07129863986117613) {
                                var2 = 0.04784355354223895;
                            } else {
                                var2 = 0.06785321623386303;
                            }
                        }
                    } else {
                        if (input[18] <= -0.08378196321768437) {
                            var2 = 0.03096679559090547;
                        } else {
                            if (input[37] > 0.9307197766939495) {
                                var2 = 0.06065197417713536;
                            } else {
                                var2 = 0.044616070079187546;
                            }
                        }
                    }
                }
            } else {
                if (input[9] > 0.10757800287625151) {
                    if (input[53] <= -0.011947231780643818) {
                        if (input[20] > 0.3841711439394372) {
                            if (input[40] > 0.16741185206812223) {
                                var2 = 0.04568391402578286;
                            } else {
                                var2 = 0.030563638928071638;
                            }
                        } else {
                            var2 = 0.02211904586479012;
                        }
                    } else {
                        if (input[4] > 0.879463092231485) {
                            if (input[23] > 0.9778075126211939) {
                                var2 = 0.07235341046383571;
                            } else {
                                var2 = 0.055389292969248174;
                            }
                        } else {
                            if (input[22] > 0.34338930420445546) {
                                var2 = 0.049272907585023173;
                            } else {
                                var2 = 0.034091986406206906;
                            }
                        }
                    }
                } else {
                    if (input[43] <= -0.07448343104823539) {
                        if (input[17] <= -0.4449036716472944) {
                            var2 = -0.009169253399770504;
                        } else {
                            if (input[51] <= -0.43241477513402493) {
                                var2 = 0.00155354371711928;
                            } else {
                                var2 = 0.015079275527906548;
                            }
                        }
                    } else {
                        if (input[17] <= -0.3412792584740877) {
                            var2 = 0.010675670034245428;
                        } else {
                            if (input[53] > 0.1449402311119479) {
                                var2 = 0.035080885385189726;
                            } else {
                                var2 = 0.021256996258716132;
                            }
                        }
                    }
                }
            }
        }
    } else {
        if (input[18] <= -0.39779833749858745) {
            if (input[42] <= -0.5172738771905453) {
                if (input[11] <= -0.5421978026863891) {
                    if (input[30] <= -0.5423271110565631) {
                        if (input[23] <= -0.5422914334808632) {
                            if (input[48] <= -0.5423052511395822) {
                                if (input[5] <= -0.5421969280163154) {
                                    if (input[36] <= -0.5423852550850587) {
                                        var2 = -0.04738946513980928;
                                    } else {
                                        var2 = -0.03976998040670695;
                                    }
                                } else {
                                    var2 = -0.04015238595844458;
                                }
                            } else {
                                if (input[1] <= -0.5421837196754314) {
                                    var2 = -0.04000951068462591;
                                } else {
                                    var2 = -0.028608289726417102;
                                }
                            }
                        } else {
                            var2 = -0.0338443805962478;
                        }
                    } else {
                        if (input[51] <= -0.5422542821254293) {
                            var2 = -0.03351263155536993;
                        } else {
                            var2 = -0.022864230904191;
                        }
                    }
                } else {
                    if (input[30] <= -0.5423271110565631) {
                        if (input[52] <= -0.5422377952783098) {
                            if (input[23] <= -0.5422914334808632) {
                                var2 = -0.035791065709664324;
                            } else {
                                var2 = -0.02585204279790947;
                            }
                        } else {
                            var2 = -0.02091959519190943;
                        }
                    } else {
                        if (input[52] <= -0.5202739177214676) {
                            var2 = -0.020529495682313312;
                        } else {
                            var2 = -0.009303584027183032;
                        }
                    }
                }
            } else {
                if (input[8] <= -0.542214212434217) {
                    if (input[31] <= -0.5423340796427633) {
                        if (input[53] <= -0.121770100845438) {
                            if (input[23] <= -0.5422914334808632) {
                                var2 = -0.03437414062495504;
                            } else {
                                var2 = -0.02267470875788697;
                            }
                        } else {
                            var2 = -0.019051688413770182;
                        }
                    } else {
                        if (input[52] > 0.06341407180877416) {
                            var2 = -0.0026482964456698266;
                        } else {
                            if (input[50] <= -0.47635952239558504) {
                                var2 = -0.02363677202178909;
                            } else {
                                var2 = -0.015203940708609382;
                            }
                        }
                    }
                } else {
                    if (input[52] > 0.03830779678874314) {
                        if (input[46] > 0.9081935180545672) {
                            var2 = 0.02485981525378263;
                        } else {
                            var2 = 0.00458616758994772;
                        }
                    } else {
                        if (input[27] <= -0.5234683048607275) {
                            var2 = -0.01583514484775621;
                        } else {
                            var2 = -0.004573421752460171;
                        }
                    }
                }
            }
        } else {
            if (input[47] <= -0.1844324536948808) {
                if (input[8] <= -0.014864767451868) {
                    if (input[41] <= -0.5424008944887874) {
                        if (input[31] <= -0.5423340796427633) {
                            if (input[5] <= -0.5359194615129289) {
                                var2 = -0.03101908063586785;
                            } else {
                                var2 = -0.021331521602779062;
                            }
                        } else {
                            var2 = -0.013928993264721466;
                        }
                    } else {
                        if (input[26] <= -0.30047894333749176) {
                            var2 = -0.010676705214331846;
                        } else {
                            if (input[3] <= -0.495119823678135) {
                                var2 = -0.006136348505925833;
                            } else {
                                var2 = 0.00391397303978736;
                            }
                        }
                    }
                } else {
                    if (input[23] > 0.000000000000000000000000000000000010000000180025095) {
                        if (input[6] > 0.8890826392455436) {
                            var2 = 0.028848755075213773;
                        } else {
                            if (input[41] <= -0.4952922731019352) {
                                var2 = 0.0035197336390850754;
                            } else {
                                var2 = 0.017042471072475654;
                            }
                        }
                    } else {
                        if (input[40] <= -0.5424061021778034) {
                            var2 = -0.007678403762294961;
                        } else {
                            var2 = 0.006434784464024778;
                        }
                    }
                }
            } else {
                if (input[9] > 0.38381708448277263) {
                    if (input[54] > 0.9543410359945156) {
                        if (input[15] > 1.3950416543215922) {
                            var2 = 0.08067280005051299;
                        } else {
                            var2 = 0.05293876885512272;
                        }
                    } else {
                        if (input[2] > 0.9608365141646754) {
                            if (input[18] > 0.8456976146022994) {
                                var2 = 0.05781000310698919;
                            } else {
                                var2 = 0.039476633120674454;
                            }
                        } else {
                            if (input[27] <= -0.22195758897363108) {
                                var2 = 0.017857021351670686;
                            } else {
                                var2 = 0.03249045022690043;
                            }
                        }
                    }
                } else {
                    if (input[54] > 0.2892086784075097) {
                        if (input[46] > 0.9804076517994761) {
                            var2 = 0.03889808460660493;
                        } else {
                            if (input[4] <= -0.3758637717469034) {
                                var2 = 0.009994778299773409;
                            } else {
                                var2 = 0.024543059466140972;
                            }
                        }
                    } else {
                        if (input[4] <= -0.30995890571812784) {
                            if (input[34] <= -0.3005097088673638) {
                                var2 = -0.006892531172967519;
                            } else {
                                var2 = 0.005488871535464112;
                            }
                        } else {
                            if (input[35] <= -0.26282693432123666) {
                                var2 = 0.006211109323644645;
                            } else {
                                var2 = 0.018659813627739934;
                            }
                        }
                    }
                }
            }
        }
    }
    float var3;
    if (input[33] > 0.19578370528145364) {
        if (input[15] > 1.1972325211500536) {
            if (input[44] > 2.227221701804712) {
                if (input[25] > 3.989713859529201) {
                    if (input[38] > 5.927909542306862) {
                        if (input[53] > 6.009326805413838) {
                            var3 = 0.23898384789817262;
                        } else {
                            var3 = 0.19219640082308512;
                        }
                    } else {
                        if (input[7] > 4.01866250853162) {
                            var3 = 0.17940249997622815;
                        } else {
                            var3 = 0.14624165238015974;
                        }
                    }
                } else {
                    if (input[5] > 2.6434075250789824) {
                        if (input[52] > 3.5655091043047467) {
                            var3 = 0.1590112053850057;
                        } else {
                            var3 = 0.12906421916870114;
                        }
                    } else {
                        if (input[56] > 2.503559949704576) {
                            var3 = 0.12230432552251091;
                        } else {
                            if (input[29] > 1.6217765158770445) {
                                var3 = 0.10704733397413893;
                            } else {
                                var3 = 0.08626931934896204;
                            }
                        }
                    }
                }
            } else {
                if (input[26] > 1.866634505632651) {
                    if (input[6] > 2.511838095351012) {
                        if (input[55] > 1.6318197373713539) {
                            var3 = 0.13127172633737566;
                        } else {
                            var3 = 0.104983400608616;
                        }
                    } else {
                        if (input[51] > 0.9453548718464645) {
                            var3 = 0.09880161771703234;
                        } else {
                            var3 = 0.07611010414900143;
                        }
                    }
                } else {
                    if (input[48] > 0.7259253035526376) {
                        if (input[4] > 1.4945724329012544) {
                            var3 = 0.090455426533974;
                        } else {
                            var3 = 0.07036941939149295;
                        }
                    } else {
                        if (input[2] > 0.8886656800596812) {
                            if (input[54] > 0.013111967009302753) {
                                var3 = 0.07042355245799106;
                            } else {
                                var3 = 0.05419173466887004;
                            }
                        } else {
                            if (input[51] <= -0.2566600460607441) {
                                var3 = 0.03218007416092995;
                            } else {
                                var3 = 0.050421977181543655;
                            }
                        }
                    }
                }
            }
        } else {
            if (input[48] > 0.8138199449569539) {
                if (input[26] > 1.0312002424215547) {
                    if (input[41] > 2.2025201729647303) {
                        if (input[56] > 2.6603984276958967) {
                            var3 = 0.1146805891794101;
                        } else {
                            var3 = 0.08655285776887751;
                        }
                    } else {
                        if (input[5] > 0.3240358580151998) {
                            if (input[56] > 1.3931510903472333) {
                                var3 = 0.08500350174937112;
                            } else {
                                var3 = 0.06940768322358962;
                            }
                        } else {
                            var3 = 0.05519409711298089;
                        }
                    }
                } else {
                    if (input[5] > 0.07609649950136857) {
                        if (input[55] > 1.3902573540218404) {
                            if (input[42] > 2.4975806814439014) {
                                var3 = 0.08657177716222175;
                            } else {
                                var3 = 0.06554735424479179;
                            }
                        } else {
                            if (input[19] > 0.12035243619359677) {
                                var3 = 0.056808104124789364;
                            } else {
                                var3 = 0.04132605431935767;
                            }
                        }
                    } else {
                        if (input[55] > 0.9510552634809714) {
                            var3 = 0.043571929054681706;
                        } else {
                            var3 = 0.02760184021875456;
                        }
                    }
                }
            } else {
                if (input[7] <= -0.0023247739005739848) {
                    if (input[21] <= -0.11200693072997177) {
                        if (input[42] <= -0.08074122625913) {
                            var3 = -0.007298968357247148;
                        } else {
                            if (input[4] <= -0.5359160958749559) {
                                var3 = 0.002084522680182842;
                            } else {
                                var3 = 0.014467668235591214;
                            }
                        }
                    } else {
                        if (input[42] > 0.1171004489036915) {
                            if (input[27] > 0.8521964632971982) {
                                var3 = 0.03661663892484368;
                            } else {
                                var3 = 0.022557564080265012;
                            }
                        } else {
                            var3 = 0.011533338204174681;
                        }
                    }
                } else {
                    if (input[25] > 0.8144714599854878) {
                        if (input[42] > 0.30866901502548155) {
                            var3 = 0.05658699466986264;
                        } else {
                            var3 = 0.03927651160260299;
                        }
                    } else {
                        if (input[51] <= -0.1028715729733108) {
                            if (input[16] <= -0.008440705549471818) {
                                var3 = 0.011574457223999956;
                            } else {
                                var3 = 0.024909434296134153;
                            }
                        } else {
                            if (input[20] > 0.07955265173830801) {
                                if (input[2] > 0.8541513399748218) {
                                    var3 = 0.05004866909948607;
                                } else {
                                    var3 = 0.03707037237618725;
                                }
                            } else {
                                var3 = 0.02771799724601164;
                            }
                        }
                    }
                }
            }
        }
    } else {
        if (input[20] <= -0.39779521925275957) {
            if (input[41] <= -0.5424008944887874) {
                if (input[10] <= -0.5421959982677843) {
                    if (input[27] <= -0.5423142683424883) {
                        if (input[50] <= -0.5422729009147399) {
                            if (input[16] <= -0.5422378452440285) {
                                if (input[33] <= -0.5423545981753749) {
                                    var3 = -0.04234395297451374;
                                } else {
                                    var3 = -0.034394855027091185;
                                }
                            } else {
                                var3 = -0.03291150395305359;
                            }
                        } else {
                            if (input[3] <= -0.5421896205646727) {
                                var3 = -0.03546649715416726;
                            } else {
                                var3 = -0.023730301109100363;
                            }
                        }
                    } else {
                        if (input[51] <= -0.5422542821254293) {
                            var3 = -0.030694940578652935;
                        } else {
                            var3 = -0.02080695802983444;
                        }
                    }
                } else {
                    if (input[51] <= -0.5422542821254293) {
                        if (input[29] <= -0.54233483737421) {
                            if (input[17] <= -0.5422393365748637) {
                                var3 = -0.03320916261188872;
                            } else {
                                var3 = -0.025790013746230446;
                            }
                        } else {
                            var3 = -0.01883714069832623;
                        }
                    } else {
                        if (input[29] <= -0.54233483737421) {
                            var3 = -0.018277627138263274;
                        } else {
                            var3 = -0.008147364592026302;
                        }
                    }
                }
            } else {
                if (input[10] <= -0.5421959982677843) {
                    if (input[52] <= -0.3037446349307548) {
                        if (input[29] <= -0.54233483737421) {
                            if (input[3] <= -0.5421896205646727) {
                                var3 = -0.03203568488928412;
                            } else {
                                var3 = -0.022491140722396517;
                            }
                        } else {
                            var3 = -0.019902301854695534;
                        }
                    } else {
                        if (input[26] <= -0.5423112775114464) {
                            if (input[48] > 0.38375255903125627) {
                                var3 = -0.008231891014333064;
                            } else {
                                var3 = -0.02075248589740378;
                            }
                        } else {
                            var3 = -0.006710344694400879;
                        }
                    }
                } else {
                    if (input[54] <= -0.11866108958950779) {
                        if (input[29] <= -0.5203509564397112) {
                            var3 = -0.015088021104336508;
                        } else {
                            var3 = -0.005630335701919716;
                        }
                    } else {
                        if (input[48] > 0.9142803683502589) {
                            var3 = 0.021704108237993586;
                        } else {
                            if (input[26] <= -0.5423112775114464) {
                                var3 = -0.003263849772521558;
                            } else {
                                var3 = 0.00753259876629785;
                            }
                        }
                    }
                }
            }
        } else {
            if (input[51] <= -0.1813412919220049) {
                if (input[10] <= -0.01483059627610341) {
                    if (input[38] <= -0.5423963166573115) {
                        if (input[8] <= -0.542214212434217) {
                            if (input[32] <= -0.5392071055337976) {
                                var3 = -0.02843437893516956;
                            } else {
                                var3 = -0.018594164371074955;
                            }
                        } else {
                            if (input[44] <= -0.5423751856669071) {
                                var3 = -0.017402662843865803;
                            } else {
                                var3 = -0.0066355005759897185;
                            }
                        }
                    } else {
                        if (input[7] <= -0.4762988452425004) {
                            var3 = -0.010800729574017714;
                        } else {
                            if (input[46] <= -0.4293235148400806) {
                                var3 = -0.005030067956336568;
                            } else {
                                var3 = 0.0037575485968416402;
                            }
                        }
                    }
                } else {
                    if (input[40] <= -0.46074817970426596) {
                        if (input[4] > 0.27376520665307974) {
                            var3 = 0.006652507243434073;
                        } else {
                            var3 = -0.006334968165470742;
                        }
                    } else {
                        if (input[5] > 0.8481672879820876) {
                            var3 = 0.028223377084212395;
                        } else {
                            if (input[26] <= -0.1057484640578004) {
                                var3 = 0.004663729662154153;
                            } else {
                                var3 = 0.014828607248241754;
                            }
                        }
                    }
                }
            } else {
                if (input[5] > 0.3585578101098386) {
                    if (input[14] > 1.109264948202205) {
                        if (input[46] > 1.379157406948022) {
                            var3 = 0.07577883803922503;
                        } else {
                            var3 = 0.04963836971689523;
                        }
                    } else {
                        if (input[40] > 0.01351490844285867) {
                            if (input[56] > 0.9226438790050201) {
                                var3 = 0.05044652396952908;
                            } else {
                                var3 = 0.0329971307852126;
                            }
                        } else {
                            var3 = 0.022304054676916804;
                        }
                    }
                } else {
                    if (input[41] <= -0.000000000000000000000000000000000010000000180025095) {
                        if (input[10] <= -0.3036237802743877) {
                            var3 = -0.0024621977479065875;
                        } else {
                            if (input[29] <= -0.3099067568873316) {
                                var3 = 0.0039416889535591635;
                            } else {
                                var3 = 0.01505509538710858;
                            }
                        }
                    } else {
                        if (input[11] <= -0.26280653798241077) {
                            var3 = 0.011218756957886225;
                        } else {
                            if (input[55] > 0.9855700494453585) {
                                var3 = 0.04012567741845;
                            } else {
                                var3 = 0.022021732239916738;
                            }
                        }
                    }
                }
            }
        }
    }
    float var4;
    if (input[23] > 0.19577582510212319) {
        if (input[38] > 1.2667704924274232) {
            if (input[19] > 2.6796467650867544) {
                if (input[51] > 3.5565256789012065) {
                    if (input[32] > 5.953126747325027) {
                        if (input[6] > 5.986500620731561) {
                            var4 = 0.22263397978381777;
                        } else {
                            var4 = 0.1777431250595131;
                        }
                    } else {
                        if (input[8] > 4.743911213999942) {
                            var4 = 0.16996160268618873;
                        } else {
                            var4 = 0.13746465905214716;
                        }
                    }
                } else {
                    if (input[4] > 2.476868377673176) {
                        if (input[32] > 3.5220358568318155) {
                            var4 = 0.14409394660767633;
                        } else {
                            if (input[54] > 1.5598786133970888) {
                                var4 = 0.12446156419767199;
                            } else {
                                var4 = 0.10413428121158717;
                            }
                        }
                    } else {
                        if (input[49] > 1.623606049173808) {
                            var4 = 0.10734070096990295;
                        } else {
                            var4 = 0.08567688681588931;
                        }
                    }
                }
            } else {
                if (input[8] > 1.0743779920969254) {
                    if (input[50] > 2.1162223955458352) {
                        if (input[37] > 3.562853885213091) {
                            var4 = 0.12675823525516178;
                        } else {
                            var4 = 0.10019435818708217;
                        }
                    } else {
                        if (input[30] > 1.6280086596956884) {
                            if (input[57] > 0.9506716237362974) {
                                var4 = 0.09422649481049472;
                            } else {
                                var4 = 0.07846285652086041;
                            }
                        } else {
                            if (input[54] > 0.49627709970249495) {
                                var4 = 0.07531745297057103;
                            } else {
                                var4 = 0.059054477521293926;
                            }
                        }
                    }
                } else {
                    if (input[50] > 1.2656263312205012) {
                        if (input[32] > 2.2122642526118086) {
                            var4 = 0.0856275971769656;
                        } else {
                            if (input[9] <= -0.03682007290662707) {
                                var4 = 0.05295237270244799;
                            } else {
                                var4 = 0.07070115771538303;
                            }
                        }
                    } else {
                        if (input[4] > 0.10429320063725425) {
                            var4 = 0.05633849342683496;
                        } else {
                            var4 = 0.04026387412123479;
                        }
                    }
                }
            }
        } else {
            if (input[13] > 0.8737365774503084) {
                if (input[54] > 0.7566896756036396) {
                    if (input[9] > 2.4869864139331015) {
                        if (input[24] > 2.632915012322391) {
                            var4 = 0.10815188619548864;
                        } else {
                            var4 = 0.08201916334303172;
                        }
                    } else {
                        if (input[29] > 0.9087742112314061) {
                            if (input[2] > 0.9984847826509483) {
                                var4 = 0.07784064989005307;
                            } else {
                                var4 = 0.06321371867438941;
                            }
                        } else {
                            if (input[39] <= -0.014741251911610999) {
                                var4 = 0.040789282764228635;
                            } else {
                                var4 = 0.05890661257532781;
                            }
                        }
                    }
                } else {
                    if (input[28] > 0.8742078801070096) {
                        if (input[3] > 0.9578002629158807) {
                            var4 = 0.06226361742361247;
                        } else {
                            var4 = 0.04584293231802534;
                        }
                    } else {
                        if (input[44] <= -0.24406366902167506) {
                            var4 = 0.024564176155076792;
                        } else {
                            if (input[6] > 0.9549894407352598) {
                                var4 = 0.04866674711747539;
                            } else {
                                var4 = 0.03413043268937904;
                            }
                        }
                    }
                }
            } else {
                if (input[44] > 0.000000000000000000000000000000000010000000180025095) {
                    if (input[4] > 0.10429320063725425) {
                        if (input[54] > 0.816300904802752) {
                            if (input[30] > 0.8836201869256436) {
                                var4 = 0.061039494211934366;
                            } else {
                                var4 = 0.04678255057411147;
                            }
                        } else {
                            if (input[35] > 0.19262042201192184) {
                                var4 = 0.03930440417287901;
                            } else {
                                var4 = 0.026677616062532234;
                            }
                        }
                    } else {
                        if (input[54] > 0.39588053860514877) {
                            if (input[35] > 0.25544472198700957) {
                                var4 = 0.03658236754978286;
                            } else {
                                var4 = 0.02321067469950236;
                            }
                        } else {
                            if (input[11] <= -0.5170903611202543) {
                                var4 = 0.0072649145003824125;
                            } else {
                                var4 = 0.02074746057411644;
                            }
                        }
                    }
                } else {
                    if (input[4] <= -0.1530409910217272) {
                        if (input[49] <= -0.5422902555623993) {
                            var4 = -0.007068826258477021;
                        } else {
                            if (input[36] <= -0.23456536449897428) {
                                var4 = 0.0001733030829905976;
                            } else {
                                var4 = 0.011350714995895251;
                            }
                        }
                    } else {
                        if (input[50] <= -0.5108836187963307) {
                            var4 = 0.007492079457424802;
                        } else {
                            if (input[33] > 0.013601946803358538) {
                                var4 = 0.02699248295820136;
                            } else {
                                var4 = 0.015531617242796815;
                            }
                        }
                    }
                }
            }
        }
    } else {
        if (input[35] <= -0.43244431040076564) {
            if (input[15] <= -0.5422252567833504) {
                if (input[45] <= -0.5423675129378185) {
                    if (input[22] <= -0.5422842902949092) {
                        if (input[6] <= -0.5422139699355538) {
                            if (input[29] <= -0.54233483737421) {
                                if (input[38] <= -0.5423963166573115) {
                                    var4 = -0.038472701540964584;
                                } else {
                                    var4 = -0.03161736151557237;
                                }
                            } else {
                                var4 = -0.03029860975397637;
                            }
                        } else {
                            if (input[54] <= -0.5422149930835874) {
                                var4 = -0.03151705193294146;
                            } else {
                                var4 = -0.021724828002940212;
                            }
                        }
                    } else {
                        if (input[4] <= -0.5421931415346682) {
                            var4 = -0.02796082864569359;
                        } else {
                            var4 = -0.019195058727426925;
                        }
                    }
                } else {
                    if (input[5] <= -0.5421969280163154) {
                        if (input[26] <= -0.5423112775114464) {
                            if (input[54] <= -0.5171220211897557) {
                                var4 = -0.031937599124765126;
                            } else {
                                var4 = -0.024653836498938108;
                            }
                        } else {
                            var4 = -0.017267795243189773;
                        }
                    } else {
                        if (input[55] <= -0.14694585103108096) {
                            var4 = -0.016950526608094527;
                        } else {
                            var4 = -0.006518552846889567;
                        }
                    }
                }
            } else {
                if (input[50] <= -0.5422729009147399) {
                    if (input[26] <= -0.5423112775114464) {
                        if (input[3] <= -0.5390554729565338) {
                            var4 = -0.028726350745679998;
                        } else {
                            var4 = -0.020139248438387634;
                        }
                    } else {
                        if (input[3] <= -0.18758673094775863) {
                            var4 = -0.01741795519281702;
                        } else {
                            var4 = -0.006784441882981678;
                        }
                    }
                } else {
                    if (input[3] > 0.04148573215944453) {
                        if (input[56] > 0.7940419184417267) {
                            var4 = 0.02124846270470845;
                        } else {
                            var4 = 0.003882326872347855;
                        }
                    } else {
                        if (input[26] <= -0.5140468713146266) {
                            var4 = -0.012942137302933152;
                        } else {
                            if (input[56] > 0.05063378196299515) {
                                var4 = 0.003527527971770004;
                            } else {
                                var4 = -0.006753708641589352;
                            }
                        }
                    }
                }
            }
        } else {
            if (input[6] <= -0.18439187465655574) {
                if (input[46] <= -0.18129010538754223) {
                    if (input[16] <= -0.5422378452440285) {
                        if (input[23] <= -0.5422914334808632) {
                            if (input[53] <= -0.5422176441337155) {
                                var4 = -0.0265355006697164;
                            } else {
                                var4 = -0.01786773744263752;
                            }
                        } else {
                            var4 = -0.013340522085118149;
                        }
                    } else {
                        if (input[54] <= -0.5422149930835874) {
                            var4 = -0.011402490648143637;
                        } else {
                            var4 = -0.0023004981144194767;
                        }
                    }
                } else {
                    if (input[55] > 0.3581361419069062) {
                        if (input[40] > 0.8803749289582193) {
                            var4 = 0.027158429922946033;
                        } else {
                            if (input[12] <= -0.5202340158190117) {
                                var4 = 0.0032754662969664097;
                            } else {
                                var4 = 0.016387467138206976;
                            }
                        }
                    } else {
                        if (input[13] <= -0.5422178879557387) {
                            if (input[25] <= -0.5423043021066665) {
                                var4 = -0.012946620430817363;
                            } else {
                                var4 = -0.002736382098987951;
                            }
                        } else {
                            if (input[29] <= -0.18426928902983483) {
                                var4 = 0.0005175076913017219;
                            } else {
                                var4 = 0.009528416369292832;
                            }
                        }
                    }
                }
            } else {
                if (input[45] > 0.3619425684387874) {
                    if (input[54] > 1.0672964197997874) {
                        if (input[38] > 1.6782378095189339) {
                            var4 = 0.06575236901649709;
                        } else {
                            var4 = 0.04331162186783547;
                        }
                    } else {
                        if (input[13] > 0.261512910545574) {
                            if (input[1] > 0.9606985632330683) {
                                var4 = 0.045040892925241785;
                            } else {
                                var4 = 0.03019208465932093;
                            }
                        } else {
                            var4 = 0.021593667414574903;
                        }
                    }
                } else {
                    if (input[54] <= -0.3006365389906613) {
                        if (input[13] <= -0.008485067844444848) {
                            var4 = -0.002837400938640421;
                        } else {
                            var4 = 0.008881038592644934;
                        }
                    } else {
                        if (input[15] > 0.07632233057462856) {
                            if (input[1] > 0.8540236700354388) {
                                var4 = 0.033303212457753494;
                            } else {
                                var4 = 0.019701277587963917;
                            }
                        } else {
                            if (input[24] <= -0.4763397786442262) {
                                var4 = 0.0031358236215238604;
                            } else {
                                var4 = 0.013485645929231592;
                            }
                        }
                    }
                }
            }
        }
    }
    float var5;
    if (input[29] > 0.1832238037602337) {
        if (input[45] > 1.2788050812002691) {
            if (input[21] > 2.510364772947226) {
                if (input[38] > 4.027654108557635) {
                    if (input[14] > 5.933429430233078) {
                        if (input[49] > 6.052709213774711) {
                            var5 = 0.20370452621894058;
                        } else {
                            var5 = 0.16159960116638009;
                        }
                    } else {
                        if (input[54] > 3.981979575963343) {
                            var5 = 0.14973502363456592;
                        } else {
                            var5 = 0.12080432925522089;
                        }
                    }
                } else {
                    if (input[10] > 2.813524020394371) {
                        if (input[55] > 2.629417939841662) {
                            var5 = 0.1286991900623453;
                        } else {
                            var5 = 0.10526514470342437;
                        }
                    } else {
                        if (input[55] > 1.697691416088233) {
                            var5 = 0.09783805761860837;
                        } else {
                            var5 = 0.07848037582125178;
                        }
                    }
                }
            } else {
                if (input[11] > 1.0337117900230026) {
                    if (input[55] > 2.1117948345387254) {
                        if (input[40] > 3.2611092710156546) {
                            var5 = 0.11089308463010739;
                        } else {
                            var5 = 0.08712482763158279;
                        }
                    } else {
                        if (input[34] > 1.5652448405127315) {
                            if (input[2] > 1.5727093015556262) {
                                var5 = 0.08692729094254825;
                            } else {
                                var5 = 0.07155236240907589;
                            }
                        } else {
                            var5 = 0.06315897264717352;
                        }
                    }
                } else {
                    if (input[56] > 1.5750768178064958) {
                        if (input[34] > 2.2279916969766442) {
                            var5 = 0.07697792471935316;
                        } else {
                            if (input[14] <= -0.06812395856867347) {
                                var5 = 0.0448229911470857;
                            } else {
                                var5 = 0.06265123367700857;
                            }
                        }
                    } else {
                        if (input[15] > 0.07632233057462856) {
                            if (input[35] > 1.100369802752881) {
                                var5 = 0.05774902442091674;
                            } else {
                                var5 = 0.043663462480145326;
                            }
                        } else {
                            var5 = 0.0340333710027954;
                        }
                    }
                }
            }
        } else {
            if (input[16] > 0.8519101329793689) {
                if (input[7] > 1.4510135889461402) {
                    if (input[32] > 1.6720200027969947) {
                        if (input[16] > 3.269689914714737) {
                            var5 = 0.09828295807809695;
                        } else {
                            var5 = 0.07402757128675785;
                        }
                    } else {
                        if (input[48] > 0.13889673513972653) {
                            if (input[22] > 1.7755449781832986) {
                                var5 = 0.07159737077218126;
                            } else {
                                var5 = 0.058064898439078305;
                            }
                        } else {
                            var5 = 0.046519321283126164;
                        }
                    }
                } else {
                    if (input[41] > 0.30870748900499095) {
                        if (input[56] > 0.4019457234634243) {
                            if (input[24] > 1.3860681101544876) {
                                var5 = 0.0629738492271714;
                            } else {
                                var5 = 0.04982858799547312;
                            }
                        } else {
                            var5 = 0.041347689693511824;
                        }
                    } else {
                        if (input[48] <= -0.45755411249871963) {
                            var5 = 0.019129367149829726;
                        } else {
                            var5 = 0.034664107926410455;
                        }
                    }
                }
            } else {
                if (input[3] > 0.07914486011235786) {
                    if (input[41] > 0.25846213487637165) {
                        if (input[56] > 0.38312411938865587) {
                            if (input[24] > 0.9400976002464467) {
                                var5 = 0.05297504734747576;
                            } else {
                                var5 = 0.04025481553853274;
                            }
                        } else {
                            if (input[14] > 0.23014712963903022) {
                                var5 = 0.03570063783054411;
                            } else {
                                var5 = 0.024641677473379617;
                            }
                        }
                    } else {
                        if (input[49] <= -0.3288422765303528) {
                            var5 = 0.012399409172605343;
                        } else {
                            if (input[18] <= -0.05551489209257635) {
                                var5 = 0.01635529971598547;
                            } else {
                                var5 = 0.028431679059972122;
                            }
                        }
                    }
                } else {
                    if (input[42] <= -0.00850991559507393) {
                        if (input[14] <= -0.5359420781527208) {
                            var5 = -0.008142424057824746;
                        } else {
                            if (input[51] <= -0.5422542821254293) {
                                var5 = -0.0018981665827171414;
                            } else {
                                var5 = 0.009920855337097821;
                            }
                        }
                    } else {
                        if (input[9] <= -0.5076772813846354) {
                            if (input[54] > 0.050763761611060006) {
                                var5 = 0.015155311477079374;
                            } else {
                                var5 = 0.003254458974970358;
                            }
                        } else {
                            if (input[55] > 0.2702990132708282) {
                                var5 = 0.029317669639138212;
                            } else {
                                var5 = 0.0174681837077683;
                            }
                        }
                    }
                }
            }
        }
    } else {
        if (input[17] <= -0.4291982637249433) {
            if (input[37] <= -0.5423933269180607) {
                if (input[8] <= -0.542214212434217) {
                    if (input[43] <= -0.5423837414747749) {
                        if (input[24] <= -0.5422939176328232) {
                            if (input[31] <= -0.5423340796427633) {
                                if (input[14] <= -0.5422219026643785) {
                                    if (input[49] <= -0.5422902555623993) {
                                        var5 = -0.03538582764519598;
                                    } else {
                                        var5 = -0.03075843763885315;
                                    }
                                } else {
                                    var5 = -0.027769548617400382;
                                }
                            } else {
                                var5 = -0.026749509146776068;
                            }
                        } else {
                            var5 = -0.025042275267160147;
                        }
                    } else {
                        if (input[22] <= -0.5422842902949092) {
                            if (input[55] <= -0.5422170417335516) {
                                var5 = -0.028647546265455816;
                            } else {
                                var5 = -0.021892622133521566;
                            }
                        } else {
                            var5 = -0.014705115036504353;
                        }
                    }
                } else {
                    if (input[53] <= -0.5422176441337155) {
                        if (input[27] <= -0.5423142683424883) {
                            if (input[21] <= -0.5422632000453864) {
                                var5 = -0.02761076963159727;
                            } else {
                                var5 = -0.019508141672819234;
                            }
                        } else {
                            var5 = -0.01657424713617587;
                        }
                    } else {
                        if (input[23] <= -0.5422914334808632) {
                            var5 = -0.015487920292736622;
                        } else {
                            var5 = -0.006854704432797777;
                        }
                    }
                }
            } else {
                if (input[49] <= -0.3005937448411849) {
                    if (input[7] <= -0.5422168044369757) {
                        if (input[26] <= -0.5423112775114464) {
                            if (input[46] <= -0.5423525436432298) {
                                var5 = -0.02663645700338474;
                            } else {
                                var5 = -0.02006338424524258;
                            }
                        } else {
                            var5 = -0.01597935340468014;
                        }
                    } else {
                        var5 = -0.010273788001378051;
                    }
                } else {
                    if (input[3] <= -0.510807013937245) {
                        if (input[42] > 0.24272727825558302) {
                            var5 = -0.001314659210515106;
                        } else {
                            if (input[23] <= -0.5422914334808632) {
                                var5 = -0.01567459827786;
                            } else {
                                var5 = -0.007031436847042547;
                            }
                        }
                    } else {
                        if (input[54] > 0.816300904802752) {
                            var5 = 0.017767634460239736;
                        } else {
                            if (input[22] <= -0.5422842902949092) {
                                var5 = -0.0035373817869143714;
                            } else {
                                var5 = 0.005203415905444742;
                            }
                        }
                    }
                }
            }
        } else {
            if (input[43] <= -0.20008773331407645) {
                if (input[3] <= -0.14365930777856753) {
                    if (input[33] <= -0.5423545981753749) {
                        if (input[52] <= -0.5422377952783098) {
                            if (input[28] <= -0.5329061840730219) {
                                var5 = -0.023250418934011242;
                            } else {
                                var5 = -0.01559303095423898;
                            }
                        } else {
                            var5 = -0.010910701580115041;
                        }
                    } else {
                        if (input[51] <= -0.5422542821254293) {
                            var5 = -0.010665139808613581;
                        } else {
                            var5 = -0.0016825921202471275;
                        }
                    }
                } else {
                    if (input[53] <= -0.5359418166100159) {
                        if (input[32] <= -0.5140779341613037) {
                            var5 = -0.010280358501421753;
                        } else {
                            if (input[12] > 0.21438526402693422) {
                                var5 = 0.0073263653252770055;
                            } else {
                                var5 = -0.003014469375097177;
                            }
                        }
                    } else {
                        if (input[9] > 0.8201464649470497) {
                            var5 = 0.0218507369841108;
                        } else {
                            if (input[31] <= -0.4732386999126655) {
                                var5 = -0.0010691850391546212;
                            } else {
                                var5 = 0.009211735439550534;
                            }
                        }
                    }
                }
            } else {
                if (input[4] > 0.37733234664012955) {
                    if (input[55] > 0.8506687987997051) {
                        if (input[11] > 1.3413540697700947) {
                            var5 = 0.06018876478166607;
                        } else {
                            var5 = 0.03911504881520708;
                        }
                    } else {
                        if (input[9] > 1.1120777696284483) {
                            var5 = 0.03561341985143868;
                        } else {
                            if (input[31] <= -0.5172137265020901) {
                                var5 = 0.009134686223400652;
                            } else {
                                var5 = 0.022516270909566767;
                            }
                        }
                    }
                } else {
                    if (input[55] > 0.07893397410206718) {
                        if (input[47] > 0.9897221221004634) {
                            var5 = 0.02938987258438381;
                        } else {
                            if (input[6] <= -0.44177397920085165) {
                                var5 = 0.006212551700136901;
                            } else {
                                if (input[31] <= -0.30049201710556567) {
                                    var5 = 0.011067508517146177;
                                } else {
                                    var5 = 0.02135335378051779;
                                }
                            }
                        }
                    } else {
                        if (input[5] <= -0.5045403563439698) {
                            var5 = -0.003353904142486653;
                        } else {
                            if (input[24] <= -0.19995974545895553) {
                                var5 = 0.0024004760284319234;
                            } else {
                                var5 = 0.011495687251009929;
                            }
                        }
                    }
                }
            }
        }
    }
    float var6;
    if (input[35] > 0.22403257199946566) {
        if (input[22] > 1.4457720192735783) {
            if (input[48] > 2.5058473381776154) {
                if (input[11] > 3.997163444321228) {
                    if (input[29] > 6.003386295030974) {
                        if (input[43] > 5.992620909071836) {
                            var6 = 0.18484466404461714;
                        } else {
                            var6 = 0.14777991112766323;
                        }
                    } else {
                        if (input[42] > 4.71789082277373) {
                            var6 = 0.1402987898929606;
                        } else {
                            var6 = 0.11575015961362956;
                        }
                    }
                } else {
                    if (input[33] > 3.2708233983241777) {
                        if (input[57] > 4.039923099235323) {
                            var6 = 0.1266616793004721;
                        } else {
                            if (input[2] > 1.8645265663770163) {
                                var6 = 0.11067645201507575;
                            } else {
                                var6 = 0.09063105511707951;
                            }
                        }
                    } else {
                        if (input[3] > 1.3563388018111937) {
                            var6 = 0.0923698098812832;
                        } else {
                            var6 = 0.07238160602277531;
                        }
                    }
                }
            } else {
                if (input[3] > 1.7140758390362467) {
                    if (input[30] > 2.501168681123222) {
                        if (input[14] > 4.004082978431282) {
                            var6 = 0.10927945337807554;
                        } else {
                            var6 = 0.08660990078220877;
                        }
                    } else {
                        if (input[44] > 0.8361384665965337) {
                            var6 = 0.07612298644698953;
                        } else {
                            var6 = 0.059630742143855914;
                        }
                    }
                } else {
                    if (input[42] > 0.9901575183399592) {
                        if (input[12] > 0.9835443648274923) {
                            if (input[31] > 2.2122102089920235) {
                                var6 = 0.07675276722915214;
                            } else {
                                var6 = 0.0622859208538495;
                            }
                        } else {
                            var6 = 0.05270885483938349;
                        }
                    } else {
                        if (input[6] > 0.24248837104730978) {
                            if (input[52] > 0.03830779678874314) {
                                var6 = 0.05216065024878154;
                            } else {
                                var6 = 0.03831448259385788;
                            }
                        } else {
                            var6 = 0.033503707966306674;
                        }
                    }
                }
            }
        } else {
            if (input[11] > 0.3430719888306553) {
                if (input[49] > 0.9236135230258834) {
                    if (input[40] > 2.240344073569679) {
                        if (input[50] > 3.556904052261228) {
                            var6 = 0.09084431729949138;
                        } else {
                            if (input[3] > 1.7140758390362467) {
                                var6 = 0.07719201305613389;
                            } else {
                                var6 = 0.060754434227556664;
                            }
                        }
                    } else {
                        if (input[2] > 1.0392752050724967) {
                            if (input[58] > 1.577556788408416) {
                                var6 = 0.0661958108313165;
                            } else {
                                var6 = 0.054389914234942355;
                            }
                        } else {
                            if (input[21] > 0.09213057747761742) {
                                var6 = 0.04726913833647023;
                            } else {
                                var6 = 0.03310373320941483;
                            }
                        }
                    }
                } else {
                    if (input[1] > 0.8540236700354388) {
                        if (input[55] > 0.09148331014725537) {
                            if (input[18] > 0.9147848388169272) {
                                var6 = 0.05211261303447147;
                            } else {
                                var6 = 0.04088434300912604;
                            }
                        } else {
                            var6 = 0.03331491703859995;
                        }
                    } else {
                        if (input[55] <= -0.15007907320225836) {
                            var6 = 0.018216758539047192;
                        } else {
                            if (input[24] > 0.35280032091158586) {
                                var6 = 0.03515813755801015;
                            } else {
                                var6 = 0.02424876672163224;
                            }
                        }
                    }
                }
            } else {
                if (input[51] > 0.40554441482197123) {
                    if (input[41] > 1.1755324677849461) {
                        if (input[57] > 1.4430734125991613) {
