#include "model_data.h"

const float xmin_data[] PROGMEM = {
-16377.00000000f,-32768.00000000f,-32767.00000000f
};
const float xmax_data[] PROGMEM = {
4880.00000000f,32319.00000000f,32510.00000000f
};
const float W0_data[] PROGMEM = {
0.04115633f,0.00223654f,-0.01323555f,0.04763462f,0.03819012f,0.03994779f,0.00150828f,0.02941072f,0.00348282f,-0.02477415f,-0.01134061f,-0.08708697f,-0.04466430f,-0.01815646f,-0.04369503f,-0.02887504f,0.02461868f,0.02335275f,0.06065989f,-0.07341044f,-0.01749807f,0.02776793f,0.07784126f,0.03757590f,0.02110362f,-0.03318110f,0.02422236f,0.03867467f,0.00562053f,-0.05029108f,0.03846756f,0.05839355f,0.07752391f,0.05549240f,0.00913944f,-0.04658715f,-0.07345681f,-0.05122920f,-0.06611335f,0.09014115f,0.08327597f,-0.08216599f,0.03308129f,-0.04739253f,-0.00048651f,-0.07932447f,0.08919764f,0.01871722f,-0.06374933f,0.08174128f,0.05117208f,0.05280514f,-0.04751913f,-0.02238375f,0.07259084f,0.05248675f,0.02502086f,-0.07005971f,0.00855830f,0.01696388f,-0.09342431f,0.09790777f,-0.04618213f,0.01071912f,-0.08051330f,0.06073204f,0.09031550f,-0.10175738f,-0.09733018f,-0.08736231f,-0.02334118f,-0.08375658f,0.08613348f,0.03328066f,-0.09351990f,0.05901141f,-0.02596614f,-0.00808413f,0.05596326f,-0.00144656f,-0.09538011f,-0.01782046f,-0.09669312f,0.02488737f,-0.07061996f,0.01097749f,-0.05893056f,-0.06595087f,0.02839895f,0.03623667f,-0.04415967f,0.05278205f,-0.04578952f,0.04219090f,-0.04164199f,0.08387952f,-0.07388606f,-0.08717847f,-0.07060931f,-0.02975697f,-0.08216497f,0.01923933f,-0.02798822f,-0.06540882f,0.00852590f,-0.07543968f,0.03014179f,0.09320289f,0.01858501f,0.09971976f,-0.06367256f,0.06548892f,0.01986423f,0.06190342f,0.00853047f,0.02770760f,-0.04847687f,-0.03475793f,-0.02891778f,-0.00569897f,-0.08228297f,-0.09514227f,0.04359255f,0.00881647f,-0.07878479f,0.03993560f,0.00670670f,0.03234273f,-0.01863496f,0.06083010f,0.01933832f,-0.02192607f,0.04360317f,-0.10440315f,-0.07725867f,-0.03867877f,0.06663337f,0.06895069f,-0.00263078f,0.02532848f,0.04267764f,-0.08420359f,0.09945837f,0.02750578f,0.03923374f,0.01535115f,0.07958683f,-0.08574286f,-0.07711177f,-0.01226470f,0.02495912f,-0.08238830f,-0.08096799f,0.01747941f,0.00828213f,0.06371883f,-0.00792152f,0.06216680f,0.07509648f,0.08578558f,0.01194391f,0.04614796f,0.04036048f,0.08634144f,0.05278012f,0.02192350f,-0.06804267f,-0.04008790f,0.00220525f,-0.07886076f,0.02775740f,-0.03869769f,-0.02728732f,-0.06547280f,0.07317241f,-0.04522200f,0.06154607f,-0.09519628f,-0.07788394f,0.01511880f,-0.04347575f,-0.02305115f,0.05630231f,0.09295891f,0.08152153f,-0.00809064f,-0.08508658f,-0.01730657f,-0.05645949f,-0.10155807f,-0.07684896f,-0.08434764f,0.04910668f,0.02717124f,-0.02160444f,0.01592148f,-0.02085444f,-0.07193308f,0.02103636f,0.04371177f,-0.08874408f,0.05317411f,0.06063531f,-0.00027271f,0.01136691f,-0.08978412f,0.07109644f,-0.07923480f,0.03301566f,0.00926945f,-0.02885887f,-0.06803492f,0.05033002f,0.10450235f,0.06553577f,0.06826489f,0.09505565f,0.02807510f,0.09701888f,-0.01610861f,-0.06318432f,0.06078215f,-0.09508622f,0.08415455f,-0.04524453f,0.00977748f,-0.05844807f,-0.07525777f,-0.07961658f,-0.07304896f,0.02012694f,-0.07046632f,-0.03712328f,-0.00480345f,-0.08921836f,-0.05306855f,-0.05288097f,0.05357210f,-0.00711087f,0.02595003f,-0.01004265f,0.00279130f,0.06868356f,0.08564474f,-0.08757222f,0.04590749f,-0.06012537f,0.05116966f,-0.02964129f,-0.03964598f,0.06834096f,-0.01515284f,-0.05058003f,0.05143417f,0.02111396f,-0.10650870f,0.10426222f,0.04334939f,0.08301079f,-0.04779422f,-0.07970552f,0.02611186f,-0.10180854f,0.03044213f,0.09031632f,0.05770472f,-0.06004208f,-0.04835583f,0.01805538f,0.05669324f,-0.05758209f,-0.03557211f,0.00415182f,-0.00088542f,-0.03144983f,0.05852959f,0.06685939f,0.00802336f,0.00712682f,0.06823735f,-0.06365895f,-0.03751358f,0.00372906f,0.05130625f,0.06358051f,-0.07324550f,0.05939034f,0.07311664f,-0.06181668f,-0.02587828f,-0.05337985f,0.03855340f,-0.05407493f,0.01621576f,0.00035787f,0.10228442f,0.04761878f,-0.08785923f,0.10689953f,0.07787533f,-0.00259143f,-0.06211772f,0.03707159f,-0.06751485f,-0.07837603f,0.02007647f,-0.04813734f,0.02524706f,-0.06861630f,0.00060469f,0.05440764f,0.06286663f,-0.02558080f,-0.08684603f,0.07980550f,-0.02255354f,-0.09308198f,-0.00002406f,-0.00367962f,0.08519591f,0.07151822f,-0.01703570f,-0.09694739f,0.01611477f,0.09001281f,0.03725964f,0.06682191f,0.00433273f,-0.00024568f,0.09738534f,-0.00706494f,-0.08555326f,0.01428817f,-0.10159454f,0.06490880f,0.07840884f,-0.04826965f,-0.01973324f,0.02498763f,-0.08454610f,-0.08112408f,0.03300879f,-0.01431010f,0.00771214f,-0.02304193f,-0.04437877f,0.09987913f,0.08096805f,-0.08404291f,-0.04638286f,0.04148617f,-0.07468392f,-0.04744620f,-0.04115212f,-0.08235405f,-0.06898341f,-0.04809638f,0.00600010f,-0.00101546f,0.04310261f,-0.03589188f,0.01634613f,-0.05800858f,-0.02516727f,-0.09108713f,0.08768650f,0.06293970f,0.05286510f,-0.04519982f,0.03083582f,0.03881030f,0.08727456f,0.00194728f,-0.05635583f,0.04296970f,0.03489009f,0.04598904f,0.07544278f,-0.07465738f,0.01409678f,-0.03129636f,-0.01881084f,-0.09774391f,-0.02921436f,-0.07156129f,-0.00981568f,0.01614465f,-0.00618821f,-0.01882299f,-0.05403082f,0.09677122f,-0.03500921f,-0.00733750f,-0.06352696f,-0.01980022f,-0.04342459f,0.04906508f,-0.06751952f,-0.07288268f,0.01608497f,0.06400029f,-0.08277215f,-0.05212265f,-0.07686816f,0.01033790f,-0.02930162f,0.06765033f,0.05063594f,-0.01147075f,-0.05858451f,-0.03868074f,-0.05405502f,-0.01707071f,-0.04727782f,-0.01137626f,0.00886432f,-0.06669492f,0.07821218f,-0.09503964f,0.06713127f,-0.05035447f,0.08070696f,-0.03472095f,-0.06496301f,-0.02252305f,-0.08664625f,0.08783332f,0.05375690f,0.08621577f,0.06182933f,-0.07618863f,-0.05019446f,0.03060529f,0.09921321f,-0.03446786f,0.09795566f,0.07611649f,-0.02105959f,-0.04705770f,0.09663934f,0.01102220f,-0.06184251f,0.05397505f,0.04791448f,0.04818195f,-0.09818634f,-0.06661373f,0.05473582f,0.00878369f,-0.10014597f,0.07992689f,-0.06448764f,-0.08547721f,0.08973476f,-0.08746561f,-0.00116113f,0.05051645f,0.07480749f,-0.00969149f,-0.02365366f,0.01753129f,0.09104598f,0.04939986f,0.07294858f,0.07150082f,0.05361680f,0.06582924f,-0.02733057f,-0.03074953f,0.03040316f,0.04691298f,0.05129276f,0.02603167f,0.06748354f,0.03553667f,-0.00206746f,0.05472453f,0.00017472f,0.03955802f,0.03295255f,-0.07334358f,-0.01988780f,-0.00310271f,0.00700481f,-0.01734913f,-0.00577770f,0.05313244f,-0.02510276f,-0.04699454f,-0.05855029f,0.09116504f,0.05119317f,0.04313843f,0.02027222f,-0.00820366f,0.07114633f,-0.10064614f,-0.04914368f,0.02524902f,0.09029358f,-0.06490909f,-0.04102395f,0.05163760f,0.01170182f,0.09330363f,0.06513445f,-0.06875552f,0.00660609f,-0.01806726f,-0.00997159f,-0.08222070f,0.06827538f,-0.06930873f,0.09720683f,0.05650214f,0.07504241f,0.03686089f,0.05539584f,0.04983555f,-0.05352741f,-0.03474547f,-0.06762607f,0.08584826f,0.06284750f,-0.04990866f,0.00388503f,-0.05103618f,-0.08186675f,-0.03981225f,-0.06032047f,0.06204079f,0.04252024f,0.05486253f,0.04164406f,-0.02516517f,0.07894839f,-0.08043766f,-0.05932489f,0.02296853f,0.04311654f,-0.08932244f,0.03097796f,-0.05260251f,-0.03894313f,-0.03517892f,0.02247582f,0.04405558f,0.06901576f,0.06488948f,0.05740842f,-0.05329325f,0.04125259f,0.02391398f,0.01215943f,0.01444547f,-0.08953286f,0.04088277f,-0.09647452f,0.04564930f,0.00222246f,0.01214405f,0.09029029f,-0.07310489f,-0.08700106f,-0.02801354f,-0.06629760f,-0.02224928f,-0.01015894f,0.04598352f,0.06539656f,-0.04400268f,0.07805697f,0.10903335f,-0.10112820f,0.00865519f,-0.02503811f,0.10039844f,-0.00849401f,0.07240719f,-0.09078254f,0.01201557f,0.02285140f,0.04512709f,-0.08945818f,0.08484083f,0.02827301f,0.09774129f,0.01688612f,0.07529242f,0.02721491f,0.06167844f,0.08586553f,-0.08774825f,0.05894750f,-0.01327635f,0.01398643f,-0.06916481f,-0.09894399f,-0.01326730f,0.07351819f,-0.01347965f,0.05800445f,0.01565785f,-0.06845614f,-0.03299623f,0.03237807f,-0.07071656f,0.03549232f,-0.05454072f,0.04383640f,0.08175271f,-0.00671317f,-0.03920316f,0.07723890f,-0.01895362f,-0.03524620f,0.10080220f,0.08033545f,-0.06057389f,-0.04163354f,0.06167387f,-0.06580102f,-0.03053448f,0.07370128f,-0.02726474f,-0.07710881f,0.03707160f,-0.06233264f,-0.05674852f,-0.05969278f,0.09460844f,0.08572615f,-0.07709908f,0.07762139f,-0.07826246f,0.01912215f,-0.02350945f,0.00272723f,0.04886437f,0.07309698f,0.10471592f,0.01433937f,0.01601680f,-0.06819719f,0.08684669f,-0.01316979f,0.04213592f,-0.08080001f,0.09208670f,-0.09097472f,-0.07229810f,-0.06743369f,0.04720898f,0.00748264f,-0.00414920f,-0.02046725f,0.06695008f,-0.05282959f,-0.01143244f,-0.05763176f,-0.00446646f,-0.00226329f,-0.01815312f,-0.03340690f,-0.00149978f,-0.03859224f,0.08439080f,0.06107518f,-0.08888295f,-0.06599589f,-0.02584971f,0.09599698f,0.09210476f,0.00657964f,0.05382465f,-0.07636917f,0.06431069f,0.07472676f,0.00533851f,-0.02611062f,-0.06860042f,-0.07021209f,0.02373016f,-0.06875322f,0.00747550f,-0.00988313f,-0.03659109f,-0.00471641f,0.04724566f,-0.04009546f,0.09902510f,-0.06932931f,0.00711466f,0.05570111f,-0.04467129f,-0.05197055f,-0.03233815f,0.08577395f,-0.04426788f,0.09080702f,-0.07332033f,0.06099260f,-0.03504460f,0.04967805f,-0.01095905f,0.00413370f,0.06611618f,0.09357413f,0.07022970f,0.06315681f,-0.01154217f,0.01013135f,-0.09760435f,-0.00716176f,0.07008886f,0.06774994f,0.06645414f,-0.08191904f,-0.07222931f,-0.07871822f,-0.10569153f,-0.07515189f,-0.05304902f,0.05856123f,0.03459014f,0.07973546f,-0.01314812f,0.07538179f,-0.10322534f,0.02577042f,0.02676800f,0.07353079f,0.05743381f,-0.00388503f,0.10062921f,-0.09421270f,-0.03980416f,0.06270184f,0.07126793f,-0.02420929f,0.06743191f,0.09454259f,-0.05125865f,0.07305162f,-0.08055624f,0.07078242f,0.03371538f,-0.03080502f,-0.09186132f,0.09298948f,0.05468091f,-0.04915743f,0.10057823f,0.10292056f,-0.05383400f,0.07599486f,-0.04863821f,0.07873709f,-0.03851178f,0.02400677f,-0.01063309f,0.02787651f,0.09683776f,0.05325909f,0.08300737f,0.04585978f,0.04568309f,0.01986959f,-0.02991839f,-0.04064816f,0.09810311f,0.08748712f,0.01729222f,0.01505745f,0.04530904f,-0.03238479f,-0.08040936f,0.02914362f,-0.06789530f,-0.03513131f,-0.01754309f,-0.06823072f,-0.00754854f,0.05893794f,-0.07232285f,0.06966568f,-0.00691877f,-0.01528264f,0.04507207f,-0.05872311f,-0.08853938f,0.04101213f,-0.05626678f,-0.05752201f,-0.03547984f,0.04220622f,-0.09530497f,0.09000524f,0.05793786f,0.04303240f,0.09234323f,0.10176685f,0.09902568f,-0.06725136f,-0.06998844f,0.03040856f,0.05707426f,-0.03594348f,0.07492496f,-0.00340098f,0.04129358f,-0.06901861f,0.08088659f,0.07382695f,0.03934870f,-0.09389985f,-0.04681437f,-0.07313950f,0.08387721f,-0.08511376f,-0.05611110f,-0.03643654f,0.02577308f,0.01968210f,0.04220309f,0.10029972f,-0.06346072f,-0.07930467f,-0.07244164f,-0.07084800f,-0.01172985f,-0.06359325f,-0.04480220f,0.00919916f,-0.07701156f,-0.02137255f,-0.00315630f,-0.09449138f,0.07879491f,0.08686999f,0.07485481f,0.02345233f,-0.02884639f,0.09384520f,-0.10172800f,0.08527344f,0.02934694f,-0.08515590f,-0.01768684f,0.03913037f,0.09393199f,-0.08027492f,-0.00344980f,0.09642179f,-0.03909430f,0.03190400f,-0.00455139f,-0.06394692f,0.04873378f,-0.05277685f,-0.00294667f,0.00367440f,-0.00416784f,0.01532302f,-0.03159998f,0.00660418f,0.05163104f,-0.05761877f,0.01096321f,-0.03907138f,0.00563339f,0.03791521f,-0.01515332f,0.09201761f,0.06217044f,0.04185178f,0.09944604f,-0.00297361f,0.02943986f,0.05658672f,-0.07880571f,0.09778727f,0.06189876f,-0.06951040f,0.09500272f,-0.07910457f,-0.08651242f,-0.01371596f,-0.03867429f,-0.04682554f,0.03973044f,0.03126581f,-0.07333872f,0.08778878f,-0.04125611f,0.06126962f,-0.06520766f,0.01660025f,-0.10323779f,0.04283381f,-0.00174173f,-0.09405883f,-0.08446000f,-0.08372654f,0.07843643f,0.06311973f,-0.07166003f,-0.03730607f,-0.10304981f,-0.04753361f,0.06871067f,-0.07180624f,0.10010678f,-0.02553899f,0.06812447f,-0.08228221f,-0.07141490f,0.05974017f,-0.07307263f,0.06132099f,0.00995962f,0.04410982f,-0.05506559f,-0.10052307f,0.06634964f,-0.05109029f,0.03297285f,0.06623362f,-0.07655675f,-0.02742286f,-0.02698401f,0.03578585f,-0.00519101f,-0.03059415f,-0.09916771f,-0.00501436f,0.09527961f,0.04974217f,0.09895715f,0.01059031f,-0.05824822f,-0.02703034f,-0.04616291f,0.03812565f,-0.09565309f,0.09327420f,-0.06494141f,-0.01816875f,0.03285572f,-0.00919770f,0.06160322f,0.04697665f,-0.05880492f,-0.01566472f,-0.08897722f,0.03367759f,0.00981919f,0.08680835f,-0.06045496f,0.08230746f,0.00692826f,0.03814326f,0.10207028f,0.05233562f,-0.02602251f,-0.07803625f,-0.04060258f,0.08953971f,-0.04776138f,0.07683177f,0.01459797f,0.07215295f,-0.10251068f,0.00981850f,0.08856623f,0.07571157f,0.02621299f,-0.06593144f,0.02146408f,-0.00407516f,-0.08913086f,-0.08069273f,0.03175804f,0.01660825f,-0.09879353f,0.03513582f,0.01017394f,-0.02103762f,-0.01291154f,0.06606010f,0.04312819f,-0.00387656f,0.10426406f,0.06280526f,-0.03306325f,-0.01902114f,0.02301357f,-0.00513590f,0.08637021f,-0.09864243f,0.05553322f,0.07643457f,-0.05763657f,0.02647874f,0.10064135f,-0.03230723f,-0.01624613f,-0.00393050f,0.08155085f,0.00375306f,-0.05768448f,0.03685013f,-0.08939037f,0.08263780f,-0.00453820f,-0.09821855f,-0.05051158f,-0.09277597f,-0.00246177f,-0.08162063f,0.02033973f,-0.02034104f,-0.09194534f,-0.10477760f,0.06749932f,-0.08096367f,-0.06091109f,0.03669719f,0.01140841f,0.01786017f,-0.06981461f,0.09111687f,-0.06190777f,-0.01514390f,-0.06316954f,0.08118689f,-0.03125408f,-0.10199104f,-0.00225573f,-0.07608552f,-0.02379369f,-0.06518829f,-0.01698212f,0.03922577f,-0.01610220f,0.02072740f,0.09290025f,0.04151814f,-0.01724930f,0.09928877f,0.06520598f,-0.09132982f,0.06492209f,0.00182023f,-0.01790547f,0.01163662f,-0.06963024f,0.04870769f,0.00401665f,-0.03531014f,-0.01971004f,0.04440561f,-0.09162993f,-0.05294493f,-0.02782373f,0.04643857f,0.02741525f,-0.09139752f,0.08787221f,0.03725754f,-0.01444260f,0.04309152f,-0.09023965f,0.05710037f,0.09699750f,0.09351593f,-0.00002857f,0.01708259f,-0.01636123f,-0.03969246f,0.06972078f,0.08436345f,-0.08686582f,-0.03448979f,-0.04708437f,-0.00727147f,-0.06036195f,0.07744272f,-0.00142787f,0.05154025f,0.05721775f,0.07241219f,0.02780808f,-0.10183058f,0.02630864f,-0.06876692f,0.10082377f,0.03816731f,0.05519406f,-0.09773678f,0.05051959f,0.05831445f,0.09655765f,0.02608372f,-0.04262862f,-0.09273387f,0.03417720f,-0.09936448f,-0.02116813f,0.05895661f,0.05601640f,0.05516952f,0.09159663f,-0.01584864f,-0.09545130f,0.05639255f,-0.00474650f,0.04319543f,0.07657170f,-0.02927020f,-0.08575286f,-0.03250901f,-0.06494457f,-0.04447553f,0.08732600f,-0.04150069f,0.02820528f,0.08861206f,0.05050573f,-0.00033412f,-0.09638295f,0.05813817f,-0.08988148f,0.05994065f,-0.09183545f,-0.02880423f,0.00939116f,0.07097989f,-0.03645892f,0.09116080f,-0.04569912f,-0.08087173f,-0.06744815f,-0.03739623f,0.03713144f,0.03409712f,0.01062987f,-0.05761784f,-0.01013270f,-0.02826300f,0.06176953f,-0.04349993f,-0.08518124f,-0.03478808f,-0.08257203f,0.02407363f,0.09776472f,-0.05055423f,-0.09399660f,-0.09070867f,-0.06220977f,-0.02814548f,0.02610081f,0.03499548f,-0.08287922f,0.00976325f,0.08189161f,0.09163541f,0.05744503f,0.01125141f,-0.00188787f,-0.07056414f,-0.06629238f,-0.06368865f,0.06167954f,-0.03830120f,-0.02836255f,0.08700117f,-0.07802089f,0.10149848f,-0.00527755f,0.09281838f,0.03060097f,0.03460596f,-0.03025538f,-0.03285304f,0.01086971f,-0.01270725f,-0.09457663f,-0.03135805f,-0.07901102f,-0.01821516f,-0.05767783f,0.01499143f,-0.05961157f,-0.02819289f,-0.07390477f,-0.08671262f,-0.08906434f,-0.02764101f,0.09637072f,-0.04920461f,0.03117162f,0.06554462f,-0.06925672f,-0.07264726f,-0.08411646f,0.09236296f,0.00439042f,-0.09202554f,0.00965212f,-0.03611965f,0.00302454f,0.01128648f,0.05179542f,0.04585315f,0.00853237f,-0.01932311f,-0.09986554f,-0.09140151f,-0.06457659f,-0.09291098f,-0.04627139f,0.00372864f,0.06626420f,-0.10116324f,0.06171225f,0.07697192f,-0.01514622f,0.00279000f,-0.02208593f,0.07906744f,0.01654653f,0.01650857f,0.01824158f,0.06627693f,0.07342145f,-0.06089817f,-0.00182465f,0.05660971f,0.04740870f,-0.09599847f,-0.06747673f,-0.03910475f,0.10755073f,0.05598524f,0.07102599f,0.07765527f,-0.04464730f,-0.04565770f,-0.08621049f,0.08374126f,0.03732389f,-0.09448937f,0.02189670f,0.02851579f,-0.05029359f,-0.04919170f,0.03019571f,0.00750379f,0.01286120f,0.05300787f,0.09832139f,-0.02540027f,-0.03754555f,0.09095527f,0.00027663f,0.09580404f,0.01793075f,0.09839369f,-0.06393907f,-0.02434486f,0.09721185f,0.04625642f,0.01435372f,0.02507522f,-0.06920736f,-0.03831813f,-0.01588652f,0.05359640f,0.08910095f,0.02097738f,0.02746975f,-0.07932418f,0.01633320f,-0.07699449f,0.04483763f,-0.01491041f,0.00473040f,-0.02085692f,-0.00729364f,-0.00298535f,-0.07112399f,0.09490912f,-0.09172308f,-0.00025229f,-0.02547083f,-0.04137981f,-0.02173396f,-0.09100649f,-0.09306816f,0.01998865f,-0.08274351f,0.00595838f,0.00621226f,-0.05646150f,-0.03664973f,-0.04607524f,-0.01007575f,0.08714533f,0.00979160f,0.04515867f,0.05664215f,0.03372562f,0.04610988f,-0.02216564f,-0.07827772f,0.02660743f,-0.02145554f,-0.09859285f,0.01987340f,0.03304330f,0.08584352f,-0.01231523f,0.02802776f,-0.09006928f,0.09431615f,0.02392383f,-0.04494360f,0.09456896f,-0.04488162f,-0.06079366f,0.07585322f,0.04980296f,-0.02568306f,0.00195210f,-0.09198628f,0.05772559f,-0.09713718f,-0.07604016f,-0.06106374f,-0.03805983f,0.07120954f,-0.05858435f,-0.02529307f,-0.06347518f,-0.01863769f,0.02456902f,-0.09161478f,0.07320895f,-0.07824272f,-0.02408709f,0.02260100f,-0.07560650f,-0.09507546f,0.06372261f,0.09321688f,-0.04903137f,0.01186921f,0.04693165f,0.03000844f,-0.05634737f,-0.04642493f,0.08590617f,-0.01876922f,0.06879398f,-0.01131231f,0.00031623f,0.05816144f,0.10673508f,-0.02323505f,0.06845961f,-0.09645577f,0.02467564f,-0.02768079f,-0.03027791f,-0.04010965f,0.01373237f,-0.10368835f,0.04914011f,-0.04585269f,-0.03679303f,0.02641378f,-0.08136109f,0.09628462f,-0.05266486f,0.08425463f,0.09573203f,0.04910268f,0.05913625f,-0.10026254f,-0.09945128f,-0.08782843f,0.07110147f,-0.01752513f,0.00029653f,0.08717414f,-0.08846163f,-0.04217971f,-0.05872795f,-0.10305490f,0.04497772f,-0.07884412f,-0.04647881f,-0.08686158f,0.04848649f,0.00122439f,0.09627016f,0.05699330f,0.00559844f,0.04723797f,-0.02223386f,0.05064818f,0.04353280f,-0.03158697f,-0.04684069f,0.06474907f,-0.07764734f,0.02587572f,0.10265832f,-0.07247697f,-0.08404591f,-0.10219692f,0.04160439f,-0.09281076f,-0.06498661f,-0.02747716f,0.01279709f,0.02488177f,-0.07428925f,0.02155735f,0.01669674f,0.01380764f,0.01476953f,-0.05721787f,0.03266605f,-0.03225243f,-0.00975815f,-0.09002512f,-0.07425421f,-0.03599033f,-0.09328467f,-0.01626853f,0.01609145f,-0.05796545f,-0.06867184f,-0.05278459f,0.06228515f,-0.00814053f,0.00496073f,0.08537191f,0.10230695f,0.04496351f,-0.06782833f,-0.07578959f,0.05841087f,0.08105175f,0.00610068f,0.02154850f,0.08717521f,-0.01471561f,0.04736946f,-0.01429231f,-0.09089550f,-0.00941753f,0.01725912f,0.06505228f,-0.03605895f,0.07077534f,-0.01741499f,0.05840963f,-0.03507721f,-0.04434025f,-0.10107630f,-0.06164491f,-0.08802783f,0.07560680f,0.07813529f,-0.05733867f,-0.04259929f,0.06804200f,0.07562528f,-0.00415750f,-0.03704659f,0.03262968f,0.03075276f,0.06365883f,-0.07412541f,-0.04424401f,-0.07592389f,-0.00810875f,-0.03059249f,-0.04859399f,-0.06573563f,-0.05289580f,0.08147883f,0.06790596f,0.10368241f,-0.08361008f,0.09359217f,0.02504384f,-0.09133769f,0.08562925f,0.03321208f,0.05277392f,-0.01121611f,0.06973220f,-0.03938716f,0.10274202f,0.06521493f,-0.01762628f,0.02275212f,-0.06834139f,-0.01570891f,0.00138125f,-0.04615814f,-0.09048197f,0.04040635f,0.00841029f,0.05114436f,-0.03290517f,0.01524014f,-0.02330953f,0.08967125f,-0.04497201f,-0.05896842f,-0.05467805f,-0.05842780f,-0.08928367f,0.04932030f,0.01652460f,0.07930857f,-0.09692664f,-0.02390592f,0.05089704f,-0.01329231f};
const float b0_data[] PROGMEM = {
0.00379336f,0.00185572f,-0.00114846f,-0.00197849f,0.00363158f,-0.00373268f,-0.00252262f,0.00399022f,0.00311076f,-0.00160145f,0.00372218f,0.00291516f,-0.00079067f,-0.00203307f,0.00091584f,-0.00328322f,-0.00264730f,0.00148959f,-0.00207613f,-0.00103137f,0.00487765f,0.00156888f,-0.00038541f,-0.00362907f,-0.00065147f,0.00521689f,0.00329656f,0.00128404f,0.00639854f,-0.00006728f,0.00177591f,-0.00289828f
};
const float W1_data[] PROGMEM = {
0.11845532f,-0.06593573f,0.01089733f,0.04792704f,0.09053715f,-0.00046916f,-0.06872558f,0.03188520f,0.15743175f,-0.03876377f,-0.09464668f,0.12436046f,0.04659121f,0.15702330f,-0.02433743f,-0.01396313f,-0.11548205f,-0.09541813f,-0.15575132f,-0.04386520f,0.13169748f,-0.12131505f,-0.04825074f,-0.08268593f,0.12395771f,-0.01773601f,0.02171825f,-0.07799403f,0.08128303f,0.11227525f,0.03519952f,0.12584624f,-0.04119317f,0.07512975f,-0.02271109f,0.13212644f,-0.01442647f,-0.11531573f,0.02252213f,-0.11283072f,-0.04090968f,0.14628822f,0.06866960f,-0.06935847f,0.10489271f,-0.10131051f,0.09959368f,-0.08734473f,0.00375418f,-0.13983907f,-0.00454525f,-0.11885973f,0.13627705f,0.10668178f,-0.02804962f,0.13161586f,-0.00957371f,0.08663355f,0.02503520f,-0.10849505f,-0.08037814f,0.09866970f,0.09959815f,0.04593247f,-0.12470287f,0.06021962f,0.05708602f,0.06570360f,-0.04096184f,-0.07066362f,-0.01701054f,-0.01251063f,-0.00196907f,-0.04274786f,-0.06699603f,0.02486327f,-0.13060927f,-0.07299914f,-0.05591229f,0.09768883f,0.13083196f,-0.14155903f,0.05582740f,-0.09289710f,-0.10177127f,0.10614531f,0.13904417f,-0.02729779f,0.04185659f,0.14094001f,-0.02221178f,-0.14847119f,-0.00811152f,-0.14271022f,-0.02707815f,0.02972872f,0.01629082f,0.03600201f,0.15321222f,0.12661907f,-0.12189216f,0.01142822f,-0.11545385f,0.00335574f,0.10782631f,0.11036320f,0.02476780f,0.03882739f,0.08396287f,0.06747394f,-0.08714736f,-0.12469681f,0.00420834f,-0.00544868f,-0.04514682f,-0.02836467f,0.00645014f,0.08191092f,0.14928603f,0.00846776f,0.14708164f,-0.06839269f,-0.00449684f,0.15276374f,0.09950457f,0.12616625f,0.03345329f,0.09707852f,0.07061100f,0.15281792f,0.13647251f,-0.02312521f,-0.01185048f,-0.09243588f,0.08374846f,-0.05471202f,-0.15092568f,-0.05937900f,-0.12283882f,-0.10717087f,-0.04830887f,0.14583856f,0.03819017f,0.02100064f,-0.15017469f,-0.07927921f,-0.06518138f,0.04255018f,0.08988816f,-0.07473821f,0.14241193f,-0.12805194f,0.07253955f,0.09874526f,-0.13639864f,0.15274195f,-0.15029453f,0.07941054f,0.08071813f,0.11562204f,0.00309432f,-0.02449797f,-0.06565294f,0.01578692f,0.07107569f,-0.12735313f,0.13911445f,-0.03029092f,0.11613503f,-0.02143533f,-0.15080239f,0.00324254f,0.15229921f,0.00304097f,0.10666131f,-0.09685947f,0.14962055f,-0.01347490f,-0.10239283f,-0.07342060f,0.14486270f,0.06902904f,-0.06477211f,-0.11694480f,-0.00409419f,0.13707282f,-0.05680756f,0.05999107f,-0.11371377f,0.04015472f,-0.05341188f,0.08430430f,-0.08929679f,-0.11946411f,-0.00782968f,0.04772006f,0.03737814f,0.00373603f,-0.01379218f,0.14874083f,0.14010169f,0.15052575f,-0.12833275f,0.00741130f,0.02482052f,-0.11954295f,0.12491464f,0.03684460f,0.01676071f,0.07012579f,0.04766792f,-0.15389630f,-0.10421187f,-0.12791084f,0.10935752f,0.09877117f,-0.05897309f,-0.05602968f,0.13517597f,0.11624624f,-0.15391822f,-0.07160135f,-0.07263867f,-0.13542914f,-0.15623477f,-0.14787081f,0.02775567f,0.04345815f,0.03000871f,-0.10785896f,0.00390802f,0.13689797f,0.07428648f,0.04165612f,-0.11973488f,-0.06693118f,-0.00255359f,0.13421234f,-0.06606189f,-0.00097029f,0.13391593f,-0.04800472f,0.06723726f,0.12591206f,-0.01436957f,0.07439379f,-0.05596068f,-0.11822554f,-0.05793228f,-0.00739204f,-0.09749638f,-0.03396885f,-0.09980048f,-0.05519626f,-0.15077887f,-0.12732249f,0.14324841f,0.08631821f,-0.11123716f,-0.00333129f,-0.03617192f,0.10458406f,0.13423803f,0.05060758f,-0.12924001f,0.12964104f,0.10412852f,-0.01631938f,0.11358516f,-0.06981604f,0.13237558f,0.01558157f,-0.14630996f,-0.07686574f,-0.11436001f,-0.05107883f,-0.14221151f,-0.14586349f,-0.09263007f,-0.11107560f,0.12376263f,0.13315028f,-0.14409430f,0.12572931f,-0.08720933f,-0.04046429f,-0.07285699f,-0.13369572f,-0.14756519f,-0.09146068f,-0.10312640f,0.09986124f,0.03779069f,0.00613739f,-0.02983208f,0.02839177f,-0.11363693f,-0.08377564f,0.14071976f,0.11413670f,-0.11650684f,0.14210066f,-0.05130263f,-0.04445782f,0.04922309f,0.00244570f,-0.15009281f,0.03721197f,-0.06512031f,-0.05931760f,0.02013593f,0.05965728f,-0.08080366f,0.00815895f,0.13347298f,-0.07560071f,-0.06044371f,-0.02699878f,0.09847462f,0.01946799f,-0.05760659f,-0.12614819f,0.12375753f,-0.12721536f,0.07269183f,-0.15110628f,-0.07352196f,0.13980860f,0.13924678f,0.15463726f,0.09049705f,-0.01920230f,0.01533447f,0.00738150f,-0.04698700f,-0.04433228f,-0.04317922f,-0.12648673f,-0.13564806f,-0.13367909f,-0.04448183f,-0.04446356f,-0.10714926f,0.13085181f,-0.10208135f,0.15042084f,-0.09816600f,-0.02492820f,0.03454513f,0.14048047f,-0.14773262f,0.09198122f,0.05406025f,0.13014227f,0.01351686f,-0.05369559f,-0.07944053f,0.15071689f,-0.00004490f,0.07411645f,0.10274920f,-0.05621457f,0.03471560f,-0.03547648f,-0.00918587f,0.05312634f,-0.13189936f,0.10809604f,-0.08105333f,-0.09393630f,0.00495479f,0.11120564f,0.00050707f,0.06008586f,-0.02517729f,-0.09105727f,0.09279703f,-0.04068694f,-0.04666416f,0.14526780f,0.09488764f,-0.13551486f,0.06770395f,0.09275354f,-0.14151546f,0.09118766f,-0.11126918f,-0.05070765f,-0.12610875f,0.09618277f,0.14867526f,0.06537260f,0.09467626f,0.11052831f,-0.13156258f,0.14462775f,0.15110892f,0.08272313f,-0.12439699f,-0.04375297f,0.02027573f,-0.11438008f,0.14770973f,-0.06267463f,0.10021600f,-0.14911017f,0.13926148f,-0.11013805f,0.00088599f,0.08210564f,-0.09592877f,-0.01857464f,0.02066727f,-0.10783882f,-0.13211088f,0.14344773f,-0.05033119f,-0.03866679f,0.08306995f,-0.01195477f,-0.05898192f,-0.12473504f,-0.07604208f,-0.14690495f,0.09525418f,-0.02250117f,0.00731205f,0.07945305f,-0.05678106f,0.10433336f,-0.11235377f,0.04360502f,0.05746887f,-0.15605488f,-0.04122581f,-0.01191570f,-0.06728044f,-0.14504522f,0.09833258f,0.12478041f,-0.11490986f,-0.11976925f,-0.09455701f,-0.11791664f,0.10117344f,-0.10802717f,0.04787993f,0.05605607f,-0.08550204f,0.12050280f,0.11394568f,-0.05891273f,-0.02878441f,-0.11904918f,0.03445789f,0.03627363f,0.05853643f,-0.15425624f,-0.06428701f,-0.12862137f,0.05517013f,0.04336868f,0.04307420f,0.08159596f,0.07481362f,-0.14066283f,-0.08842458f,-0.14900853f,0.12368666f,-0.05281857f,-0.03582872f,0.15280062f,-0.10357885f,0.14681813f,0.06436224f,0.00438677f,0.03436171f,-0.00381171f,0.10483083f,0.09736169f,-0.13485184f,-0.07393482f,-0.02632336f,-0.03531309f,-0.11786465f,-0.07536408f,-0.02493787f,0.14398354f,0.03344808f,-0.10977587f,-0.11323001f,0.10993882f,-0.11248068f,-0.02995484f,0.03690510f,0.06523127f,0.15410063f,0.05233801f,0.03541319f,-0.09383323f,0.09000617f,-0.06977687f,0.09419498f,0.07820423f,0.13199373f,0.13252693f,-0.01622418f,-0.14377311f,-0.05569414f,0.14789598f,-0.03384836f,-0.15109216f,0.13644466f,0.02127374f,0.11790197f,-0.01834838f,0.00471494f,-0.14075026f,0.02764612f,-0.14632431f,0.14187956f,-0.07045756f,-0.13809387f,-0.09078339f,-0.05298063f,0.12919319f,0.08807206f,0.06063738f,0.05441076f,0.11476427f,0.02027602f,-0.10787105f,-0.14108109f,0.12632701f,0.02933089f,-0.02845004f,-0.00515219f,-0.05913369f,0.02036107f,-0.04160168f,0.05809409f,0.13861419f,-0.08303278f,-0.07386906f,0.08589105f,-0.14142211f,0.08437972f,-0.00898881f,-0.13155442f,-0.12555675f,0.15394172f,-0.15111518f,-0.13649242f,0.10375633f,0.06408608f,0.02045325f,-0.13688014f,-0.04580814f,0.07655124f,-0.03521224f,0.09066635f,0.09675177f,0.13761109f,0.05160967f,0.02620370f,-0.15453689f,0.05476377f,-0.03345333f,-0.03710299f,-0.14703688f,0.09282596f,0.10140238f,-0.14683369f,0.08797747f,-0.00818034f,0.02676630f,0.13339663f,-0.13084830f,-0.02816010f,-0.00834276f,0.09077375f,0.00364676f,0.01572553f,0.13190033f,0.06229448f,-0.01504233f,-0.03291047f,-0.12589996f,-0.07716530f,0.00177003f,-0.11882885f,-0.15599579f,-0.00574165f,0.06971637f,-0.15401606f,0.05163986f,-0.07373517f,0.11730869f,0.05763035f,-0.03911919f,-0.13931647f,-0.07140581f,0.00149588f,0.13083628f,0.11412027f,-0.09303418f,0.11586726f,0.13174379f,0.02511210f,-0.02838788f,0.06104749f,-0.10629779f,0.05212947f,-0.04911109f,-0.14853054f,0.10992609f,-0.13223499f,0.04895034f,0.15726604f,-0.02878818f,-0.13150147f,-0.14950722f,0.02866142f,0.12951055f,-0.04813888f,0.14426981f,0.11473324f,-0.10690548f,-0.12653983f,-0.01285662f,-0.05813750f,-0.15098418f,-0.06663449f,0.06118455f,0.09329348f,-0.09428839f,-0.11141890f,0.12099086f,-0.06023035f,0.11978053f,0.00340129f,-0.15064298f,-0.13547108f,0.00887689f,-0.08943573f,0.12991042f,-0.09628406f,0.08752947f,0.14427677f,-0.12779078f,0.01434947f,0.05582059f,-0.13890809f,-0.05412919f,-0.03462267f,-0.09868288f,0.06590385f,-0.12980954f,0.13912046f,-0.10575196f,0.09879530f,0.07903765f,-0.14788572f,0.12210177f,-0.07053486f,-0.05034053f,-0.05399588f,0.06903651f,-0.14652279f,0.09673793f,0.15903628f,-0.08586998f,-0.06661866f,0.06311283f,-0.00774672f,-0.14994657f,-0.01849789f,-0.13931152f,0.02802265f,-0.00619300f,0.00892018f,-0.12697580f,0.01381438f,-0.02212264f,0.02725268f,0.15323655f,0.10464661f,-0.10135336f,0.04168581f,0.08638062f,0.09436481f,-0.03641078f,0.13279590f,0.12362827f,-0.03681360f,0.11648342f,0.12104758f,0.13081208f,0.13980491f,-0.02229081f,-0.03096165f,-0.07948232f,-0.07574677f,-0.11829957f,-0.15865906f,-0.09919673f,-0.05296405f,0.02292066f,-0.04912417f,0.01974715f,0.10216306f,-0.14379439f,-0.08115810f,-0.04791432f,-0.07882760f,-0.07951273f,0.16007254f,-0.10553890f,-0.04081457f,0.12608683f,-0.05510581f,-0.12564276f,-0.13880645f,0.11617628f,0.06768148f,0.06573479f,0.07534780f,-0.09173262f,-0.04255544f,-0.15877672f,-0.15249293f,0.07819539f,-0.05689387f,0.11997414f,-0.05740545f,-0.01483774f,0.07128551f,0.07056436f,0.14389539f,-0.12458922f,-0.12059899f,-0.12478365f,0.07403957f,0.10127562f,0.14930533f,0.04387197f,-0.04318264f,0.14507662f,-0.09844203f,-0.12461075f,-0.15060088f,-0.04738194f,0.12027816f,0.05839802f,0.06804261f,0.03070917f,0.00546138f,0.10370877f,-0.05798251f,0.05881517f,-0.10731263f,-0.07160522f,0.11773641f,0.04976046f,0.09502555f,0.07526267f,-0.12694484f,-0.06520338f,0.07110883f,0.12771434f,-0.05111099f,-0.05973567f,0.04105877f,-0.09045584f,-0.12436587f,-0.13761656f,-0.12254110f,-0.14305632f,0.12679325f,0.12102205f,0.14423044f,0.09918100f,-0.05595183f,0.03220581f,-0.15538728f,0.02041664f,-0.01117554f,0.12619849f,-0.12314072f,-0.09958364f,-0.10796914f,0.07746796f,-0.09494675f,-0.02462882f,-0.03848094f,-0.01439672f,-0.02573373f,-0.09589251f,0.06191267f,-0.09226904f,-0.13568670f,0.11255211f,-0.09843678f,-0.03882215f,0.13274342f,-0.10862902f,0.09511697f,-0.12363531f,-0.03581243f,-0.10325999f,0.06213731f,-0.09407213f,0.02802097f,-0.11955237f,0.13775319f,0.07185295f,-0.06560759f,-0.00360919f,0.13252114f,0.01821297f,0.00629736f,-0.13243192f,-0.11760301f,-0.07638761f,-0.07449120f,0.15400127f,-0.03796368f,0.05953749f,0.08578164f,0.07002753f,-0.15596366f,-0.04450893f,-0.04844866f,-0.01602344f,-0.08883007f,0.06546858f,-0.09957439f,-0.00782290f,-0.05259682f,-0.11480242f,-0.08254713f,0.03194243f,0.01530976f,0.15528323f,0.07874458f,0.07291117f,-0.06698769f,-0.05398049f,-0.07125765f,0.08965439f,0.04033766f,0.02589691f,-0.03242552f,0.14574836f,0.14646864f,0.09649921f,-0.08616007f,0.13102144f,0.15774731f,0.09555619f,-0.10736573f,0.09562003f,0.04020071f,0.06731305f,-0.05559148f,0.11300181f,0.00783636f,0.08210262f,0.02493417f,0.08998088f,-0.12865913f,0.01575350f,-0.13766439f,-0.03450741f,-0.13210347f,-0.08208666f,0.01168008f,0.11049455f,0.11697715f,0.01491749f,0.11513189f,-0.08654021f,0.10681316f,-0.03107755f,0.09034904f,-0.03281052f,0.05976959f,-0.13709775f,-0.13939184f,-0.03877222f,-0.12184931f,-0.07143828f,-0.02834906f,-0.07851976f,0.04233655f,0.05998292f,0.09260032f,0.11842667f,-0.07878392f,-0.03810100f,0.09014758f,-0.01722813f,-0.00178475f,0.12700392f,0.06203929f,0.04534087f,0.13202691f,0.13333786f,-0.02586425f,0.08037207f,0.09053427f,-0.12139548f,-0.05738087f,0.12001275f,0.08617707f,-0.07547055f,0.05183644f,0.03460547f,-0.13865542f,0.04268803f,0.04517421f,0.12527062f,-0.13865714f,0.07258476f,0.01147281f,-0.05844992f,0.11677781f,0.08675059f,0.01598535f,0.12816213f,-0.05275319f,-0.02116678f,0.09419169f,0.08461496f,0.01408702f,0.08669131f,-0.09134675f,-0.11043036f,0.07307541f,0.08864777f,0.00059599f,0.10319521f,0.03204680f,-0.03275667f,0.07030614f,0.11702824f,0.02612813f,-0.07944995f,-0.04861844f,-0.03903765f,0.00832399f,-0.04351766f,-0.15185454f,-0.09606587f,0.05515053f,0.13354187f,0.04240539f,0.03679693f,-0.00067902f,-0.08232102f,-0.13542044f,-0.09134996f,0.14350834f,-0.11126047f,-0.10124815f,-0.11122201f,0.05641812f,-0.15382670f,0.10859802f,-0.05108427f,0.06262062f,-0.10953918f,0.13538218f,0.15678103f,0.08737268f,-0.07053955f,0.07174813f,-0.06094217f,-0.06614819f,0.03809027f,-0.08545414f,-0.14839758f,-0.10229707f,-0.09665772f,0.15733258f,0.05007535f,0.14362340f,0.14600582f,-0.10892440f,-0.12915924f,0.12057271f,-0.05048490f,0.14390703f,0.08330906f,0.00005368f,0.03475392f,0.05711333f,-0.13693851f,0.01453852f,-0.00389100f,0.07596571f,-0.02218514f,-0.03197069f,0.00092344f,0.02036019f,0.04424983f,0.00111977f,0.06744783f,-0.14653407f,-0.01421309f,0.00803438f,0.02711917f,-0.11555870f,-0.11856770f,-0.10115796f,-0.09925443f,0.10478222f,-0.14815380f,-0.02656201f,-0.15817767f,-0.00918995f,-0.05040978f,0.08087463f,-0.14647073f,0.05763378f,0.09361252f,0.03982137f,-0.08160491f,-0.02199935f,-0.15097141f,-0.05908625f,0.05038271f,0.06357124f,0.02501324f,-0.03025853f,-0.13344130f,0.02442368f,-0.04044156f,0.15820608f,-0.02273481f,-0.07861526f,-0.06314829f,-0.03946763f,-0.10094041f,0.07419658f,0.12735878f,0.03160005f,-0.02584816f,-0.04912438f,0.05952232f,0.12318052f,-0.06438361f,0.15614085f,0.01246367f,0.03824626f,-0.09703581f,0.12832001f,0.15023394f,-0.08731968f,-0.05354069f,0.04015104f,-0.02604954f,-0.04287354f,0.02183435f,0.15000938f,0.04477321f,-0.12009739f,-0.10571907f,-0.00150961f,-0.06768475f,0.14364035f,-0.08864555f,-0.12062066f,-0.00166650f,-0.04488416f,0.06791231f,0.05984740f,-0.00597958f,0.14519723f,-0.03304472f,-0.13291678f,-0.11781531f,-0.04042728f,-0.07702894f,-0.05796096f,0.07414190f,0.00622631f,-0.07943793f,0.03361478f,-0.02296633f,0.00993359f,-0.12063400f,0.08421062f,0.12221212f,-0.12685727f,-0.14612374f,0.02127558f,-0.11999319f,-0.11985124f,-0.05723977f,0.01463076f,0.08347628f,-0.12446196f,-0.08132882f,0.04999120f,-0.11028206f,0.03385394f,-0.04448148f,-0.12294733f,0.02584014f,0.04177086f,-0.05155836f,0.02302431f,-0.08076098f,0.04811034f,-0.03784661f,-0.09313978f,-0.08158124f,-0.09801681f,0.03466260f,-0.12569454f,0.10130084f,-0.04684120f,-0.01737081f,-0.07228632f,-0.02612212f,-0.07873489f,0.11434613f,0.03422998f,-0.13392092f,0.07644903f,0.03184358f,0.08532677f,-0.13535540f,0.01187873f,-0.11876910f,-0.14682201f,-0.03568462f,0.05409061f,0.08342136f,0.04062882f,-0.15456314f,-0.08244309f,-0.13960624f,0.03727847f,-0.09857120f,0.10384209f,0.06493885f,0.01311276f,-0.04418706f,-0.08834906f,0.09251704f,-0.09569764f,0.14845499f,0.09355113f,0.13032043f,0.03736737f,-0.05403058f,-0.11585589f,-0.05335432f,0.06243888f,-0.08284033f,-0.07729129f,-0.06534767f,0.03835974f,-0.02185762f,-0.02879329f,-0.15916543f,0.08131368f,0.03803628f,-0.11967555f,-0.13880049f,0.07995958f,0.01963176f,-0.13274688f,-0.09013724f,0.00365523f,-0.08078062f,-0.03418779f,0.05258400f,0.10458325f,-0.12679923f,-0.09554178f,0.07551327f,-0.09426051f,0.05484915f,-0.09031833f,-0.13869640f,-0.10240483f,-0.05679763f,-0.04706095f,-0.07229935f,-0.11629988f,-0.13674740f,0.01021162f,0.02895087f,0.09092177f,0.13529468f,-0.01001127f,-0.01192443f,0.02338584f,0.15080279f,-0.14081110f,-0.02161548f,0.01946011f,-0.02481950f,-0.12017989f,0.13928656f,0.09426399f,0.04829801f,-0.03921484f,-0.07564972f,0.15601718f,0.12113526f,-0.07893433f,-0.06963203f,0.04884644f,0.13370112f,0.01604508f,-0.06742511f,0.14970523f,-0.12715183f,-0.04420229f,0.07898116f,-0.05147937f,-0.13196683f,-0.06585065f,0.01585011f,-0.13839214f,-0.13587756f,-0.12364129f,-0.15127705f,0.04535870f,0.05293683f,0.07175223f,-0.15040356f,0.06066662f,0.11851560f,-0.04485926f,-0.05721670f,-0.11629927f,-0.07397041f,0.11726167f,0.01564139f,-0.12136739f,-0.06413531f,0.00146697f,-0.14275131f,-0.00147508f,-0.11415008f,0.15457149f,0.09431156f,-0.12568241f,-0.07103279f,0.00911599f,-0.09472825f,0.12190210f,0.12595847f,0.11222925f,0.07745072f,0.02369890f,-0.07226624f,-0.01857553f,-0.08396941f,-0.13076779f,0.15232757f,-0.01117197f,0.02601051f,0.10990583f,-0.01941593f,-0.09656472f,-0.11834303f,0.08611201f,-0.13953649f,-0.05163122f,0.03921491f,0.12604535f,-0.01750581f,-0.05410416f,-0.15614159f,0.02520392f,-0.11267997f,-0.12723029f,0.08191130f,0.07826850f,-0.03753553f,-0.02938457f,0.06603918f,0.03815759f,-0.10796008f,0.15371275f,-0.11130849f,-0.09646711f,-0.10517653f,-0.07930692f,0.03441070f,0.07341839f,-0.07912129f,-0.10902217f,0.02616000f,-0.07362259f,0.08951542f,0.03285419f,-0.13666509f,-0.10345114f,-0.06901379f,-0.06467346f,0.03858772f,-0.08855036f,0.12871341f,-0.08500402f,-0.07618315f,-0.10436973f,0.03867214f,-0.00300004f,-0.14690922f,0.13102745f,0.01986987f,0.09772975f,-0.12998115f,-0.03705268f,0.10560829f,-0.12670484f,0.01154457f,0.14313774f,0.05855241f,0.08187588f,0.09688041f,0.03153045f,-0.11497737f,0.04786433f,0.08782629f,-0.10749733f,0.01500842f,0.13245520f,0.00410922f,-0.05895706f,-0.01326136f,-0.14474921f,0.13118091f,-0.10440502f,0.08213588f,0.07404606f,-0.12753733f,-0.10390000f,-0.14876163f,-0.10246066f,-0.10482337f,0.14170918f,-0.02915124f,0.05089056f,0.05847314f,0.15691870f,-0.08369161f,0.12685271f,-0.08223787f,-0.01209385f,-0.06947593f,-0.01200765f,0.14108004f,-0.10417794f,0.11077039f,0.09696043f,-0.08171038f,0.09286345f,-0.02112217f,-0.06341556f,-0.14778827f,0.15421651f,0.12945251f,0.15962213f,0.07615257f,0.11826108f,-0.11875484f,-0.07988792f,0.03958999f,-0.12567784f,0.05175513f,0.06779602f,-0.00971114f,-0.06285671f,0.15830466f,0.15334249f,-0.08565804f,0.09777665f,-0.13079379f,0.07648320f,0.04320019f,0.01830418f,-0.08807269f,-0.12682678f,0.04750551f,0.14091460f,-0.01581264f,0.09903979f,-0.07364495f,-0.12573911f,0.13091268f,-0.06625608f,-0.02596157f,-0.15101565f,-0.05766027f,-0.02707629f,-0.02505514f,0.12625216f,0.15815364f,0.01888234f,-0.00936462f,0.10282129f,0.15151311f,-0.11414602f,-0.01080613f,0.07621278f,-0.11880586f,-0.01074717f,0.10939026f,0.08676676f,-0.02368755f,-0.11463445f,0.11966193f,-0.10732164f,0.04924324f,-0.03732010f,-0.03791275f,-0.14751340f,-0.13052623f,0.00807679f,-0.04003089f,0.14958392f,-0.05243056f,0.03964792f,-0.02439115f,-0.03525203f,0.06648363f,-0.10188475f,0.09725611f,0.04885289f,0.09772596f,-0.13228023f,-0.02492287f,0.02784029f,-0.07518086f,0.11511987f,0.12237446f,-0.09818939f,-0.11150195f,-0.09073819f,-0.00677269f,-0.06228211f,-0.12072014f,-0.03865195f,-0.03758310f,0.07487342f,-0.10278320f,-0.13392530f,-0.00376274f,-0.07052814f,0.13901177f,-0.10704595f,-0.01336094f,-0.13795185f,0.07498743f,0.03125035f,-0.00210905f,0.01379687f,-0.05746458f,0.08310144f,-0.09990279f,0.00170888f,-0.05370967f,-0.07118142f,0.09428195f,0.01904579f,0.13821316f,-0.00083568f,-0.02733465f,-0.00927545f,0.12566300f,-0.03187494f,-0.05579279f,-0.01561875f,0.03749343f,-0.11063176f,0.06015399f,0.13529016f,-0.05403562f,-0.02575243f,-0.09852000f,-0.01560480f,0.10742873f,-0.11299562f,-0.03902338f,0.01710959f,0.10903508f,0.05416095f,-0.08305436f,0.13332056f,0.08662988f,0.14177540f,0.12969169f,0.03858393f,-0.03375051f,-0.14482342f,-0.04002273f,0.08902448f,-0.06592411f,-0.09603538f,-0.07008845f,0.15432176f,-0.14981814f,-0.11532606f,-0.14379624f,-0.03167867f,-0.12060535f,-0.04523082f,-0.10873929f,0.02800959f,0.13079268f,-0.12025663f,0.08415078f,-0.01210410f,-0.10366406f,-0.09392098f,0.13592778f,-0.06475040f,0.08054623f,0.13281891f,0.04940909f,0.08791333f,0.06822295f,0.09629521f,-0.12656985f,0.13865867f,0.13691871f,-0.06433657f,0.14321493f,-0.04731502f,0.11886198f,0.06851847f,-0.10490163f,-0.09095873f,-0.12275234f,0.10749041f,-0.02751646f,-0.05766331f,0.05314017f,-0.06198930f,0.03668676f,-0.12865436f,0.15139446f,0.05747815f,0.07671408f,0.09604947f,0.01044746f,0.09322202f,-0.00363576f,0.08070760f,0.02197710f,0.05372599f,-0.13365828f,-0.03862168f,-0.03849724f,0.03870932f,0.01900478f,0.01795878f,0.01869920f,0.08788958f,-0.07754073f,-0.08765341f,-0.12257012f,-0.11336356f,-0.08940872f,0.08215213f,0.06330559f,-0.15863670f,0.01909123f,-0.09702902f,0.00280934f,0.12711129f,0.11571060f,0.04572047f,-0.02324900f,-0.07784931f,-0.04621862f,-0.08770714f,-0.04339467f,0.00676597f,0.08196978f,-0.07059988f,0.11272951f,0.08450452f,-0.10400955f,0.13782676f,0.13180616f,0.04978618f,0.14390682f,-0.03617228f,0.13600792f,0.04071706f,-0.01627254f,0.07825149f,0.04662563f,-0.05168709f,0.05269183f,0.05000862f,-0.04329764f,0.00808408f,0.06834576f,-0.09486880f,-0.01915569f,0.15782566f,0.10290707f,-0.14808309f,0.00993695f,-0.07375964f,0.06787444f,-0.11067418f,0.01289549f,0.06372599f,0.15734418f,-0.01555000f,-0.01638323f,-0.06695411f,0.08888999f,0.04304608f,0.07941117f,-0.14391494f,0.03654432f,0.11690894f,-0.00778709f,-0.07724546f,0.11327173f,-0.03251174f,-0.00844447f,0.08479517f,0.14514807f,0.09643695f,-0.01613383f,0.12210253f,-0.03420724f,-0.02185176f,-0.15041488f,0.04538032f,-0.08384127f,-0.00927677f,0.12611996f,-0.04701029f,0.07830970f,-0.07162413f,0.06038138f,-0.01207175f,0.02836781f,-0.14721525f,0.02701358f,-0.11902360f,-0.11487898f,0.01168974f,0.04094497f,-0.10553952f,-0.13527146f,-0.13675497f,-0.01218381f,-0.08056626f,-0.07953599f,0.02507972f,0.05971221f,-0.03642524f,0.09758298f,0.06433230f,-0.15231191f,0.14450333f,0.13267455f,0.05211033f,0.03755375f,-0.12652883f,-0.13207196f,-0.15337449f,0.07494383f,-0.08755450f,-0.06861663f,0.14627172f,0.01991871f,0.08368368f,-0.13050869f,-0.01151672f,0.02861562f,-0.06707871f,0.05534729f,-0.13860264f,0.05481433f,-0.12481453f,0.07282523f,0.13579777f,-0.11399154f,-0.09263740f,-0.14510284f,-0.10289223f,0.02748140f,-0.13046332f,0.04292031f,-0.01412797f,-0.14260186f,-0.12524298f,0.00000738f,-0.03974845f,-0.01791318f,0.10436814f,-0.16050735f,-0.10205998f,-0.06529862f,-0.12566663f,0.13713482f,-0.13377891f,0.12435554f,0.09562574f,-0.03465642f,-0.12391707f,-0.10972013f,0.10147710f,0.14309879f,-0.10388958f,0.01930081f,0.07704508f,-0.15445003f,-0.02559691f,-0.15401745f,-0.02980380f,0.05457591f,0.10870286f,-0.08233684f,0.01997044f,-0.12166478f,0.05640845f,0.03532264f,0.11140537f,-0.06079115f,-0.07320102f,0.11773307f,-0.12509899f,0.11564282f,0.07604253f,-0.14728861f,0.11828616f,-0.02630292f,0.02072074f,-0.14962916f,0.12353303f,0.03403860f,0.00453460f,0.12906648f,-0.03355466f,0.07969651f,0.04758111f,-0.09072381f,-0.08892962f,-0.14032029f,0.04885365f,-0.13091080f,0.13487065f,0.06484132f,0.15339036f,0.09035270f,-0.09229180f,0.04740120f,0.06327480f,-0.03135438f,-0.15052010f,0.12925051f,0.00133999f,0.12540513f,-0.00004716f,-0.01602868f,0.08089697f,0.01955430f,0.03830709f,-0.09718309f,-0.03391071f,-0.15050578f,-0.02851203f,-0.16018963f,0.14819545f,-0.14057200f,0.11912260f,-0.00103077f,-0.09021306f,-0.04102200f,-0.08473470f,0.02969873f,-0.13816881f,0.00101022f,0.08553942f,0.15105952f,0.09449781f,-0.14967057f,-0.13055524f,0.03187018f,-0.02519090f,-0.07984800f,0.15429576f,0.06204753f,0.13512681f,-0.02511188f,0.07739358f,0.08455095f,-0.11074678f,-0.06711533f,0.02400106f,-0.00251939f,-0.11278667f,-0.05802600f,0.01448717f,0.12362827f,-0.08560175f,-0.13145620f,0.08722159f,0.10889000f,-0.09015055f,-0.10212372f,0.00115072f,-0.15675029f,0.03506879f,-0.08900878f,-0.07162432f,0.14122273f,-0.00939759f,0.08221339f,-0.13929093f,0.11697133f,-0.00901414f,0.06424933f,-0.11936697f,0.09553879f,-0.03705451f,0.14343727f,0.03346621f,-0.10983448f,0.07744385f,-0.02912894f,-0.14971288f,0.14263274f,-0.02982833f,-0.06271797f,-0.13389592f,0.14044890f,-0.01170960f,0.13369203f,-0.01320997f,0.02020238f,-0.08858912f,-0.06316411f,0.07376906f,-0.11986368f,0.02117009f,0.15167718f,0.03020083f,-0.08844265f,0.09106937f,-0.03152888f,0.14875923f,-0.01320375f,-0.08733151f,0.14680432f,-0.02165745f,0.09239553f,-0.12000031f,0.13396996f,0.06638961f,0.12267286f,-0.09123517f,-0.03826588f,-0.14267750f,-0.01853927f,-0.09511168f,0.14765564f,-0.15210314f,-0.04853030f,-0.12288342f,-0.09428564f,0.14407627f,-0.01166996f,-0.04860491f,0.13701466f,0.14470084f,0.04949802f,0.07857776f,-0.06075739f,0.13068971f,0.11744026f,-0.02461027f,0.14458229f,-0.12330583f,0.00891305f,0.03457351f,-0.04361499f,0.12992698f,-0.14246699f,0.00856683f,-0.13725559f,-0.08279200f,0.03912734f,0.01043080f,0.10627882f,0.09460580f,0.06443588f,0.11763144f,0.11660735f,-0.10600308f,-0.13107364f,-0.03204997f,0.10786081f,-0.09584237f,-0.03451388f,0.06178937f,-0.00326833f,-0.06163763f,0.01311690f,0.02801403f,-0.04393044f,-0.11274043f,-0.05268031f,-0.03230412f,0.02881674f,-0.08069179f,-0.13510855f,-0.03919660f,-0.11513707f,0.16139638f,-0.02969144f,-0.13412495f,-0.14451624f,0.09057516f,0.15880273f,-0.14663246f,-0.01012716f,-0.04141591f,0.12320928f,-0.01447378f,-0.07642259f,-0.07128504f,0.01725797f,-0.08010311f,-0.10765874f,-0.04696390f,-0.02166544f,-0.12409744f,-0.13366139f,-0.13264275f,0.05603551f,0.10643411f,0.12325072f,0.08478004f,0.09344082f,-0.03750506f,-0.00839240f,-0.10388775f,0.06618509f,-0.08283833f,0.03120941f,-0.13675459f,-0.08408268f,0.04102969f,-0.04217678f,-0.00174472f,-0.03476416f,-0.12995440f,0.15668046f,0.09217388f,0.12130547f,0.13219430f,-0.00231873f,-0.00437242f,-0.07122281f,-0.15819481f,0.13465866f,-0.13564976f,-0.06927730f,-0.01268845f,-0.09617926f,-0.12806408f,-0.03642445f,-0.10942155f,-0.14987712f,0.02617298f,0.00928465f,0.00881396f,-0.00169924f,-0.08400620f,-0.10789405f,-0.00337988f,0.14984472f,-0.05891774f,0.09037609f,0.01548904f,-0.10849178f,-0.01313329f,-0.06899579f,-0.03928038f,0.11810986f,0.11665331f,0.15817595f,0.10814738f,0.03162768f,-0.05948207f,-0.11144596f,0.13228706f,-0.06973591f,-0.13219973f,-0.01044758f,-0.08895147f,0.03663519f,0.10949970f,0.01608585f,-0.04998250f,0.05270963f,-0.10355841f,0.09644882f,-0.03438947f,-0.11679934f,-0.03114216f,0.10661955f,0.12677747f,-0.07279632f,0.06262843f,0.05965463f,-0.14992300f,0.11379663f,-0.07140258f,-0.07287324f,-0.11729979f,-0.13892251f,-0.12034208f,0.07525345f,-0.15538968f,-0.13712433f,-0.02714552f,0.11660714f,-0.00452984f,-0.03705184f,-0.04385559f,0.10878661f,-0.01634979f,-0.13952659f,-0.15396400f,-0.13009515f,0.11540607f,0.08224877f,-0.01084666f,-0.06897490f,-0.03506115f,-0.07744889f,0.13841815f,0.02674184f,0.01213818f,0.11938846f,-0.00587301f,-0.04705051f,0.01258703f,0.12720989f,-0.11730707f,0.15234184f,-0.08258279f,0.14499314f,-0.12010145f,0.06707513f,-0.12758942f,0.00754224f,0.15688913f,0.13906926f,0.01429937f,-0.06581052f,0.05506279f,-0.12227408f,0.02092732f,0.10289379f,-0.10948426f,0.00338359f,-0.00557354f,0.03145925f,-0.11411309f,-0.11204928f,0.02620856f,0.07015050f,-0.12633684f,0.01541326f,0.07029026f,0.01231224f,0.03046712f,0.15337682f,0.15628533f,0.06692368f,-0.00116584f,0.01223342f,0.04014178f,-0.05495472f,0.02300633f,0.12245940f,-0.11488368f,-0.02421340f,0.12527159f,-0.13948332f,-0.07256119f,-0.10125302f,0.02340557f,0.04615667f,0.05676755f,0.11769691f,0.13057911f,0.15325324f,0.03152054f,-0.07990029f,-0.10832222f,0.04046487f,0.02443291f,-0.00611456f,-0.11357734f,0.10869182f,0.14337543f,-0.05054106f,0.09257165f,0.01312691f,0.05641906f,-0.00787441f,0.07589917f,-0.04974262f,-0.02397086f,-0.14810774f,-0.00640593f,-0.03400926f,0.11457697f,-0.08108058f,-0.00694483f,0.15020636f,0.05834800f,-0.08136600f,-0.02913649f,-0.14471214f,0.00454128f,0.12015888f,-0.01161482f,-0.07968051f,0.08401624f,-0.13625160f,0.06948461f,-0.05938715f,0.15947346f,0.02072597f,-0.10043868f,-0.01650194f,-0.12240598f,0.04911881f,0.11764879f,0.12871014f,0.08736948f,-0.12762785f,-0.03256319f,0.07937372f,-0.01283219f,-0.01946790f,0.10359401f,0.02518391f,0.01908097f,-0.01006141f,-0.11712618f,-0.02373429f,-0.02154476f,-0.12378389f,-0.09694461f,0.02876258f,0.14790763f,0.05460529f,0.00350453f,-0.06177196f,-0.04873195f,-0.06356443f,-0.09183314f,-0.15546964f,-0.04447510f,0.14769541f,-0.05524756f,-0.07961998f,0.12487030f,-0.06339219f,0.06310652f,0.13573529f,0.15022939f,-0.15031922f,-0.00313326f,-0.15910873f,0.05060512f,0.10162390f,-0.07306545f,-0.11029077f,0.08367282f,-0.08849524f,0.02235836f,0.06205945f,-0.09478636f,0.06189914f,0.00239295f,0.01743118f,-0.08626504f,-0.06259111f,0.15245502f,-0.13636528f,0.07649255f,-0.15537150f,0.10241207f,-0.13215423f,0.00066709f,0.13662027f,-0.15289091f,0.07699062f,-0.08516839f,-0.04982188f,-0.08654400f,0.06505676f,-0.11609803f,-0.13998593f,-0.12662688f,-0.02944033f,0.06399893f,-0.01585007f,-0.02387681f,-0.01518865f,0.12106186f,0.00714299f,0.03801857f,0.12586886f,-0.06720284f,0.05558143f,-0.12735473f,-0.13139205f,-0.03267206f,-0.11134948f,-0.05932495f,0.01582066f,0.12974890f,0.10580707f,-0.06270324f,0.01843642f,0.10671421f,-0.08451162f,-0.14222111f,0.06208966f,0.03032471f,-0.05082357f,-0.07338964f,0.08441057f,-0.14745989f,-0.12995572f,0.01528196f,-0.07926878f,0.11200373f,-0.08316544f,-0.14640492f,-0.06905723f,0.08296545f,-0.08247034f,0.13712503f,0.13627072f,-0.02085645f,-0.03832341f,0.02345535f,-0.10384171f,-0.14927469f,-0.04251306f,-0.14332479f,0.11024062f,0.01988020f,0.12482131f,-0.10713424f,-0.07099336f,0.04925624f,-0.01078248f,0.01631720f,-0.05655900f,0.14870596f,0.01223732f,0.13514762f,0.09306782f,-0.07861874f,0.03151846f,0.03835208f,-0.07282897f,0.00224700f,-0.00419884f,-0.14897937f,-0.09862148f,-0.07265122f,-0.00828665f,0.14891717f,-0.04250623f,0.05240484f,0.13530025f,0.05877515f,0.14220420f,0.11006907f,-0.13030882f,0.12334485f,-0.10872899f,0.03755534f,-0.05269894f,-0.04743702f,0.10531650f,-0.08628844f,-0.00998060f,0.01239253f,0.08612567f,0.11279321f,0.10312089f,0.04186741f,-0.14120448f,0.12649673f,-0.09222254f,-0.11827256f,-0.00804605f,0.14357254f,0.07330327f,0.08144403f,-0.08239286f,0.14358072f,-0.05029193f,-0.00907561f,-0.09980805f,0.00431891f,0.13419534f,-0.01771866f,0.11489392f,0.06019842f,-0.06418809f,0.14876303f,0.08371143f,0.11000908f,0.11374796f,-0.11701649f,0.05226733f,-0.04370074f,0.07099542f,0.04362062f,-0.06739255f,0.08094843f,0.03475277f,0.04651195f,-0.15392865f,-0.14878139f,0.10306474f,0.04114726f,-0.10259190f,0.07444128f,-0.09955005f,-0.08274592f,-0.11575007f,0.04969479f,-0.12527755f,-0.06171762f,-0.09271487f,-0.09780724f,-0.12687798f,-0.01762222f,0.00808908f,0.08224901f,0.08334304f,-0.04354745f,0.00825368f,-0.00217697f,-0.08121647f,-0.10115375f,0.08701134f,0.06971490f,0.09552800f,-0.03839044f,0.04485756f,-0.01469591f,-0.00598275f,-0.09268955f,0.02645161f,-0.05620490f,-0.07009874f,-0.01830828f,-0.03739603f,-0.06817834f,-0.02924533f,-0.09132470f,0.07801006f,-0.03862892f,0.10600771f,0.05324516f,-0.09497961f,0.07218676f,0.15379748f,0.04487599f,-0.05609279f,0.14736760f,-0.05499440f,-0.07966187f,0.01633768f,-0.14058016f,0.11725013f,0.09000704f,-0.12279352f,0.02163026f,0.08200034f,0.13672620f,0.14261131f,0.12450324f,0.06792317f,-0.11865898f,-0.03629630f,-0.14734149f,0.15627807f,-0.04618568f,-0.01040449f,0.05892140f,0.03344387f,-0.05686952f,0.13796936f,0.04655322f,0.00927212f,0.15676562f,-0.06841746f,0.00076465f,0.14361581f,0.06150100f,0.12574986f,-0.08051347f,0.03112259f,0.09740192f,-0.12469061f,-0.06640594f,-0.08276168f,0.12329330f,-0.05255088f,-0.03613334f,0.03810741f,0.14946760f,0.09572597f,-0.12672792f,-0.09358520f,-0.14062075f,0.02698252f,0.13541009f,-0.06791085f,0.14436555f,-0.01760856f,-0.04277610f,0.09316561f,0.07879540f,-0.03633041f,-0.13764520f,0.09758239f,-0.04865015f,-0.06522453f,-0.11754347f,-0.03584672f,-0.11729255f,0.01748439f,0.11343616f,-0.11743286f,0.08417036f,0.05322510f,0.14460941f,0.02300892f,0.05356380f,-0.14010851f,0.10994133f,-0.00371441f,-0.09747683f,0.11355199f,0.03709588f,-0.00045915f,-0.04303037f,-0.06606506f,0.02835812f,-0.08836308f,0.15552601f,0.10843785f,-0.10876735f,0.14520876f,-0.14532472f,0.06945954f,-0.07897072f,0.14874810f,-0.06559516f,-0.11492978f,-0.04806040f,-0.07997794f,0.07533502f,-0.02535819f,0.13142332f,-0.14685892f,-0.08214494f,0.06072029f,0.07173247f,-0.15427549f,0.11158684f,0.10797498f,-0.04390747f,-0.12485246f,0.01311362f,0.15638612f,0.04862182f,0.02840361f,-0.05748417f,0.13671000f,-0.02960439f,0.12310864f,0.05331937f,0.01970406f,-0.02610109f,0.05900577f,0.04917272f,0.03348601f,0.07711758f,0.15295498f,-0.00997672f,-0.10889762f,-0.14648001f,-0.05799945f,0.09739931f,-0.08326396f,0.07878354f,0.01530619f,-0.15620124f,-0.15480684f,-0.05435385f,-0.07732272f,-0.07939844f,0.09981897f,-0.02664190f,-0.09323590f,-0.05663419f,0.13713202f,0.04568918f,0.09408406f,-0.06937864f,-0.03016551f,0.04853964f,-0.07593212f,-0.06915350f,0.11659668f,0.13708608f,-0.08671489f,-0.00614393f,-0.00195837f,-0.08845193f,-0.11474011f,0.10605002f,-0.16041723f,-0.09026502f,0.00126195f,-0.02196149f,-0.13029227f,-0.01843364f,0.08381345f,-0.15584889f,0.08411319f,-0.15474470f,0.02992592f,-0.14863391f,0.09329066f,0.12360649f,-0.06331660f,-0.12507227f,0.04039754f,0.05756180f,0.14931284f,0.10567755f,0.03819771f,0.01472097f,0.07739799f,0.02073843f,0.12563929f,0.00188111f,-0.11843304f,0.03877918f,-0.09130306f,-0.08252904f,-0.14553076f,-0.05453346f,0.01822817f,0.15437637f,0.05433136f,-0.00733395f,0.06331212f,-0.10731223f,-0.12997060f,-0.04276025f,0.15591328f,-0.04010229f,0.09975686f,-0.04247309f,-0.03696538f,0.11016499f,0.15430997f,-0.05823450f,-0.04737962f,-0.05635551f,0.03059190f,0.08826239f,0.09294985f,-0.05339089f,0.07670679f,-0.09309452f,-0.12667914f,0.00632159f,-0.01150629f,0.12308827f,-0.13732502f,-0.04721634f,0.15430227f,0.04832469f,0.04562191f,-0.00691377f,-0.03543913f,0.00555789f,-0.13853748f,-0.13875894f,-0.04658659f,-0.14241962f,0.13552630f,0.15045416f,0.12835576f,0.05015871f,0.10990745f,-0.02425463f,-0.07794841f,-0.15565056f,-0.10749794f,0.06311922f,-0.04279375f,-0.12985125f,0.01633550f,0.10279142f,0.00644811f,-0.05034549f,-0.09320852f,0.14229539f,0.04224937f,0.08728363f,0.13772792f,0.13867520f,-0.13188508f,-0.12056541f,0.07910407f,-0.04844658f,0.06092419f,-0.06530792f,-0.05171816f,-0.09612668f,-0.04998825f,0.08714348f,-0.12916131f,0.00083731f,-0.03477703f,0.13834040f,-0.15417053f,0.14462909f,-0.06563357f,0.02391875f,0.03199946f,-0.01415139f,0.02424500f,0.04957629f,-0.00260327f,0.02060302f,-0.07756914f,-0.02700558f,0.06092621f,0.04417877f,0.11033195f,0.14524701f,-0.03195670f,-0.09297646f,-0.10042730f,0.01199811f,0.07917801f,0.03724460f,0.01911576f,0.11323238f,-0.15029456f,0.01372971f,-0.01902267f,0.04959123f,-0.04020581f,0.04637695f,0.02870334f,0.09396651f,-0.06653374f,0.01480787f,-0.13199230f,-0.10189990f,0.10168987f,0.10092417f,-0.14465311f,0.08214363f,0.04563975f,0.14867486f,-0.02198509f,-0.13694523f,0.11367721f,-0.10168558f,-0.04289757f,0.05851226f,0.05100638f,0.09384916f,-0.03374581f,0.03324810f,0.15980457f,0.11437129f,0.15075222f,0.03886347f,-0.08788046f,0.10070706f,0.01628383f,0.06086636f,-0.01261452f,0.01794308f,-0.10801284f,-0.04510210f,0.15378600f,0.08145519f,0.09808183f,-0.07462949f,-0.07270669f,0.08411667f,0.05502785f,0.14226554f,-0.04454536f,0.09670986f,0.04186115f,-0.12671125f,0.12916255f,0.01805736f,0.12087958f,-0.12654698f,-0.09057931f,0.12491063f,0.03341607f,-0.14023252f,0.00941933f,0.09637538f,-0.04677086f,0.09023786f,0.00735372f,0.13849905f,-0.05549213f,-0.10659552f,-0.03101604f,0.13756707f,0.10280915f,-0.01190249f,-0.11170164f,0.10477052f,-0.11653545f,0.02186556f,0.10293896f,-0.10328162f,0.02458429f,0.07545356f,-0.06913247f,-0.05067620f,-0.08799597f,-0.08428492f,0.14345011f,0.03897393f,-0.11145516f,-0.11842544f,-0.13480192f,0.07332695f,-0.12253069f,0.01355923f,0.12983669f,0.04942999f,0.06725693f,0.06244001f,-0.13044877f,0.07479116f,0.12108333f,0.00535328f,0.00007559f,0.09549777f,0.07009802f,-0.11988956f,0.05268430f,-0.07680821f,-0.10542693f,-0.09799632f,0.04749741f,0.08512925f,-0.10622641f,0.08400236f,0.12892339f,0.11340813f,0.11270170f,0.11540648f,0.12453737f,-0.14097720f,-0.05860908f,0.00171127f,-0.14714032f,-0.15398307f,-0.10659052f,0.12860392f,0.13851784f,-0.03847629f,0.06453398f,-0.05526365f,-0.12315878f,0.03816960f,0.08126515f,0.13490030f,-0.12152613f,0.09700962f,0.02537296f,-0.15083073f,0.04693554f,0.00792469f,0.03954790f,0.09079950f,-0.08445715f,0.09422139f,-0.00822208f,0.00113462f,-0.03334718f,0.15212938f,-0.03550869f,0.00176115f,0.08588156f,-0.02835215f,-0.04423927f,0.12826504f,0.03184116f,0.09937931f,-0.01321689f,-0.10324542f,-0.04415249f,-0.10350052f,0.09425209f,-0.04602078f,0.08419567f,0.09559719f,-0.13432254f,0.12327708f,0.01362205f,-0.06750971f,-0.14689779f,0.08226557f,-0.01976718f,-0.12189445f,-0.01008953f,-0.09584824f,0.02137431f,-0.05519962f,0.01895085f,-0.10860401f,0.14693834f,-0.10914057f,0.12403050f,0.01845585f,0.08919412f,-0.06843361f,-0.01542008f,0.01797857f,-0.13390450f,0.13484417f,0.11313710f,-0.07893545f,0.06148855f,-0.15823074f,0.09001764f,-0.11800441f,-0.06829540f,0.02709227f,0.14795162f,-0.14950311f,-0.10492013f,0.08516390f,-0.00605947f,-0.04962639f,0.04503314f,0.12484596f,-0.08620650f,0.10342742f,-0.07550959f,-0.01097695f,0.07623192f,0.07618976f,0.11572879f,0.14734666f,0.11804230f,-0.01019457f,-0.04631423f,0.07690439f,0.12089695f,-0.02091175f,-0.10832840f,0.12986042f,-0.04903847f,0.07217350f,-0.03430892f,-0.10775113f,-0.08475643f,-0.04688067f,-0.03453555f,-0.05496886f,-0.15435125f,-0.09464502f,0.07065126f,-0.11688431f,0.02937582f,-0.02291287f,-0.08108108f,-0.06501845f,-0.00447716f,-0.10050680f,-0.13084123f,-0.01827299f,-0.06711980f,0.05997522f,0.03822355f,0.10066535f,0.14978755f,-0.09790561f,0.04312317f,0.11515158f,-0.01036445f,-0.00282481f,0.01024231f,-0.09542736f,0.01355454f,-0.14585480f,-0.14276199f,0.03313946f,0.05818570f,-0.02342848f,-0.11512122f,-0.08572581f,0.05530954f,0.08443192f,0.08944694f,-0.03523062f,-0.13854477f,0.03406069f,-0.00280248f,0.14850698f,0.07107503f,-0.06549224f,-0.01521610f,-0.02551145f,-0.09377053f,-0.04234081f,-0.07383306f,-0.11862742f,-0.12016664f,-0.05016900f,-0.08062082f,0.02418801f,-0.10512300f,-0.01943313f,0.07309984f,-0.03536696f,-0.01324213f,-0.09280053f,-0.01896619f,-0.07063810f,0.06891884f,-0.09659711f,0.09568401f,0.06165174f,-0.08913558f,0.00177448f,-0.07061001f,0.15134390f,0.01673458f,-0.13713109f,0.14603838f,0.08034853f,0.11395714f,0.11541723f,-0.01342535f,-0.02683376f,-0.01163629f,-0.15136313f,-0.12223919f,-0.03664252f,0.08388115f,-0.05670784f,0.00932521f,0.15199623f,-0.06939626f,-0.09969209f,0.08354414f,0.12989374f,-0.08871305f,0.05451429f,-0.03359739f,0.13337998f,-0.05403692f,0.10584242f,-0.00983598f,-0.06342146f,-0.12210144f,-0.07468133f,-0.14069568f,0.07183897f,-0.05533306f,0.01748285f,-0.05105045f,0.05519360f,0.09577070f,-0.01602206f,-0.10057687f,-0.07179486f,-0.03079904f,-0.13516484f,0.07648671f,-0.14727846f,-0.00689459f,-0.04397820f,-0.12795882f,0.01122828f,-0.00551720f,-0.08007406f,0.08336726f,0.14194128f,0.05078124f,0.13018723f,-0.14525355f,-0.01417234f,0.08998581f,-0.01839780f,-0.04084119f,-0.12705934f,0.09554721f,0.11748715f,0.01783573f,-0.08932482f,0.07467237f,0.12343607f,-0.04320080f,-0.00463651f,-0.15019566f,-0.03184125f,0.15367603f,0.15364720f,-0.05855455f,0.09890555f,0.05067134f,-0.12963635f,-0.06778920f,-0.14988208f,0.08189528f,0.03577815f,-0.05521325f,-0.05956770f,0.13875854f,-0.05274418f,-0.02443250f,0.14884593f,-0.03384203f,0.13710065f,-0.15698858f,-0.12200052f,-0.15415709f,0.00840772f,0.01954433f,0.09229809f,-0.11472329f,-0.08428118f,-0.02836948f,-0.06116917f,-0.07199507f,-0.03648783f,-0.00343236f,-0.05239775f,-0.14649063f,-0.09431826f,-0.03775499f,-0.00168297f,0.12240962f,0.11837016f,0.12260675f,0.06904679f,0.14524156f,-0.06405783f,0.12199961f,0.13716982f,0.07097948f,-0.12427658f,0.03363863f,0.02017483f,-0.14599223f,-0.04703803f,-0.04354485f,0.08672217f,-0.05269022f,0.09542689f,-0.03102122f,0.02796609f,0.01927882f,-0.06870081f,0.11814499f,0.07688056f,-0.09021223f,0.01021023f,-0.07979701f,-0.08713119f,0.14559840f,-0.04715071f,0.01337982f,-0.06434823f,0.08104967f,-0.03665921f,-0.14734559f,-0.06969243f,0.06245969f,-0.11839540f,-0.00069760f,-0.15887201f,-0.05901776f,-0.09823884f,0.15041779f,0.01659618f,-0.14855260f,-0.05004068f,0.14606269f,0.11698829f,-0.05450398f,0.03773173f,0.13735135f,0.15071563f,-0.00453698f,0.13259524f,0.13897282f,0.11806059f,0.00907128f,-0.08373975f,-0.03641016f,0.01357006f,0.03110699f,-0.03979428f,-0.13248466f,-0.10164899f,0.11732050f,0.04186039f,-0.00602948f,0.01640539f,-0.05114036f,0.04280481f,0.13033260f,-0.00149671f,-0.15016416f,0.09090841f,0.01033582f,-0.10516910f,0.03005739f,-0.05103675f,-0.01516999f,0.02269585f,-0.06742903f,-0.13438570f,0.06957719f,-0.04890063f,0.03040161f,-0.10869649f,0.11094220f,0.07061724f,0.08257334f,0.14292437f,-0.10503104f,-0.13374908f,0.15951867f,0.06305002f,-0.06236608f,-0.13960057f,-0.12137470f,-0.06415480f,0.07772141f,-0.12262804f,0.07707071f,-0.05532373f,-0.02063543f,0.02238694f,0.02337779f,-0.10192490f,-0.11602654f,0.14287598f,-0.03440389f,0.13505413f,-0.05725837f,0.10128018f,-0.02135656f,0.08000600f,0.03509298f,0.10693869f,0.11905107f,0.03006418f,0.12190381f,0.00360568f,-0.02167747f,-0.13610211f,0.01448728f,0.10976985f,-0.10921109f,-0.06224006f,-0.02986228f,-0.14800319f,-0.08891276f,0.02570298f,0.12665135f,0.00527428f,-0.15685958f,0.04906508f,-0.15114884f,-0.02939811f,0.06953474f,-0.08390439f,-0.04717264f,-0.02494369f,0.13070393f,0.08908569f,-0.01771465f,0.10640348f,-0.09088432f,-0.03042657f,0.10254486f,-0.04539538f,0.02139981f,0.01187644f,0.14801079f,0.11687403f,-0.08915482f,-0.05529425f,0.01216597f,0.10755648f,0.07101210f,-0.06308001f,-0.16109638f,-0.02446321f,-0.09173200f,0.13433781f,-0.06520717f,-0.09272384f,0.02457676f,0.05611193f,-0.00474944f,-0.09611209f,-0.00196936f,0.06159948f,-0.12399127f,-0.03346220f,-0.15719573f,-0.08993200f,-0.01203995f,-0.06018416f,0.00292496f,-0.05365020f,0.12935488f,-0.08470052f,-0.11964919f,0.02874075f,-0.07054631f,0.01192986f,0.15561318f,0.09961919f,-0.01709839f,-0.09944842f,0.05558166f,0.04811781f,0.02106613f,-0.11958773f,-0.14627370f,0.03366504f,0.05759533f,0.13612427f,0.11569784f,0.11883835f,0.01131542f,0.13220352f,-0.14398408f,0.11563963f,0.11263584f,-0.04921782f,-0.04194223f,-0.11022193f,-0.12933892f,0.13642651f,0.00179393f,0.10860853f,0.05437637f,-0.04279082f,-0.12170961f,-0.14186658f,-0.12089030f,0.01475792f,-0.05317999f,0.00999392f,0.08320380f,-0.15043433f,-0.05432383f,0.14419550f,-0.15990165f,-0.09991799f,-0.10465319f,-0.11380094f,-0.09331709f,-0.08816659f,0.14046247f,0.03789295f,0.12329223f,-0.11119173f,-0.01212980f,0.04239756f,-0.14589138f,-0.15493299f,-0.07939642f,-0.02310365f,-0.08443286f,0.03642756f,0.06077819f,0.08701143f,-0.10351607f,-0.02099344f,0.04070402f,-0.14821300f,-0.00960710f,0.14893253f,0.11832196f,-0.06139397f,-0.04077635f,-0.04848444f,-0.09255562f,0.03370602f,0.13459401f,-0.11296019f,-0.01613249f,0.00687053f,0.12004066f,-0.01711132f,-0.00910065f,0.05137599f,0.00954654f,-0.05481676f,0.02761111f,0.11910566f,-0.11611980f,0.12588984f,0.00254872f,0.01491654f,-0.05764113f,-0.13083762f,-0.13921772f,0.03153445f,-0.01021961f,-0.09373417f,-0.12548734f,-0.00951632f,0.09806886f,-0.05904726f,0.03159998f,-0.00994727f,0.10896060f,-0.05775792f,0.09381387f,-0.10590569f,-0.15044938f,0.08198880f,-0.08165783f,-0.14365914f,0.10048835f,-0.02246238f,0.10753581f,0.07558490f,-0.14936428f,0.04871965f,0.10915124f,0.08655132f,0.12694088f,0.09629940f,-0.03702321f,-0.06086182f,-0.09660788f,0.11185850f,-0.01124301f,-0.03648933f,0.13574007f,0.11251771f,0.06020130f,-0.02297170f,-0.01164020f,0.07375688f,0.07700521f,0.08967356f,0.13409169f,-0.00457809f,0.12592269f,-0.08603197f,-0.13629752f,-0.11160047f,-0.11845458f,0.13502897f,0.14465781f,-0.01067139f,-0.13480268f,-0.01454836f,0.12178209f,-0.06883754f,0.13888615f,-0.01736934f,-0.14657839f,-0.05433619f,0.10897747f,-0.01691332f,-0.06655098f,0.11840945f,0.10115570f,0.15181221f,-0.09699869f,0.04505791f,-0.14548621f,-0.12410102f,-0.02762195f,0.04361116f,-0.00856481f,0.12652892f,-0.04479600f,0.01211497f,0.01685810f,-0.06839033f,-0.04809507f,-0.06940719f,0.02284016f,0.09287312f,-0.09673104f,0.10272581f,-0.11093713f,0.07499784f,-0.01012306f,-0.04034875f,0.11719827f,-0.02018807f,-0.12037767f,-0.05504888f,0.02085059f,-0.05910247f,0.09956504f,0.13702631f,0.13965507f,-0.02285575f,-0.00242876f,0.10029195f,0.03911707f,-0.04505546f,-0.11682647f,0.10279467f,-0.08743875f,0.07638866f,-0.13201794f,0.08598007f,0.07271361f,-0.07610272f,0.13682985f,-0.00388525f,-0.12910539f,-0.04056069f,0.14772992f,0.05659234f,0.00723486f,0.06823554f,-0.09596780f,0.13946515f,-0.01851228f,-0.10218949f,0.00235327f,-0.12832244f,0.03869048f,0.05093774f,0.05108197f,0.04169174f,0.02435096f,-0.14207229f,0.12671919f,0.01591304f,-0.15544648f,0.02590390f,-0.09833140f,0.06304146f,0.01956772f,0.01527155f,0.00596849f,-0.07600820f,-0.14099954f,-0.12270521f,-0.02023156f,-0.09218826f,0.14286637f,0.01440970f,0.01024703f,0.08867370f,0.02237258f,-0.15760987f,0.15465890f,-0.13638623f,-0.15439804f,0.00402756f,-0.11343914f,-0.08842494f,-0.06910529f,0.14537711f,-0.08735225f,0.10129680f,-0.03725069f,0.12789175f,-0.14246593f,-0.04372677f,0.00470615f,0.09726872f,-0.07421933f,0.02214855f,0.08703531f,0.13830286f,0.10824478f,-0.00628330f,0.07310707f,0.12098326f,0.15046823f,0.06895825f,0.13636974f,-0.07024921f,0.12414366f,-0.02042190f,0.12970710f,0.01197403f,0.03141748f,0.01429840f,-0.00798925f,-0.09763861f,-0.02006751f,0.05695955f,0.02135111f,-0.05778980f,0.06160472f,-0.03695526f,-0.14489505f,-0.07802995f,0.13735674f,0.15155302f,0.15016516f,-0.06320596f,-0.09489177f,0.05239306f,-0.05675069f,-0.11914518f,-0.03018831f,0.05885747f,-0.15225346f,0.13957013f,-0.02674503f,-0.00440170f,-0.11612132f,0.05944958f,0.13907768f,0.15240751f,-0.12371103f,0.08675603f,-0.03850406f,0.00791299f,-0.07114279f,0.06597002f,0.05330434f,-0.08866724f,0.08104546f,0.07171021f,-0.00192020f,-0.03674413f,0.08674851f,0.01434878f,-0.14118269f,0.05857439f,0.10637572f,-0.08714046f,-0.07140259f,0.00273679f,0.13230069f};
const float b1_data[] PROGMEM = {
-0.00427022f,0.00256209f,-0.00089910f,-0.00553753f,-0.00419132f,-0.00445202f,-0.00659546f,-0.00378184f,0.00079649f,0.00216866f,-0.00385196f,-0.00484632f,0.00418523f,0.00059640f,-0.00291090f,-0.00352348f
};
const float W2_data[] PROGMEM = {
0.22611363f,-0.11988372f,-0.28310850f,-0.26821086f,0.41303656f,0.32627484f,0.20017226f,-0.35168144f,-0.22484218f,-0.28299594f,0.13694324f,-0.16397418f,-0.19246806f,-0.41443390f,0.43018034f,0.41565004f,-0.10306714f,0.21972834f,-0.02301006f,0.37473074f,0.45520788f,-0.42023599f,-0.14724109f,-0.38982171f,-0.51056427f,-0.50519514f,-0.50140911f,0.18472242f,0.41043147f,0.28802732f,-0.13671553f,-0.32817319f};
const float b2_data[] PROGMEM = {
-0.00596047f,0.00596047f
};
